{"learner":{"attributes":{"scikit_learn":"{\"_estimator_type\": \"classifier\"}"},"feature_names":["RSI_14","MACD_12_26_9","roe","roa","avg_sentiment","treasury_yield_10y","cpi"],"feature_types":["float","float","float","float","float","float","float"],"gradient_booster":{"model":{"gbtree_model_param":{"num_parallel_tree":"1","num_trees":"100"},"iteration_indptr":[0,1,2,3,4,5,6,7,8,9,10,11,12,13,14,15,16,17,18,19,20,21,22,23,24,25,26,27,28,29,30,31,32,33,34,35,36,37,38,39,40,41,42,43,44,45,46,47,48,49,50,51,52,53,54,55,56,57,58,59,60,61,62,63,64,65,66,67,68,69,70,71,72,73,74,75,76,77,78,79,80,81,82,83,84,85,86,87,88,89,90,91,92,93,94,95,96,97,98,99,100],"tree_info":[0,0,0,0,0,0,0,0,0,0,0,0,0,0,0,0,0,0,0,0,0,0,0,0,0,0,0,0,0,0,0,0,0,0,0,0,0,0,0,0,0,0,0,0,0,0,0,0,0,0,0,0,0,0,0,0,0,0,0,0,0,0,0,0,0,0,0,0,0,0,0,0,0,0,0,0,0,0,0,0,0,0,0,0,0,0,0,0,0,0,0,0,0,0,0,0,0,0,0,0],"trees":[{"base_weights":[-3.2782555E-8,4.6153843E-1,-5.625E-1,9.940347E-1,-1.6802576E0,5.5527157E-1,6.8393046E-1,1.8685117E-2,-5.5102044E-1,8.8305116E-1,-1.0672927E0,3.0520907E-1,1.4516255E0,-4.2857146E-1,1.8685117E-2,4.32E-1,-9.774921E-2,5.1011235E-1,1.9223301E-1],"categories":[],"categories_nodes":[],"categories_segments":[],"categories_sizes":[],"default_left":[0,0,0,0,0,0,0,0,0,0,0,0,0,0,0,0,0,0,0],"id":0,"left_children":[1,3,-1,5,7,-1,9,-1,-1,11,13,15,17,-1,-1,-1,-1,-1,-1],"loss_changes":[7.009615E1,7.580262E1,0E0,1.2733711E1,3.7447777E0,0E0,1.498531E1,0E0,0E0,1.161694E1,1.9516253E0,1.4412649E1,2.5885506E0,0E0,0E0,0E0,0E0,0E0,0E0],"parents":[2147483647,0,0,1,1,3,3,4,4,6,6,9,9,10,10,11,11,12,12],"right_children":[2,4,-1,6,8,-1,10,-1,-1,12,14,16,18,-1,-1,-1,-1,-1,-1],"split_conditions":[1.05584376E-1,6.0452972E1,-5.625E-1,3.81E0,3.82E0,5.5527157E-1,5.6749607E1,1.8685117E-2,-5.5102044E-1,-4.130167E-1,5.9217834E1,-6.101807E0,1.5102819E0,-4.2857146E-1,1.8685117E-2,4.32E-1,-9.774921E-2,5.1011235E-1,1.9223301E-1],"split_indices":[3,0,0,5,5,0,0,0,0,1,0,1,1,0,0,0,0,0,0],"split_type":[0,0,0,0,0,0,0,0,0,0,0,0,0,0,0,0,0,0,0],"sum_hessian":[7.9E1,6.4E1,1.5E1,5.1685715E1,1.2314285E1,1.2414286E1,3.9271427E1,1.0642858E0,1.125E1,3.570714E1,3.5642858E0,1.8471428E1,1.7235714E1,2.5E0,1.0642858E0,6.142857E0,1.2328571E1,1.2349999E1,4.885714E0],"tree_param":{"num_deleted":"0","num_feature":"7","num_nodes":"19","size_leaf_vector":"1"}},{"base_weights":[6.661177E-4,3.518257E-1,-4.3927184E-1,7.552716E-1,-1.3073895E0,6.577017E-2,1.0203054E0,1.5795853E-2,-4.315612E-1,9.623881E-1,-1.0895019E0,1.3103644E0,-4.5268834E-2,3.9204046E-1,-3.1245311E-3,-4.7519433E-1,5.481188E-2,5.3503585E-1,1.3759136E0,4.2719913E-1,-4.508219E-1,3.340789E-1,-3.1747538E-1,-9.223167E-3,3.3833686E-2,3.2736826E-1,-1.0396058E-1,1.7616281E-1,4.38585E-1],"categories":[],"categories_nodes":[],"categories_segments":[],"categories_sizes":[],"default_left":[0,0,0,0,0,0,0,0,0,0,0,0,0,0,0,0,0,0,0,0,0,0,0,0,0,0,0,0,0],"id":1,"left_children":[1,3,-1,5,7,9,11,-1,-1,13,15,17,19,-1,21,-1,23,25,27,-1,-1,-1,-1,-1,-1,-1,-1,-1,-1],"loss_changes":[3.95683E1,4.252E1,0E0,9.169085E0,2.3056202E0,1.6692148E1,1.1322193E1,0E0,0E0,3.0082245E0,4.0863686E0,7.21241E-1,2.0906227E1,0E0,5.1526914E0,0E0,1.883804E-2,2.2765372E0,8.925743E-1,0E0,0E0,0E0,0E0,0E0,0E0,0E0,0E0,0E0,0E0],"parents":[2147483647,0,0,1,1,3,3,4,4,5,5,6,6,9,9,10,10,11,11,12,12,14,14,16,16,17,17,18,18],"right_children":[2,4,-1,6,8,10,12,-1,-1,14,16,18,20,-1,22,-1,24,26,28,-1,-1,-1,-1,-1,-1,-1,-1,-1,-1],"split_conditions":[1.05584376E-1,6.0452972E1,-4.3927184E-1,-8.234793E-1,3.82E0,4.4037937E1,1.7093782E0,1.5795853E-2,-4.315612E-1,-2.6240861E0,4.41E0,3.14851E2,5.004454E1,3.9204046E-1,4.0208366E1,-4.7519433E-1,-1.3600295E0,4.8694668E1,-6.198493E-1,4.2719913E-1,-4.508219E-1,3.340789E-1,-3.1747538E-1,-9.223167E-3,3.3833686E-2,3.2736826E-1,-1.0396058E-1,1.7616281E-1,4.38585E-1],"split_indices":[3,0,0,1,5,0,1,0,0,1,5,6,0,0,0,0,1,0,1,0,0,0,0,0,0,0,0,0,0],"split_type":[0,0,0,0,0,0,0,0,0,0,0,0,0,0,0,0,0,0,0,0,0,0,0,0,0,0,0,0,0],"sum_hessian":[7.491749E1,6.1044132E1,1.3873354E1,4.9542454E1,1.1501677E1,1.4102391E1,3.5440063E1,1.0641928E0,1.0437484E1,8.034048E0,6.068343E0,2.7676535E1,7.76353E0,5.661149E0,2.3728988E0,3.9690318E0,2.0993114E0,2.8717127E0,2.4804821E1,3.8775582E0,3.8859715E0,1.1258799E0,1.2470189E0,1.0375637E0,1.0617476E0,1.6149831E0,1.2567297E0,3.2093658E0,2.1595455E1],"tree_param":{"num_deleted":"0","num_feature":"7","num_nodes":"29","size_leaf_vector":"1"}},{"base_weights":[-1.5231444E-3,2.8635177E-1,-3.7809163E-1,6.1340654E-1,-1.1076932E0,3.795606E-1,3.978661E-1,1.3354447E-2,-3.7073398E-1,4.7652222E-2,1.0105535E0,4.2948943E-1,-6.536939E-1,3.52688E-1,1.2391857E0,-3.641369E-2,3.4504005E-1,2.3933427E-2,-3.9778838E-1,3.0690718E-1,-1.4972581E-1,1.2046447E-1,3.9242288E-1],"categories":[],"categories_nodes":[],"categories_segments":[],"categories_sizes":[],"default_left":[0,0,0,0,0,0,0,0,0,0,0,0,0,0,0,0,0,0,0,0,0,0,0],"id":2,"left_children":[1,3,-1,5,7,-1,9,-1,-1,11,13,15,17,19,21,-1,-1,-1,-1,-1,-1,-1,-1],"loss_changes":[2.489561E1,2.6174503E1,0E0,5.950142E0,1.6758318E0,0E0,7.6720285E0,0E0,0E0,6.6926937E0,1.5237665E0,6.533466E0,4.4630895E0,3.2284322E0,1.0047913E-2,0E0,0E0,0E0,0E0,0E0,0E0,0E0,0E0],"parents":[2147483647,0,0,1,1,3,3,4,4,6,6,9,9,10,10,11,11,12,12,13,13,14,14],"right_children":[2,4,-1,6,8,-1,10,-1,-1,12,14,16,18,20,22,-1,-1,-1,-1,-1,-1,-1,-1],"split_conditions":[1.05584376E-1,6.0452972E1,-3.7809163E-1,3.81E0,3.82E0,3.795606E-1,4.39E0,1.3354447E-2,-3.7073398E-1,5.1384056E1,-1.0378046E0,-1.9767788E-1,6.4678E-2,4.3114376E1,4.523793E1,-3.641369E-2,3.4504005E-1,2.3933427E-2,-3.9778838E-1,3.0690718E-1,-1.4972581E-1,1.2046447E-1,3.9242288E-1],"split_indices":[3,0,0,5,5,0,5,0,0,0,1,1,3,0,0,0,0,0,0,0,0,0,0],"split_type":[0,0,0,0,0,0,0,0,0,0,0,0,0,0,0,0,0,0,0,0,0,0,0],"sum_hessian":[6.6705925E1,5.491887E1,1.1787054E1,4.493639E1,9.982476E0,9.956866E0,3.4979527E1,1.0639694E0,8.918508E0,2.294301E1,1.2036515E1,1.5106259E1,7.836751E0,3.7600274E0,8.276488E0,9.032945E0,6.0733147E0,4.1692514E0,3.6674993E0,1.9916064E0,1.768421E0,1.1479087E0,7.128579E0],"tree_param":{"num_deleted":"0","num_feature":"7","num_nodes":"23","size_leaf_vector":"1"}},{"base_weights":[1.2341485E-3,2.4164586E-1,-3.401842E-1,5.7009006E-1,-7.7889764E-1,6.0941737E-2,8.226574E-1,2.870601E-1,-3.742493E-1,7.4877304E-1,-8.0299455E-1,9.428651E-1,1.4055443E-1,3.4228018E-1,6.92495E-2,-3.6194563E-1,1.4988901E-2,9.918254E-1,2.880248E-2,2.7900144E-1,-5.2324337E-1,-1.2387149E-1,1.8281949E-1,1.6985978E-1,3.5716E-1,-2.5677866E-1,3.651743E-2],"categories":[],"categories_nodes":[],"categories_segments":[],"categories_sizes":[],"default_left":[0,0,0,0,0,0,0,0,0,0,0,0,0,0,0,0,0,0,0,0,0,0,0,0,0,0,0],"id":3,"left_children":[1,3,-1,5,7,9,11,-1,-1,13,15,17,19,-1,21,-1,-1,23,-1,-1,25,-1,-1,-1,-1,-1,-1],"loss_changes":[1.6609968E1,1.7277744E1,0E0,4.90987E0,1.1483081E1,8.842955E0,1.974863E0,0E0,0E0,2.116562E0,2.3421202E0,8.0350304E-1,3.120417E0,0E0,1.3140788E0,0E0,0E0,1.0498943E0,0E0,0E0,8.2734275E-1,0E0,0E0,0E0,0E0,0E0,0E0],"parents":[2147483647,0,0,1,1,3,3,4,4,5,5,6,6,9,9,10,10,11,11,12,12,14,14,17,17,20,20],"right_children":[2,4,-1,6,8,10,12,-1,-1,14,16,18,20,-1,22,-1,-1,24,-1,-1,26,-1,-1,-1,-1,-1,-1],"split_conditions":[1.05584376E-1,2.010206E0,-3.401842E-1,-8.234793E-1,5.004454E1,4.4037937E1,5.741454E1,2.870601E-1,-3.742493E-1,-6.101807E0,4.41E0,1.7093782E0,3.82E0,3.4228018E-1,-1.2267567E0,-3.6194563E-1,1.4988901E-2,5.152862E-2,2.880248E-2,2.7900144E-1,4.09E0,-1.2387149E-1,1.8281949E-1,1.6985978E-1,3.5716E-1,-2.5677866E-1,3.651743E-2],"split_indices":[3,1,0,1,0,0,0,0,0,1,5,1,5,0,1,0,0,1,0,0,5,0,0,0,0,0,0],"split_type":[0,0,0,0,0,0,0,0,0,0,0,0,0,0,0,0,0,0,0,0,0,0,0,0,0,0,0],"sum_hessian":[5.8858185E1,4.9221134E1,9.63705E0,3.757096E1,1.1650176E1,1.2869245E1,2.4701715E1,2.255074E0,9.395102E0,7.2390804E0,5.630164E0,2.0675722E1,4.025994E0,4.159541E0,3.0795393E0,3.540745E0,2.0894194E0,1.9383875E1,1.2918472E0,1.6557659E0,2.3702278E0,1.7515872E0,1.3279521E0,7.394498E0,1.1989376E1,1.3478808E0,1.022347E0],"tree_param":{"num_deleted":"0","num_feature":"7","num_nodes":"27","size_leaf_vector":"1"}},{"base_weights":[3.503835E-3,2.1147367E-1,-3.1319115E-1,4.3857682E-1,-8.701545E-1,3.13916E-1,2.6749033E-1,1.5842643E-2,-3.0477804E-1,-4.703551E-2,7.369806E-1,2.3401354E-1,-2.3392804E-1,2.7937278E-1,1.0251927E0,-2.9214218E-1,1.004166E-1,2.2182819E-1,-8.032181E-2,3.3287087E-1,9.169434E-2],"categories":[],"categories_nodes":[],"categories_segments":[],"categories_sizes":[],"default_left":[0,0,0,0,0,0,0,0,0,0,0,0,0,0,0,0,0,0,0,0,0],"id":4,"left_children":[1,3,-1,5,7,-1,9,-1,-1,11,13,-1,15,17,19,-1,-1,-1,-1,-1,-1],"loss_changes":[1.1477136E1,1.1176028E1,0E0,3.5659046E0,1.1246943E0,0E0,4.4946623E0,0E0,0E0,3.1234922E0,1.3195457E0,0E0,7.1792006E0,1.728341E0,9.171581E-2,0E0,0E0,0E0,0E0,0E0,0E0],"parents":[2147483647,0,0,1,1,3,3,4,4,6,6,9,9,10,10,12,12,13,13,14,14],"right_children":[2,4,-1,6,8,-1,10,-1,-1,12,14,-1,16,18,20,-1,-1,-1,-1,-1,-1],"split_conditions":[1.05584376E-1,6.0452972E1,-3.1319115E-1,3.81E0,3.82E0,3.13916E-1,4.37E0,1.5842643E-2,-3.0477804E-1,-6.101807E0,-9.6802086E-1,2.3401354E-1,5.5020726E-1,-2.6240861E0,4.2574793E-1,-2.9214218E-1,1.004166E-1,2.2182819E-1,-8.032181E-2,3.3287087E-1,9.169434E-2],"split_indices":[3,0,0,5,5,0,5,0,0,1,1,0,1,1,1,0,0,0,0,0,0],"split_type":[0,0,0,0,0,0,0,0,0,0,0,0,0,0,0,0,0,0,0,0,0],"sum_hessian":[5.0671894E1,4.294377E1,7.7281218E0,3.5983128E1,6.960645E0,6.780013E0,2.9203114E1,1.0363951E0,5.92425E0,1.8026457E1,1.1176657E1,2.7376046E0,1.5288852E1,5.08009E0,6.0965667E0,6.334478E0,8.954374E0,2.568655E0,2.511435E0,4.9715395E0,1.125027E0],"tree_param":{"num_deleted":"0","num_feature":"7","num_nodes":"21","size_leaf_vector":"1"}},{"base_weights":[8.283614E-3,1.8563518E-1,-2.9176557E-1,4.444406E-1,-6.5972644E-1,3.0805948E-1,2.6280147E-1,2.4479412E-1,-3.3380127E-1,-6.0655948E-2,6.830956E-1,3.521314E-1,-5.124546E-1,1.5942232E-1,9.801561E-1,2.2326273E-1,-1.9352938E-1,1.5379518E-1,-2.7035874E-1,2.2864787E-1,-1.6170982E-1,7.75163E-2,3.2215288E-1],"categories":[],"categories_nodes":[],"categories_segments":[],"categories_sizes":[],"default_left":[0,0,0,0,0,0,0,0,0,0,0,0,0,0,0,0,0,0,0,0,0,0,0],"id":5,"left_children":[1,3,-1,5,7,-1,9,-1,-1,11,13,15,17,19,21,-1,-1,-1,-1,-1,-1,-1,-1],"loss_changes":[8.111071E0,8.923963E0,0E0,2.9884849E0,7.3573613E0,0E0,3.4158897E0,0E0,0E0,2.9676926E0,1.535727E0,3.7653995E0,3.4677825E0,2.5708847E0,1.7867088E-1,0E0,0E0,0E0,0E0,0E0,0E0,0E0,0E0],"parents":[2147483647,0,0,1,1,3,3,4,4,6,6,9,9,10,10,11,11,12,12,13,13,14,14],"right_children":[2,4,-1,6,8,-1,10,-1,-1,12,14,16,18,20,22,-1,-1,-1,-1,-1,-1,-1,-1],"split_conditions":[1.05584376E-1,2.010206E0,-2.9176557E-1,3.82E0,5.004454E1,3.0805948E-1,4.37E0,2.4479412E-1,-3.3380127E-1,4.16E0,-1.0378046E0,5.5570007E1,-7.683122E0,4.4037937E1,4.523793E1,2.2326273E-1,-1.9352938E-1,1.5379518E-1,-2.7035874E-1,2.2864787E-1,-1.6170982E-1,7.75163E-2,3.2215288E-1],"split_indices":[3,1,0,5,0,0,5,0,0,5,1,0,1,0,0,0,0,0,0,0,0,0,0],"split_type":[0,0,0,0,0,0,0,0,0,0,0,0,0,0,0,0,0,0,0,0,0,0,0],"sum_hessian":[4.4590153E1,3.8448715E1,6.141438E0,2.979983E1,8.648886E0,5.9780235E0,2.3821806E1,1.8429608E0,6.8059244E0,1.3945252E1,9.876554E0,7.4025183E0,6.5427346E0,4.1309586E0,5.7455955E0,5.4955664E0,1.906952E0,1.711304E0,4.8314304E0,2.1684606E0,1.9624977E0,1.0918574E0,4.653738E0],"tree_param":{"num_deleted":"0","num_feature":"7","num_nodes":"23","size_leaf_vector":"1"}},{"base_weights":[1.3611681E-2,1.6977668E-1,-2.7321437E-1,4.0317142E-1,-5.540866E-1,1.3497712E-1,7.644582E-1,2.412557E-1,-3.1650254E-1,-1.8342178E-1,5.6658906E-1,2.8025404E-1,1.8744625E-1,4.5061174E-1,-3.0756038E-1,7.319333E-2,2.4220224E-1,2.056419E-1,-1.4930743E-1,2.9384118E-1,8.642102E-3,-1.291432E-1,1.9494307E-1],"categories":[],"categories_nodes":[],"categories_segments":[],"categories_sizes":[],"default_left":[0,0,0,0,0,0,0,0,0,0,0,0,0,0,0,0,0,0,0,0,0,0,0],"id":6,"left_children":[1,3,-1,5,7,9,11,-1,-1,13,15,-1,17,19,-1,21,-1,-1,-1,-1,-1,-1,-1],"loss_changes":[5.858562E0,6.076869E0,0E0,2.491507E0,6.8825645E0,2.382937E0,9.212022E-1,0E0,0E0,5.958679E0,8.0623555E-1,0E0,1.6362112E0,1.4371684E0,0E0,1.2929108E0,0E0,0E0,0E0,0E0,0E0,0E0,0E0],"parents":[2147483647,0,0,1,1,3,3,4,4,5,5,6,6,9,9,10,10,12,12,13,13,15,15],"right_children":[2,4,-1,6,8,10,12,-1,-1,14,16,-1,18,20,-1,22,-1,-1,-1,-1,-1,-1,-1],"split_conditions":[1.05584376E-1,1.9021357E0,-2.7321437E-1,5.152862E-2,5.004454E1,4.39E0,1.3904575E0,2.412557E-1,-3.1650254E-1,4.4037937E1,4.5117973E1,2.8025404E-1,3.86E0,4.02E0,-3.0756038E-1,4.48E0,2.4220224E-1,2.056419E-1,-1.4930743E-1,2.9384118E-1,8.642102E-3,-1.291432E-1,1.9494307E-1],"split_indices":[3,1,0,1,0,5,1,0,0,0,0,0,5,5,0,5,0,0,0,0,0,0,0],"split_type":[0,0,0,0,0,0,0,0,0,0,0,0,0,0,0,0,0,0,0,0,0,0,0],"sum_hessian":[3.8515396E1,3.364705E1,4.868348E0,2.5778372E1,7.868675E0,1.5583707E1,1.0194666E1,1.956938E0,5.9117374E0,9.298938E0,6.2847686E0,7.3992577E0,2.7954087E0,5.5690136E0,3.7299242E0,2.4886196E0,3.796149E0,1.6184602E0,1.1769484E0,1.8843367E0,3.684677E0,1.46361E0,1.0250095E0],"tree_param":{"num_deleted":"0","num_feature":"7","num_nodes":"23","size_leaf_vector":"1"}},{"base_weights":[1.7351782E-2,1.5525888E-1,-2.5610167E-1,3.4790295E-1,-4.94178E-1,2.7066737E-1,1.9361281E-1,2.189358E-1,-2.9223305E-1,-3.4229487E-2,5.5888015E-1,3.8697073E-1,-4.015745E-1,1.4958335E-1,2.613053E-1,2.566447E-1,2.652566E-2,-3.064456E-1,7.616682E-2,2.2185631E-1,-9.1118306E-2],"categories":[],"categories_nodes":[],"categories_segments":[],"categories_sizes":[],"default_left":[0,0,0,0,0,0,0,0,0,0,0,0,0,0,0,0,0,0,0,0,0],"id":7,"left_children":[1,3,-1,5,7,-1,9,-1,-1,11,13,15,17,19,-1,-1,-1,-1,-1,-1,-1],"loss_changes":[4.274818E0,4.002418E0,0E0,1.8950148E0,5.068037E0,0E0,1.7005453E0,0E0,0E0,2.2263608E0,8.6863065E-1,8.677542E-1,3.3637698E0,1.4521734E0,0E0,0E0,0E0,0E0,0E0,0E0,0E0],"parents":[2147483647,0,0,1,1,3,3,4,4,6,6,9,9,10,10,11,11,12,12,13,13],"right_children":[2,4,-1,6,8,-1,10,-1,-1,12,14,16,18,20,-1,-1,-1,-1,-1,-1,-1],"split_conditions":[1.05584376E-1,1.9021357E0,-2.5610167E-1,3.82E0,5.004454E1,2.7066737E-1,4.39E0,2.189358E-1,-2.9223305E-1,4.5112614E1,-9.6802086E-1,3.16449E2,5.5020726E-1,-6.7479396E0,2.613053E-1,2.566447E-1,2.652566E-2,-3.064456E-1,7.616682E-2,2.2185631E-1,-9.1118306E-2],"split_indices":[3,1,0,5,0,0,5,0,0,0,1,6,1,1,0,0,0,0,0,0,0],"split_type":[0,0,0,0,0,0,0,0,0,0,0,0,0,0,0,0,0,0,0,0,0],"sum_hessian":[3.3484383E1,2.9616953E1,3.8674285E0,2.3199522E1,6.4174314E0,3.9958742E0,1.9203648E1,1.660945E0,4.7564864E0,1.238473E1,6.818917E0,5.7445574E0,6.6401734E0,3.590293E0,3.2286239E0,1.5098073E0,4.23475E0,3.1256478E0,3.5145254E0,1.2857044E0,2.3045886E0],"tree_param":{"num_deleted":"0","num_feature":"7","num_nodes":"21","size_leaf_vector":"1"}},{"base_weights":[2.4697756E-2,1.4786683E-1,-2.3969598E-1,3.7990832E-1,-3.161707E-1,8.0472285E-1,1.7005898E-1,2.819308E-1,-7.756425E-1,6.752302E-2,2.6861006E-1,-2.0122753E-1,4.3984768E-1,-9.357028E-2,5.6821537E-1,-2.9938232E-2,-2.7184004E-1,1.8520182E-1,-5.033222E-1,1.5428512E-1,2.2720611E-1,2.0263103E-1,4.736081E-2,1.6032203E-1,-2.648442E-1,1.4948569E-1,-1.429554E-1],"categories":[],"categories_nodes":[],"categories_segments":[],"categories_sizes":[],"default_left":[0,0,0,0,0,0,0,0,0,0,0,0,0,0,0,0,0,0,0,0,0,0,0,0,0,0,0],"id":8,"left_children":[1,3,-1,5,7,9,11,13,15,-1,-1,17,19,-1,21,-1,-1,-1,23,25,-1,-1,-1,-1,-1,-1,-1],"loss_changes":[3.1858308E0,3.0433166E0,0E0,1.5170395E0,2.8556933E0,1.0669899E-1,1.4594264E0,1.010654E0,4.116838E-1,0E0,0E0,1.904648E0,6.302849E-1,0E0,5.449462E-2,0E0,0E0,0E0,2.5428374E0,1.4513726E0,0E0,0E0,0E0,0E0,0E0,0E0,0E0],"parents":[2147483647,0,0,1,1,3,3,4,4,5,5,6,6,7,7,8,8,11,11,12,12,14,14,18,18,19,19],"right_children":[2,4,-1,6,8,10,12,14,16,-1,-1,18,20,-1,22,-1,-1,-1,24,26,-1,-1,-1,-1,-1,-1,-1],"split_conditions":[1.05584376E-1,5.3629303E1,-2.3969598E-1,4.06E0,1.3904575E0,-9.337565E-1,4.34E0,5.152862E-2,3.85E0,6.752302E-2,2.6861006E-1,3.14131E2,4.5885185E1,-9.357028E-2,5.9506363E1,-2.9938232E-2,-2.7184004E-1,1.8520182E-1,-4.7137628E0,4.4037937E1,2.2720611E-1,2.0263103E-1,4.736081E-2,1.6032203E-1,-2.648442E-1,1.4948569E-1,-1.429554E-1],"split_indices":[3,0,0,5,1,1,5,1,5,0,0,6,0,0,0,0,0,0,1,0,0,0,0,0,0,0,0],"split_type":[0,0,0,0,0,0,0,0,0,0,0,0,0,0,0,0,0,0,0,0,0,0,0,0,0,0,0],"sum_hessian":[2.923769E1,2.6148129E1,3.0895615E0,1.7552378E1,8.59575E0,4.866326E0,1.2686052E1,3.9023733E0,4.6933765E0,1.1290984E0,3.7372274E0,5.445718E0,7.2403345E0,1.2402598E0,2.6621137E0,1.0451283E0,3.6482484E0,1.1866899E0,4.259028E0,4.5942383E0,2.646096E0,1.598433E0,1.0636805E0,1.0311387E0,3.2278893E0,3.1089108E0,1.4853278E0],"tree_param":{"num_deleted":"0","num_feature":"7","num_nodes":"27","size_leaf_vector":"1"}},{"base_weights":[2.9195832E-2,1.3833672E-1,-2.2370185E-1,2.5543004E-1,-5.5219257E-1,2.188126E-1,1.6263573E-1,-2.6115796E-2,-2.0793474E-1,6.4907384E-1,3.007046E-2,2.2942218E-1,5.4633148E-2,-7.280251E-1,2.6164415E-1,-6.801435E-2,-2.7013898E-1,1.2934291E-1,-5.5247664E-2],"categories":[],"categories_nodes":[],"categories_segments":[],"categories_sizes":[],"default_left":[0,0,0,0,0,0,0,0,0,0,0,0,0,0,0,0,0,0,0],"id":9,"left_children":[1,3,-1,5,7,-1,9,-1,-1,11,13,-1,-1,15,17,-1,-1,-1,-1],"loss_changes":[2.385558E0,2.1220183E0,0E0,8.327178E-1,1.9323182E-1,0E0,1.2299817E0,0E0,0E0,8.224225E-2,3.0477357E0,0E0,0E0,1.4791727E-1,1.0770462E0,0E0,0E0,0E0,0E0],"parents":[2147483647,0,0,1,1,3,3,4,4,6,6,9,9,10,10,13,13,14,14],"right_children":[2,4,-1,6,8,-1,10,-1,-1,12,14,-1,-1,16,18,-1,-1,-1,-1],"split_conditions":[1.05584376E-1,6.0452972E1,-2.2370185E-1,3.81E0,3.87E0,2.188126E-1,-6.101807E0,-2.6115796E-2,-2.0793474E-1,4.3114376E1,-1.2267567E0,2.2942218E-1,5.4633148E-2,-2.6240861E0,1.4071602E0,-6.801435E-2,-2.7013898E-1,1.2934291E-1,-5.5247664E-2],"split_indices":[3,0,0,5,5,0,1,0,0,0,1,0,0,1,1,0,0,0,0],"split_type":[0,0,0,0,0,0,0,0,0,0,0,0,0,0,0,0,0,0,0],"sum_hessian":[2.5988386E1,2.349988E1,2.4885066E0,2.0631485E1,2.8683944E0,2.2548344E0,1.837665E1,1.0431244E0,1.8252699E0,3.101109E0,1.5275541E1,1.9743695E0,1.1267396E0,3.0727055E0,1.2202836E1,1.3788588E0,1.6938468E0,8.865113E0,3.3377225E0],"tree_param":{"num_deleted":"0","num_feature":"7","num_nodes":"19","size_leaf_vector":"1"}},{"base_weights":[1.326664E-2,1.0643373E-1,-2.0809437E-1,2.9632232E-1,-2.8045273E-1,6.602192E-2,6.888924E-1,1.21851906E-1,-2.4098176E-1,5.7927364E-1,-1.7564128E-1,2.4355699E-1,8.657217E-2,-8.530058E-2,3.053469E-1,2.0979933E-1,4.628171E-2,-3.5719585E-1,1.4432345E-1,4.6519515E-1,-2.738073E-2,1.2918092E-1,-1.9196442E-1,1.6755651E-1,4.4201612E-2],"categories":[],"categories_nodes":[],"categories_segments":[],"categories_sizes":[],"default_left":[0,0,0,0,0,0,0,0,0,0,0,0,0,0,0,0,0,0,0,0,0,0,0,0,0],"id":10,"left_children":[1,3,-1,5,7,9,11,13,-1,15,17,-1,-1,-1,19,-1,-1,21,-1,23,-1,-1,-1,-1,-1],"loss_changes":[1.7093441E0,1.7587056E0,0E0,1.3816544E0,1.7853243E0,1.4729221E0,4.7801256E-2,4.8946553E-1,0E0,8.455384E-2,1.1594617E0,0E0,0E0,0E0,3.0894372E-1,0E0,0E0,1.8485026E0,0E0,1.1445701E-2,0E0,0E0,0E0,0E0,0E0],"parents":[2147483647,0,0,1,1,3,3,4,4,5,5,6,6,7,7,9,9,10,10,14,14,17,17,19,19],"right_children":[2,4,-1,6,8,10,12,14,-1,16,18,-1,-1,-1,20,-1,-1,22,-1,24,-1,-1,-1,-1,-1],"split_conditions":[1.05584376E-1,5.3629303E1,-2.0809437E-1,-1.9767788E-1,1.9021357E0,-6.101807E0,5.0209602E1,5.152862E-2,-2.4098176E-1,4.3114376E1,4.44E0,2.4355699E-1,8.657217E-2,-8.530058E-2,1.3904575E0,2.0979933E-1,4.628171E-2,3.98E0,1.4432345E-1,5.777432E1,-2.738073E-2,1.2918092E-1,-1.9196442E-1,1.6755651E-1,4.4201612E-2],"split_indices":[3,0,0,1,1,1,0,1,0,0,5,0,0,0,1,0,0,5,0,0,0,0,0,0,0],"split_type":[0,0,0,0,0,0,0,0,0,0,0,0,0,0,0,0,0,0,0,0,0,0,0,0,0],"sum_hessian":[2.383279E1,2.1808058E1,2.024732E0,1.4785325E1,7.022733E0,1.0054849E1,4.7304764E0,4.4022098E0,2.6205235E0,2.7715397E0,7.2833095E0,2.832425E0,1.8980511E0,1.1988547E0,3.2033548E0,1.6577626E0,1.113777E0,6.06319E0,1.2201196E0,2.159928E0,1.0434269E0,1.4629437E0,4.600246E0,1.0843877E0,1.0755404E0],"tree_param":{"num_deleted":"0","num_feature":"7","num_nodes":"25","size_leaf_vector":"1"}},{"base_weights":[2.457027E-2,1.0811592E-1,-1.92996E-1,2.757472E-1,-2.3881707E-1,8.3058976E-2,6.17323E-1,-2.3317902E-1,1.0094706E-1,5.175897E-1,-1.1735361E-1,2.287215E-1,5.6822058E-2,3.674551E-1,-1.6036806E-1,1.9225559E-1,3.920932E-2,-4.4950873E-1,2.3659137E-1,1.743966E-1,3.1302415E-2,1.0968656E-1,-2.8122333E-1,-3.91714E-3,1.6771838E-1],"categories":[],"categories_nodes":[],"categories_segments":[],"categories_sizes":[],"default_left":[0,0,0,0,0,0,0,0,0,0,0,0,0,0,0,0,0,0,0,0,0,0,0,0,0],"id":11,"left_children":[1,3,-1,5,7,9,11,-1,13,15,17,-1,-1,19,-1,-1,-1,21,23,-1,-1,-1,-1,-1,-1],"loss_changes":[1.3354304E0,1.288314E0,0E0,9.1206E-1,1.429265E0,9.762783E-1,1.73666E-1,0E0,1.1130636E0,8.330512E-2,1.0480344E0,0E0,0E0,1.8725777E-1,0E0,0E0,0E0,2.1232567E0,3.722198E-1,0E0,0E0,0E0,0E0,0E0,0E0],"parents":[2147483647,0,0,1,1,3,3,4,4,5,5,6,6,8,8,9,9,10,10,13,13,17,17,18,18],"right_children":[2,4,-1,6,8,10,12,-1,14,16,18,-1,-1,20,-1,-1,-1,22,24,-1,-1,-1,-1,-1,-1],"split_conditions":[1.05584376E-1,5.3629303E1,-1.92996E-1,-1.9767788E-1,3.14851E2,-6.101807E0,1.7093782E0,-2.3317902E-1,1.9021357E0,4.3114376E1,4.37E0,2.287215E-1,5.6822058E-2,4.08E0,-1.6036806E-1,1.9225559E-1,3.920932E-2,3.98E0,-9.6802086E-1,1.743966E-1,3.1302415E-2,1.0968656E-1,-2.8122333E-1,-3.91714E-3,1.6771838E-1],"split_indices":[3,0,0,1,6,1,1,0,1,0,5,0,0,5,0,0,0,5,1,0,0,0,0,0,0],"split_type":[0,0,0,0,0,0,0,0,0,0,0,0,0,0,0,0,0,0,0,0,0,0,0,0,0],"sum_hessian":[2.1686245E1,2.0020079E1,1.6661663E0,1.3636415E1,6.3836646E0,9.513094E0,4.1233206E0,1.9715561E0,4.4121084E0,2.503163E0,7.0099306E0,2.4955518E0,1.6277686E0,3.405684E0,1.0064244E0,1.4005448E0,1.1026185E0,3.4769943E0,3.5329366E0,1.2115247E0,2.1941593E0,1.3957543E0,2.08124E0,2.5321302E0,1.0008061E0],"tree_param":{"num_deleted":"0","num_feature":"7","num_nodes":"25","size_leaf_vector":"1"}},{"base_weights":[2.4310345E-2,9.996256E-2,-1.7858207E-1,2.5158304E-1,-2.1475668E-1,5.9562176E-1,8.948018E-2,9.731128E-2,-2.0739968E-1,4.9636688E-2,2.120485E-1,-2.0833738E-1,3.527714E-1,-6.645335E-2,2.5030532E-1,1.15690105E-1,-4.9610373E-1,6.096815E-2,1.828777E-1,1.4529584E-1,-1.7758839E-2,5.3614438E-2,-2.3264833E-1,1.0562665E-1,-1.08309634E-1],"categories":[],"categories_nodes":[],"categories_segments":[],"categories_sizes":[],"default_left":[0,0,0,0,0,0,0,0,0,0,0,0,0,0,0,0,0,0,0,0,0,0,0,0,0],"id":12,"left_children":[1,3,-1,5,7,9,11,13,-1,-1,-1,15,17,-1,19,-1,21,23,-1,-1,-1,-1,-1,-1,-1],"loss_changes":[1.0260538E0,9.717877E-1,0E0,6.962657E-1,1.0775101E0,8.0512404E-2,8.821312E-1,2.9842865E-1,0E0,0E0,0E0,1.125881E0,4.0085423E-1,0E0,3.064735E-1,0E0,9.1548276E-1,5.9975654E-1,0E0,0E0,0E0,0E0,0E0,0E0,0E0],"parents":[2147483647,0,0,1,1,3,3,4,4,5,5,6,6,7,7,11,11,12,12,14,14,16,16,17,17],"right_children":[2,4,-1,6,8,10,12,14,-1,-1,-1,16,18,-1,20,-1,22,24,-1,-1,-1,-1,-1,-1,-1],"split_conditions":[1.05584376E-1,5.3629303E1,-1.7858207E-1,3.15564E2,1.9021357E0,-6.7730063E-1,4.37E0,5.152862E-2,-2.0739968E-1,4.9636688E-2,2.120485E-1,-6.101807E0,4.5885185E1,-6.645335E-2,1.0337371E0,1.15690105E-1,4.2E0,4.4037937E1,1.828777E-1,1.4529584E-1,-1.7758839E-2,5.3614438E-2,-2.3264833E-1,1.0562665E-1,-1.08309634E-1],"split_indices":[3,0,0,6,1,1,5,1,0,0,0,1,0,0,1,0,5,0,0,0,0,0,0,0,0],"split_type":[0,0,0,0,0,0,0,0,0,0,0,0,0,0,0,0,0,0,0,0,0,0,0,0,0],"sum_hessian":[1.9620628E1,1.8233011E1,1.3876189E0,1.244032E1,5.79269E0,3.1277661E0,9.312554E0,3.981417E0,1.8112731E0,1.1535308E0,1.9742353E0,4.4677033E0,4.8448505E0,1.1458185E0,2.8355985E0,1.3470987E0,3.1206048E0,2.8472097E0,1.9976411E0,1.2930703E0,1.5425282E0,1.0192144E0,2.1013904E0,1.782916E0,1.0642936E0],"tree_param":{"num_deleted":"0","num_feature":"7","num_nodes":"25","size_leaf_vector":"1"}},{"base_weights":[2.1076364E-2,1.6008978E-1,-6.2925E-2,5.7526555E-2,-5.297488E-1,1.3785529E-1,-1.5409023E-1,-2.0534031E-1,-3.4142837E-2,3.834965E-2,1.8841259E-1,-1.3207458E-1,4.1037738E-1,1.189531E-1,-1.00730345E-1,1.9772662E-1,-2.1704151E-3],"categories":[],"categories_nodes":[],"categories_segments":[],"categories_sizes":[],"default_left":[0,0,0,0,0,0,0,0,0,0,0,0,0,0,0,0,0],"id":13,"left_children":[1,-1,3,5,7,9,-1,-1,-1,11,-1,13,15,-1,-1,-1,-1],"loss_changes":[8.533074E-1,0E0,1.0005803E0,7.414013E-1,1.5612304E-1,6.3938534E-1,0E0,0E0,0E0,8.3862066E-1,0E0,1.1281714E0,4.337775E-1,0E0,0E0,0E0,0E0],"parents":[2147483647,0,0,2,2,3,3,4,4,5,5,9,9,11,11,12,12],"right_children":[2,-1,4,6,8,10,-1,-1,-1,12,-1,14,16,-1,-1,-1,-1],"split_conditions":[3.82E0,1.6008978E-1,5.6749607E1,1.05584376E-1,4.27E0,4.48E0,-1.5409023E-1,-2.0534031E-1,-3.4142837E-2,5.152862E-2,1.8841259E-1,-6.101807E0,1.5102819E0,1.189531E-1,-1.00730345E-1,1.9772662E-1,-2.1704151E-3],"split_indices":[5,0,0,3,5,5,0,0,0,1,0,1,1,0,0,0,0],"split_type":[0,0,0,0,0,0,0,0,0,0,0,0,0,0,0,0,0],"sum_hessian":[1.8038918E1,1.7863531E0,1.6252565E1,1.3616068E1,2.6364968E0,1.2602304E1,1.0137635E0,1.4511213E0,1.1853755E0,1.1372063E1,1.2302418E0,8.241607E0,3.1304557E0,2.0292048E0,6.212402E0,1.599583E0,1.5308728E0],"tree_param":{"num_deleted":"0","num_feature":"7","num_nodes":"17","size_leaf_vector":"1"}},{"base_weights":[2.6660027E-2,9.013396E-2,-1.5453422E-1,2.861524E-1,-1.1519556E-1,2.1298999E-1,5.286274E-2,-1.7847683E-1,1.0535463E-1,3.9029682E-1,-2.781304E-1,1.7424269E-1,-1.4041735E-1,-2.7258177E-3,1.6338223E-1,-2.0682071E-1,1.2497975E-1,2.3291902E-1,-2.1102098E-1,-7.920575E-2,1.7683369E-1],"categories":[],"categories_nodes":[],"categories_segments":[],"categories_sizes":[],"default_left":[0,0,0,0,0,0,0,0,0,0,0,0,0,0,0,0,0,0,0,0,0],"id":14,"left_children":[1,3,-1,5,7,-1,9,-1,11,13,15,-1,17,-1,-1,-1,-1,19,-1,-1,-1],"loss_changes":[6.61571E-1,7.116761E-1,0E0,8.438276E-1,1.0095091E0,0E0,8.713688E-1,0E0,8.9719677E-1,2.3902255E-1,1.4391636E0,0E0,1.3002464E0,0E0,0E0,0E0,0E0,8.646985E-1,0E0,0E0,0E0],"parents":[2147483647,0,0,1,1,3,3,4,4,6,6,8,8,9,9,10,10,12,12,17,17],"right_children":[2,4,-1,6,8,-1,10,-1,12,14,16,-1,18,-1,-1,-1,-1,20,-1,-1,-1],"split_conditions":[1.05584376E-1,4.884193E1,-1.5453422E-1,3.16449E2,3.14851E2,2.1298999E-1,-2.6240861E0,-1.7847683E-1,4.08E0,-8.118927E0,4.44E0,1.7424269E-1,1.2440469E0,-2.7258177E-3,1.6338223E-1,-2.0682071E-1,1.2497975E-1,-6.272801E-1,-2.1102098E-1,-7.920575E-2,1.7683369E-1],"split_indices":[3,0,0,6,6,0,1,0,5,1,5,0,1,0,0,0,0,1,0,0,0],"split_type":[0,0,0,0,0,0,0,0,0,0,0,0,0,0,0,0,0,0,0,0,0],"sum_hessian":[1.6887989E1,1.5863108E1,1.0248804E0,7.9141836E0,7.948924E0,2.0843282E0,5.8298554E0,1.968883E0,5.980041E0,2.7981186E0,3.031737E0,1.5732782E0,4.4067626E0,1.0420996E0,1.7560189E0,1.9091878E0,1.1225492E0,3.0021844E0,1.4045782E0,1.3625237E0,1.6396607E0],"tree_param":{"num_deleted":"0","num_feature":"7","num_nodes":"21","size_leaf_vector":"1"}},{"base_weights":[2.2626027E-2,1.3035165E-1,-4.477797E-2,5.8113743E-2,-4.5132026E-1,-1.9216909E-1,2.2098313E-1,-1.7455935E-1,-2.9277124E-2,2.0811959E-1,-1.8256456E-1,-3.6422864E-3,1.7241645E-1,1.5683864E-1,-4.811045E-2,3.779148E-1,-3.963794E-1,-1.6069813E-2,1.7197981E-1,-1.5806586E-1,-2.356604E-2],"categories":[],"categories_nodes":[],"categories_segments":[],"categories_sizes":[],"default_left":[0,0,0,0,0,0,0,0,0,0,0,0,0,0,0,0,0,0,0,0,0],"id":15,"left_children":[1,-1,3,5,7,9,11,-1,-1,13,-1,15,-1,-1,-1,17,19,-1,-1,-1,-1],"loss_changes":[4.7468606E-1,0E0,6.535885E-1,5.6646657E-1,8.8362336E-2,1.0604028E0,6.578131E-1,0E0,0E0,5.0145084E-1,0E0,1.0550504E0,0E0,0E0,0E0,3.3213252E-1,1.0233241E-1,0E0,0E0,0E0,0E0],"parents":[2147483647,0,0,2,2,3,3,4,4,5,5,6,6,9,9,11,11,15,15,16,16],"right_children":[2,-1,4,6,8,10,12,-1,-1,14,-1,16,-1,-1,-1,18,20,-1,-1,-1,-1],"split_conditions":[3.82E0,1.3035165E-1,5.6749607E1,-1.2267567E0,4.27E0,4.4037937E1,4.43E0,-1.7455935E-1,-2.9277124E-2,-6.101807E0,-1.8256456E-1,4.21E0,1.7241645E-1,1.5683864E-1,-4.811045E-2,3.96E0,-1.9767788E-1,-1.6069813E-2,1.7197981E-1,-1.5806586E-1,-2.356604E-2],"split_indices":[5,0,0,1,5,0,5,0,0,1,0,5,0,0,0,5,1,0,0,0,0],"split_type":[0,0,0,0,0,0,0,0,0,0,0,0,0,0,0,0,0,0,0,0,0],"sum_hessian":[1.5397393E1,1.3994733E0,1.399792E1,1.1854676E1,2.143244E0,4.6023335E0,7.2523427E0,1.0944109E0,1.0488331E0,2.6015182E0,2.0008154E0,5.040993E0,2.2113497E0,1.177346E0,1.4241722E0,2.576033E0,2.46496E0,1.0290099E0,1.5470232E0,1.2811201E0,1.18384E0],"tree_param":{"num_deleted":"0","num_feature":"7","num_nodes":"21","size_leaf_vector":"1"}},{"base_weights":[1.8168569E-2,8.7246895E-2,-1.11796565E-1,-1.2439669E-1,2.6182505E-1,2.2088267E-1,-4.808977E-1,4.436714E-1,-1.5601017E-1,1.2595949E-1,-4.022234E-2,-2.133102E-1,-1.86491E-2,1.8649521E-1,1.7816831E-1,9.02257E-2,-1.6188276E-1,-7.749747E-2,1.7130023E-1],"categories":[],"categories_nodes":[],"categories_segments":[],"categories_sizes":[],"default_left":[0,0,0,0,0,0,0,0,0,0,0,0,0,0,0,0,0,0,0],"id":16,"left_children":[1,3,-1,5,7,9,11,13,15,-1,-1,-1,-1,17,-1,-1,-1,-1,-1],"loss_changes":[4.4835028E-1,5.461369E-1,0E0,9.6303636E-1,6.724251E-1,3.544426E-1,3.1615615E-1,1.1299431E-1,7.1372217E-1,0E0,0E0,0E0,0E0,7.620967E-1,0E0,0E0,0E0,0E0,0E0],"parents":[2147483647,0,0,1,1,3,3,4,4,5,5,6,6,7,7,8,8,13,13],"right_children":[2,4,-1,6,8,10,12,14,16,-1,-1,-1,-1,18,-1,-1,-1,-1,-1],"split_conditions":[6.0452972E1,-8.234793E-1,-1.11796565E-1,4.4037937E1,1.4071602E0,-2.6240861E0,4.41E0,5.152862E-2,3.15564E2,1.2595949E-1,-4.022234E-2,-2.133102E-1,-1.86491E-2,4.34E0,1.7816831E-1,9.02257E-2,-1.6188276E-1,-7.749747E-2,1.7130023E-1],"split_indices":[0,1,0,0,1,1,5,1,6,0,0,0,0,5,0,0,0,0,0],"split_type":[0,0,0,0,0,0,0,0,0,0,0,0,0,0,0,0,0,0,0],"sum_hessian":[1.4402832E1,1.2899585E1,1.5032474E0,5.9607396E0,6.9388447E0,3.2212758E0,2.7394638E0,4.791639E0,2.1472058E0,1.9469765E0,1.2742993E0,1.3173771E0,1.4220868E0,2.5933592E0,2.1982799E0,1.0787177E0,1.0684881E0,1.3545241E0,1.238835E0],"tree_param":{"num_deleted":"0","num_feature":"7","num_nodes":"19","size_leaf_vector":"1"}},{"base_weights":[1.0348219E-2,1.1843936E-1,-2.2348727E-1,1.5081827E-1,-3.6058802E-2,-1.7781083E-1,4.3766454E-2,-3.0498952E-1,1.924688E-1,7.401007E-2,-6.776889E-2,4.271449E-2,-4.8663303E-1,-5.9083097E-2,1.345138E-1,-2.0691916E-1,-3.995988E-3,-1.10703945E-1,7.116309E-2],"categories":[],"categories_nodes":[],"categories_segments":[],"categories_sizes":[],"default_left":[0,0,0,0,0,0,0,0,0,0,0,0,0,0,0,0,0,0,0],"id":17,"left_children":[1,3,5,-1,7,-1,9,11,13,-1,-1,-1,15,17,-1,-1,-1,-1,-1],"loss_changes":[3.9259633E-1,6.450846E-1,5.119673E-1,0E0,5.7893497E-1,0E0,2.630524E-1,4.1673E-1,3.6055025E-1,0E0,0E0,0E0,3.048901E-1,4.08985E-1,0E0,0E0,0E0,0E0,0E0],"parents":[2147483647,0,0,1,1,2,2,4,4,6,6,7,7,8,8,12,12,13,13],"right_children":[2,4,6,-1,8,-1,10,12,14,-1,-1,-1,16,18,-1,-1,-1,-1,-1],"split_conditions":[5.3629303E1,3.15564E2,3.14851E2,1.5081827E-1,4.37E0,-1.7781083E-1,1.3904575E0,-5.5446095E0,4.5885185E1,7.401007E-2,-6.776889E-2,4.271449E-2,2.4133468E-1,3.2058E2,1.345138E-1,-2.0691916E-1,-3.995988E-3,-1.10703945E-1,7.116309E-2],"split_indices":[0,6,6,0,5,0,1,1,0,0,0,0,1,6,0,0,0,0,0],"split_type":[0,0,0,0,0,0,0,0,0,0,0,0,0,0,0,0,0,0,0],"sum_hessian":[1.3485412E1,9.55984E0,3.9255712E0,2.094983E0,7.464857E0,1.1370142E0,2.788557E0,3.275579E0,4.189278E0,1.6397338E0,1.1488233E0,1.0083222E0,2.2672567E0,2.500496E0,1.6887822E0,1.2665454E0,1.0007113E0,1.1021689E0,1.3983269E0],"tree_param":{"num_deleted":"0","num_feature":"7","num_nodes":"19","size_leaf_vector":"1"}},{"base_weights":[-3.270033E-5,1.18469566E-1,-6.752208E-2,1.1331626E-1,-2.8012058E-1,1.610192E-1,-5.3912163E-2,-4.9960054E-2,-1.6025864E-1,2.3107252E-1,-3.1382996E-1,1.23783566E-1,-1.34749E-1,-2.5094112E-2,1.3549691E-1,-1.6935144E-1,4.5114618E-2],"categories":[],"categories_nodes":[],"categories_segments":[],"categories_sizes":[],"default_left":[0,0,0,0,0,0,0,0,0,0,0,0,0,0,0,0,0],"id":18,"left_children":[1,-1,3,5,7,-1,9,11,-1,13,15,-1,-1,-1,-1,-1,-1],"loss_changes":[3.9328238E-1,0E0,5.1621383E-1,5.6149566E-1,3.2886225E-1,0E0,5.3921276E-1,9.7814035E-1,0E0,2.8639913E-1,5.176852E-1,0E0,0E0,0E0,0E0,0E0,0E0],"parents":[2147483647,0,0,2,2,3,3,4,4,6,6,7,7,9,9,10,10],"right_children":[2,-1,4,6,8,-1,10,12,-1,14,16,-1,-1,-1,-1,-1,-1],"split_conditions":[3.82E0,1.18469566E-1,4.884193E1,3.16449E2,1.4071602E0,1.610192E-1,-2.6240861E0,6.4678E-2,-1.6025864E-1,4.36E0,4.44E0,1.23783566E-1,-1.34749E-1,-2.5094112E-2,1.3549691E-1,-1.6935144E-1,4.5114618E-2],"split_indices":[5,0,0,6,1,0,1,3,0,5,5,0,0,0,0,0,0],"split_type":[0,0,0,0,0,0,0,0,0,0,0,0,0,0,0,0,0],"sum_hessian":[1.2754884E1,1.153517E0,1.1601367E1,6.521289E0,5.0800776E0,1.2207762E0,5.300513E0,3.2933464E0,1.7867311E0,2.5812747E0,2.7192383E0,1.5100294E0,1.783317E0,1.319484E0,1.2617906E0,1.6254464E0,1.0937918E0],"tree_param":{"num_deleted":"0","num_feature":"7","num_nodes":"17","size_leaf_vector":"1"}},{"base_weights":[7.0167757E-3,1.0371501E-1,-5.2358743E-2,1.8376543E-1,-1.791454E-1,-2.3181353E-2,1.0322077E-1,-1.727225E-1,3.4507997E-2,-2.2358403E-1,1.3209775E-1,2.0843215E-2,-3.3390656E-1,-1.8266939E-2,-1.4735757E-1],"categories":[],"categories_nodes":[],"categories_segments":[],"categories_sizes":[],"default_left":[0,0,0,0,0,0,0,0,0,0,0,0,0,0,0],"id":19,"left_children":[1,-1,3,5,7,-1,-1,-1,9,11,-1,-1,13,-1,-1],"loss_changes":[2.8051674E-1,0E0,3.912972E-1,2.2224537E-1,7.2274435E-1,0E0,0E0,0E0,7.619001E-1,1.698257E-1,0E0,0E0,1.18971735E-1,0E0,0E0],"parents":[2147483647,0,0,2,2,3,3,4,4,8,8,9,9,12,12],"right_children":[2,-1,4,6,8,-1,-1,-1,10,12,-1,-1,14,-1,-1],"split_conditions":[3.82E0,1.0371501E-1,4.4037937E1,3.20321E2,-1.0378046E0,-2.3181353E-2,1.0322077E-1,-1.727225E-1,4.37E0,5.043055E1,1.3209775E-1,2.0843215E-2,1.3731095E0,-1.8266939E-2,-1.4735757E-1],"split_indices":[5,0,0,6,1,0,0,0,5,0,0,0,1,0,0],"split_type":[0,0,0,0,0,0,0,0,0,0,0,0,0,0,0],"sum_hessian":[1.204869E1,1.077826E0,1.0970863E1,3.67578E0,7.2950835E0,1.5955604E0,2.0802195E0,1.9607241E0,5.334359E0,3.5351365E0,1.7992228E0,1.0680901E0,2.4670465E0,1.4087901E0,1.0582564E0],"tree_param":{"num_deleted":"0","num_feature":"7","num_nodes":"15","size_leaf_vector":"1"}},{"base_weights":[4.4732625E-3,6.388938E-2,-8.964986E-2,-1.2654787E-1,2.3752378E-1,8.736046E-2,-3.1284928E-1,3.8461962E-1,-3.4512185E-2,-4.5089704E-1,3.6091905E-3,1.7740062E-1,1.6108756E-1,-3.7234448E-2,-1.7876261E-1,-5.6855842E-2,1.5035717E-1],"categories":[],"categories_nodes":[],"categories_segments":[],"categories_sizes":[],"default_left":[0,0,0,0,0,0,0,0,0,0,0,0,0,0,0,0,0],"id":20,"left_children":[1,3,-1,5,7,-1,9,11,-1,13,-1,15,-1,-1,-1,-1,-1],"loss_changes":[2.448353E-1,4.036571E-1,0E0,5.6124896E-1,3.6876717E-1,0E0,2.1441367E-1,5.139339E-2,0E0,8.2206786E-2,0E0,5.06247E-1,0E0,0E0,0E0,0E0,0E0],"parents":[2147483647,0,0,1,1,3,3,4,4,6,6,7,7,9,9,11,11],"right_children":[2,4,-1,6,8,-1,10,12,-1,14,-1,16,-1,-1,-1,-1,-1],"split_conditions":[6.0452972E1,-8.234793E-1,-8.964986E-2,-6.7479396E0,1.4071602E0,8.736046E-2,-1.2267567E0,5.5020726E-1,-3.4512185E-2,-2.6240861E0,3.6091905E-3,4.34E0,1.6108756E-1,-3.7234448E-2,-1.7876261E-1,-5.6855842E-2,1.5035717E-1],"split_indices":[0,1,0,1,1,0,1,1,0,1,0,5,0,0,0,0,0],"split_type":[0,0,0,0,0,0,0,0,0,0,0,0,0,0,0,0,0],"sum_hessian":[1.152648E1,1.0298428E1,1.2280523E0,5.0408974E0,5.25753E0,1.3810531E0,3.6598442E0,3.6456025E0,1.6119276E0,2.2962394E0,1.3636048E0,2.4616523E0,1.1839501E0,1.2760671E0,1.0201724E0,1.3483642E0,1.1132882E0],"tree_param":{"num_deleted":"0","num_feature":"7","num_nodes":"17","size_leaf_vector":"1"}},{"base_weights":[4.4969497E-3,9.6362576E-2,-5.3967983E-2,1.0433522E-1,-2.5091693E-1,1.5099706E-1,-5.8407918E-2,-3.5302192E-1,2.5183804E-2,1.7683022E-1,-2.7702343E-1,-1.5787534E-1,-1.2911564E-1,-3.307313E-2,1.1624961E-1,-1.563421E-1,1.580345E-2,2.89554E-2,-8.509583E-2],"categories":[],"categories_nodes":[],"categories_segments":[],"categories_sizes":[],"default_left":[0,0,0,0,0,0,0,0,0,0,0,0,0,0,0,0,0,0,0],"id":21,"left_children":[1,-1,3,5,7,-1,9,11,-1,13,15,-1,17,-1,-1,-1,-1,-1,-1],"loss_changes":[2.3962042E-1,0E0,3.6882597E-1,4.7088432E-1,2.0712057E-1,0E0,3.4342146E-1,9.380007E-2,0E0,2.4641968E-1,2.9765433E-1,0E0,1.3700905E-1,0E0,0E0,0E0,0E0,0E0,0E0],"parents":[2147483647,0,0,2,2,3,3,4,4,6,6,7,7,9,9,10,10,12,12],"right_children":[2,-1,4,6,8,-1,10,12,-1,14,16,-1,18,-1,-1,-1,-1,-1,-1],"split_conditions":[3.82E0,9.6362576E-2,4.884193E1,3.16449E2,4.41E0,1.5099706E-1,-2.6240861E0,5.5020726E-1,2.5183804E-2,4.36E0,4.43E0,-1.5787534E-1,4.16E0,-3.307313E-2,1.1624961E-1,-1.563421E-1,1.580345E-2,2.89554E-2,-8.509583E-2],"split_indices":[5,0,0,6,5,0,1,1,0,5,5,0,5,0,0,0,0,0,0],"split_type":[0,0,0,0,0,0,0,0,0,0,0,0,0,0,0,0,0,0,0],"sum_hessian":[1.1004708E1,1.014578E0,9.99013E0,5.799147E0,4.1909833E0,1.0738069E0,4.7253404E0,3.1701324E0,1.0208511E0,2.3682039E0,2.3571362E0,1.0260167E0,2.1441154E0,1.204098E0,1.1641059E0,1.0207285E0,1.3364079E0,1.0241834E0,1.1199322E0],"tree_param":{"num_deleted":"0","num_feature":"7","num_nodes":"19","size_leaf_vector":"1"}},{"base_weights":[3.1122682E-3,1.7964163E-1,-9.148088E-2,-2.094761E-2,8.9758545E-2,-1.4984089E-1,9.165181E-2,2.9519132E-1,-1.7475349E-1,4.6333303E-3,1.5511307E-1,4.9949273E-2,-1.4789338E-1],"categories":[],"categories_nodes":[],"categories_segments":[],"categories_sizes":[],"default_left":[0,0,0,0,0,0,0,0,0,0,0,0,0],"id":22,"left_children":[1,3,5,-1,-1,-1,7,9,11,-1,-1,-1,-1],"loss_changes":[2.0968623E-1,1.5138005E-1,6.5829E-1,0E0,0E0,0E0,4.042086E-1,2.438868E-1,4.5615613E-1,0E0,0E0,0E0,0E0],"parents":[2147483647,0,0,1,1,2,2,6,6,7,7,8,8],"right_children":[2,4,6,-1,-1,-1,8,10,12,-1,-1,-1,-1],"split_conditions":[4.4037937E1,3.8828194E1,-1.0378046E0,-2.094761E-2,8.9758545E-2,-1.4984089E-1,1.4071602E0,4.34E0,3.15564E2,4.6333303E-3,1.5511307E-1,4.9949273E-2,-1.4789338E-1],"split_indices":[0,0,1,0,0,0,1,5,6,0,0,0,0],"split_type":[0,0,0,0,0,0,0,0,0,0,0,0,0],"sum_hessian":[1.0573065E1,3.3751938E0,7.197871E0,1.2282366E0,2.1469572E0,1.6947932E0,5.5030775E0,3.0583656E0,2.444712E0,1.8257647E0,1.232601E0,1.4097475E0,1.0349646E0],"tree_param":{"num_deleted":"0","num_feature":"7","num_nodes":"13","size_leaf_vector":"1"}},{"base_weights":[3.033831E-4,8.9515254E-2,-1.8455444E-1,1.2205113E-1,-4.4412095E-2,2.5996385E-2,-1.0797763E-1,7.4391514E-2,-1.716951E-1,-1.4597963E-1,9.021939E-2,7.091477E-2,-3.16299E-2],"categories":[],"categories_nodes":[],"categories_segments":[],"categories_sizes":[],"default_left":[0,0,0,0,0,0,0,0,0,0,0,0,0],"id":23,"left_children":[1,3,5,-1,7,-1,-1,-1,9,-1,11,-1,-1],"loss_changes":[2.0039691E-1,3.662897E-1,2.1934296E-1,0E0,2.9056206E-1,0E0,0E0,0E0,4.7553927E-1,0E0,1.3075116E-1,0E0,0E0],"parents":[2147483647,0,0,1,1,2,2,4,4,8,8,10,10],"right_children":[2,4,6,-1,8,-1,-1,-1,10,-1,12,-1,-1],"split_conditions":[5.3257313E1,3.15564E2,6.4678E-2,1.2205113E-1,-6.101807E0,2.5996385E-2,-1.0797763E-1,7.4391514E-2,4.3512997E1,-1.4597963E-1,4.6523544E1,7.091477E-2,-3.16299E-2],"split_indices":[0,6,3,0,1,0,0,0,0,0,0,0,0],"split_type":[0,0,0,0,0,0,0,0,0,0,0,0,0],"sum_hessian":[1.0149765E1,7.1938124E0,2.9559524E0,1.530282E0,5.6635303E0,1.3594532E0,1.5964991E0,1.4301405E0,4.23339E0,1.5327222E0,2.7006676E0,1.4266815E0,1.2739861E0],"tree_param":{"num_deleted":"0","num_feature":"7","num_nodes":"13","size_leaf_vector":"1"}},{"base_weights":[8.251394E-4,6.0133506E-2,-8.058582E-2,-1.2204664E-1,2.329908E-1,1.4022611E-1,-1.13977425E-1,1.16091E-1,9.2765145E-2,1.7988421E-3,6.7122586E-2,-3.9672844E-2,1.1393715E-1],"categories":[],"categories_nodes":[],"categories_segments":[],"categories_sizes":[],"default_left":[0,0,0,0,0,0,0,0,0,0,0,0,0],"id":24,"left_children":[1,3,-1,5,7,9,-1,-1,11,-1,-1,-1,-1],"loss_changes":[1.892938E-1,3.3380887E-1,0E0,4.169779E-1,7.896316E-2,3.6733568E-2,0E0,0E0,3.1498003E-1,0E0,0E0,0E0,0E0],"parents":[2147483647,0,0,1,1,3,3,4,4,5,5,8,8],"right_children":[2,4,-1,6,8,10,-1,-1,12,-1,-1,-1,-1],"split_conditions":[2.010206E0,-8.234793E-1,-8.058582E-2,4.4037937E1,3.91E0,4.126145E1,-1.13977425E-1,1.16091E-1,4.34E0,1.7988421E-3,6.7122586E-2,-3.9672844E-2,1.1393715E-1],"split_indices":[1,1,0,0,5,0,0,0,5,0,0,0,0],"split_type":[0,0,0,0,0,0,0,0,0,0,0,0,0],"sum_hessian":[9.83463E0,8.697104E0,1.1375257E0,4.377478E0,4.3196263E0,2.396435E0,1.981043E0,1.2201641E0,3.0994623E0,1.3302312E0,1.066204E0,2.039724E0,1.0597379E0],"tree_param":{"num_deleted":"0","num_feature":"7","num_nodes":"13","size_leaf_vector":"1"}},{"base_weights":[7.0317145E-3,6.6184595E-2,-8.156167E-2,-9.6126094E-2,2.1766895E-1,7.484744E-2,-2.6127124E-1,3.417678E-1,-2.4344409E-2,-1.1577092E-1,5.970618E-3,3.0885099E-2,1.3398577E-1],"categories":[],"categories_nodes":[],"categories_segments":[],"categories_sizes":[],"default_left":[0,0,0,0,0,0,0,0,0,0,0,0,0],"id":25,"left_children":[1,3,-1,5,7,-1,9,11,-1,-1,-1,-1,-1],"loss_changes":[1.9214469E-1,2.5482628E-1,0E0,3.6689937E-1,2.2156464E-1,0E0,1.5014476E-1,5.1303834E-2,0E0,0E0,0E0,0E0,0E0],"parents":[2147483647,0,0,1,1,3,3,4,4,6,6,7,7],"right_children":[2,4,-1,6,8,-1,10,12,-1,-1,-1,-1,-1],"split_conditions":[6.0452972E1,-8.234793E-1,-8.156167E-2,-6.7479396E0,1.4071602E0,7.484744E-2,-1.2267567E0,5.152862E-2,-2.4344409E-2,-1.1577092E-1,5.970618E-3,3.0885099E-2,1.3398577E-1],"split_indices":[0,1,0,1,1,0,1,1,0,0,0,0,0],"split_type":[0,0,0,0,0,0,0,0,0,0,0,0,0],"sum_hessian":[9.5559E0,8.513059E0,1.0428414E0,4.286089E0,4.2269692E0,1.2206852E0,3.0654035E0,2.8850646E0,1.3419048E0,1.8658707E0,1.1995327E0,1.484874E0,1.4001907E0],"tree_param":{"num_deleted":"0","num_feature":"7","num_nodes":"13","size_leaf_vector":"1"}},{"base_weights":[7.6230373E-3,8.88948E-2,-1.6570449E-1,1.0863852E-1,-2.8990643E-2,2.1527475E-2,-9.549608E-2,-2.3578063E-1,1.4524482E-1,-6.313936E-3,-1.0443996E-1,-2.1171687E-2,1.1346478E-1],"categories":[],"categories_nodes":[],"categories_segments":[],"categories_sizes":[],"default_left":[0,0,0,0,0,0,0,0,0,0,0,0,0],"id":26,"left_children":[1,3,5,-1,7,-1,-1,9,11,-1,-1,-1,-1],"loss_changes":[1.5935655E-1,2.56598E-1,1.5426862E-1,0E0,2.5991815E-1,0E0,0E0,7.0969835E-2,2.2871771E-1,0E0,0E0,0E0,0E0],"parents":[2147483647,0,0,1,1,2,2,4,4,7,7,8,8],"right_children":[2,4,6,-1,8,-1,-1,10,12,-1,-1,-1,-1],"split_conditions":[5.3629303E1,3.15564E2,6.4678E-2,1.0863852E-1,4.37E0,2.1527475E-2,-9.549608E-2,4.29E0,4.5885185E1,-6.313936E-3,-1.0443996E-1,-2.1171687E-2,1.1346478E-1],"split_indices":[0,6,3,0,5,0,0,5,0,0,0,0,0],"split_type":[0,0,0,0,0,0,0,0,0,0,0,0,0],"sum_hessian":[9.266916E0,6.640413E0,2.6265035E0,1.3769852E0,5.2634277E0,1.2348882E0,1.3916153E0,2.245337E0,3.0180905E0,1.1791012E0,1.0662359E0,1.9285859E0,1.0895046E0],"tree_param":{"num_deleted":"0","num_feature":"7","num_nodes":"13","size_leaf_vector":"1"}},{"base_weights":[7.400564E-3,1.7038672E-1,-8.438555E-2,-2.3663368E-2,9.489806E-2,-1.2303966E-1,7.110593E-2,-6.319731E-2,1.9523008E-1,1.2722294E-1,-3.298007E-2],"categories":[],"categories_nodes":[],"categories_segments":[],"categories_sizes":[],"default_left":[0,0,0,0,0,0,0,0,0,0,0],"id":27,"left_children":[1,3,5,-1,-1,-1,7,-1,9,-1,-1],"loss_changes":[1.6460478E-1,1.6860734E-1,3.884272E-1,0E0,0E0,0E0,2.3884754E-1,0E0,3.5693866E-1,0E0,0E0],"parents":[2147483647,0,0,1,1,2,2,6,6,8,8],"right_children":[2,4,6,-1,-1,-1,8,-1,10,-1,-1],"split_conditions":[4.4037937E1,3.20321E2,-1.0378046E0,-2.3663368E-2,9.489806E-2,-1.2303966E-1,3.14851E2,-6.319731E-2,1.0337371E0,1.2722294E-1,-3.298007E-2],"split_indices":[0,6,1,0,0,0,6,0,1,0,0],"split_type":[0,0,0,0,0,0,0,0,0,0,0],"sum_hessian":[9.041977E0,2.9490151E0,6.092962E0,1.2586943E0,1.6903208E0,1.4395427E0,4.653419E0,1.209862E0,3.4435568E0,1.745165E0,1.6983918E0],"tree_param":{"num_deleted":"0","num_feature":"7","num_nodes":"11","size_leaf_vector":"1"}},{"base_weights":[3.6879384E-3,7.177287E-2,-5.479275E-2,-9.833259E-2,5.9684996E-2,1.6035333E-1,-4.8471052E-2,1.00002564E-1,-1.9672098E-2,-9.056464E-2,9.136229E-2],"categories":[],"categories_nodes":[],"categories_segments":[],"categories_sizes":[],"default_left":[0,0,0,0,0,0,0,0,0,0,0],"id":28,"left_children":[1,-1,3,-1,5,7,-1,-1,9,-1,-1],"loss_changes":[1.4765465E-1,0E0,2.8950998E-1,0E0,1.8030584E-1,1.7055747E-1,0E0,0E0,4.144465E-1,0E0,0E0],"parents":[2147483647,0,0,2,2,4,4,5,5,8,8],"right_children":[2,-1,4,-1,6,8,-1,-1,10,-1,-1],"split_conditions":[-6.7479396E0,7.177287E-2,-1.2267567E0,-9.833259E-2,5.6749607E1,4.21E0,-4.8471052E-2,1.00002564E-1,4.43E0,-9.056464E-2,9.136229E-2],"split_indices":[1,0,1,0,0,5,0,0,5,0,0],"split_type":[0,0,0,0,0,0,0,0,0,0,0],"sum_hessian":[8.7671E0,1.1289239E0,7.6381764E0,1.7062489E0,5.9319277E0,4.2661424E0,1.6657853E0,1.7412844E0,2.524858E0,1.3866935E0,1.1381645E0],"tree_param":{"num_deleted":"0","num_feature":"7","num_nodes":"11","size_leaf_vector":"1"}},{"base_weights":[5.61025E-3,1.6186152E-1,-8.313559E-2,-1.6412728E-2,8.501479E-2,-1.0834335E-1,5.3014994E-2,-5.7444215E-2,1.6765618E-1,1.08877175E-1,-2.5825461E-2],"categories":[],"categories_nodes":[],"categories_segments":[],"categories_sizes":[],"default_left":[0,0,0,0,0,0,0,0,0,0,0],"id":29,"left_children":[1,3,5,-1,-1,-1,7,-1,9,-1,-1],"loss_changes":[1.4502247E-1,1.1488451E-1,2.7319387E-1,0E0,0E0,0E0,1.8282594E-1,0E0,2.390438E-1,0E0,0E0],"parents":[2147483647,0,0,1,1,2,2,6,6,8,8],"right_children":[2,4,6,-1,-1,-1,8,-1,10,-1,-1],"split_conditions":[4.4037937E1,3.20321E2,-1.0378046E0,-1.6412728E-2,8.501479E-2,-1.0834335E-1,3.14851E2,-5.7444215E-2,1.0337371E0,1.08877175E-1,-2.5825461E-2],"split_indices":[0,6,1,0,0,0,6,0,1,0,0],"split_type":[0,0,0,0,0,0,0,0,0,0,0],"sum_hessian":[8.487944E0,2.7761717E0,5.7117724E0,1.1954609E0,1.5807108E0,1.334431E0,4.3773413E0,1.1833485E0,3.1939929E0,1.5618054E0,1.6321875E0],"tree_param":{"num_deleted":"0","num_feature":"7","num_nodes":"11","size_leaf_vector":"1"}},{"base_weights":[2.784775E-3,6.504856E-2,-5.556798E-2,7.9742044E-2,-2.570271E-1,1.9296391E-1,-5.1205993E-2,-1.6858363E-1,3.148159E-2,1.18663035E-1,-2.3485996E-2,3.2854427E-2,-4.3738153E-2],"categories":[],"categories_nodes":[],"categories_segments":[],"categories_sizes":[],"default_left":[0,0,0,0,0,0,0,0,0,0,0,0,0],"id":30,"left_children":[1,-1,3,5,7,9,-1,-1,-1,-1,11,-1,-1],"loss_changes":[1.2798406E-1,0E0,2.4101889E-1,1.91793E-1,4.438488E-1,1.9904873E-1,0E0,0E0,0E0,0E0,6.535553E-2,0E0,0E0],"parents":[2147483647,0,0,2,2,3,3,4,4,5,5,10,10],"right_children":[2,-1,4,6,8,10,-1,-1,-1,-1,12,-1,-1],"split_conditions":[-6.101807E0,6.504856E-2,3.17603E2,4.29E0,3.2058E2,5.0801945E1,-5.1205993E-2,-1.6858363E-1,3.148159E-2,1.18663035E-1,1.4071602E0,3.2854427E-2,-4.3738153E-2],"split_indices":[1,0,6,5,6,0,0,0,0,0,1,0,0],"split_type":[0,0,0,0,0,0,0,0,0,0,0,0,0],"sum_hessian":[8.282221E0,1.1924332E0,7.0897875E0,4.6026173E0,2.4871707E0,3.3276234E0,1.2749938E0,1.0500938E0,1.4370769E0,1.2914851E0,2.0361383E0,1.0255384E0,1.0105999E0],"tree_param":{"num_deleted":"0","num_feature":"7","num_nodes":"13","size_leaf_vector":"1"}},{"base_weights":[-3.9022573E-4,6.2430173E-2,-5.3797264E-2,7.039324E-2,-2.2002223E-1,-4.159103E-2,7.8847915E-2,-1.2372428E-2,-9.532107E-2,4.015338E-2,-5.2122623E-2],"categories":[],"categories_nodes":[],"categories_segments":[],"categories_sizes":[],"default_left":[0,0,0,0,0,0,0,0,0,0,0],"id":31,"left_children":[1,-1,3,5,7,9,-1,-1,-1,-1,-1],"loss_changes":[1.1135191E-1,0E0,1.7971149E-1,1.2537877E-1,5.055964E-2,1.21104755E-1,0E0,0E0,0E0,0E0,0E0],"parents":[2147483647,0,0,2,2,3,3,4,4,5,5],"right_children":[2,-1,4,6,8,10,-1,-1,-1,-1,-1],"split_conditions":[3.86E0,6.2430173E-2,4.884193E1,4.5674168E1,1.0337371E0,-2.6240861E0,7.8847915E-2,-1.2372428E-2,-9.532107E-2,4.015338E-2,-5.2122623E-2],"split_indices":[5,0,0,0,1,1,0,0,0,0,0],"split_type":[0,0,0,0,0,0,0,0,0,0,0],"sum_hessian":[7.994861E0,1.0396738E0,6.9551873E0,4.3109183E0,2.6442688E0,3.2205968E0,1.0903219E0,1.4370575E0,1.2072111E0,1.3781861E0,1.8424106E0],"tree_param":{"num_deleted":"0","num_feature":"7","num_nodes":"11","size_leaf_vector":"1"}},{"base_weights":[2.0957154E-3,1.344983E-1,-7.378439E-2,-1.0359684E-2,6.7956485E-2,1.5129416E-1,-2.2518185E-1,7.1021974E-2,-4.175971E-3,-3.30558E-1,1.2883213E-2,-1.6309913E-1,1.0043998E-2],"categories":[],"categories_nodes":[],"categories_segments":[],"categories_sizes":[],"default_left":[0,0,0,0,0,0,0,0,0,0,0,0,0],"id":32,"left_children":[1,3,5,-1,-1,7,9,-1,-1,11,-1,-1,-1],"loss_changes":[9.9057354E-2,6.360787E-2,2.4825534E-1,0E0,0E0,4.7421865E-2,1.3172379E-1,0E0,0E0,2.5878045E-1,0E0,0E0,0E0],"parents":[2147483647,0,0,1,1,2,2,5,5,6,6,9,9],"right_children":[2,4,6,-1,-1,8,10,-1,-1,12,-1,-1,-1],"split_conditions":[4.4037937E1,3.20321E2,6.4678E-2,-1.0359684E-2,6.7956485E-2,1.1694591E0,4.39E0,7.1021974E-2,-4.175971E-3,2.7745375E-1,1.2883213E-2,-1.6309913E-1,1.0043998E-2],"split_indices":[0,6,3,0,0,1,5,0,0,1,0,0,0],"split_type":[0,0,0,0,0,0,0,0,0,0,0,0,0],"sum_hessian":[7.871897E0,2.5863996E0,5.2854977E0,1.1319504E0,1.454449E0,2.1258042E0,3.1596937E0,1.1158026E0,1.0100014E0,2.101096E0,1.0585978E0,1.0140507E0,1.0870453E0],"tree_param":{"num_deleted":"0","num_feature":"7","num_nodes":"13","size_leaf_vector":"1"}},{"base_weights":[-1.0650307E-3,4.927907E-2,-7.025983E-2,-2.140271E-1,9.076301E-2,-1.17099084E-1,9.652898E-3,-3.5762295E-2,6.798493E-2],"categories":[],"categories_nodes":[],"categories_segments":[],"categories_sizes":[],"default_left":[0,0,0,0,0,0,0,0,0],"id":33,"left_children":[1,-1,3,5,7,-1,-1,-1,-1],"loss_changes":[1.1107106E-1,0E0,1.7762491E-1,1.821956E-1,1.3899374E-1,0E0,0E0,0E0,0E0],"parents":[2147483647,0,0,2,2,3,3,4,4],"right_children":[2,-1,4,6,8,-1,-1,-1,-1],"split_conditions":[4.02E0,4.927907E-2,4.37E0,2.7745375E-1,3.20321E2,-1.17099084E-1,9.652898E-3,-3.5762295E-2,6.798493E-2],"split_indices":[5,0,5,1,6,0,0,0,0],"split_type":[0,0,0,0,0,0,0,0,0],"sum_hessian":[7.70026E0,1.8665482E0,5.833712E0,2.9080884E0,2.9256234E0,1.3534808E0,1.5546077E0,1.1974347E0,1.7281888E0],"tree_param":{"num_deleted":"0","num_feature":"7","num_nodes":"9","size_leaf_vector":"1"}},{"base_weights":[-4.011946E-3,1.2665282E-1,-7.814212E-2,6.627425E-2,-3.7474649E-3,-9.845686E-2,4.928999E-2,-5.8041584E-2,1.6995284E-1,1.07329145E-1,-7.709498E-3],"categories":[],"categories_nodes":[],"categories_segments":[],"categories_sizes":[],"default_left":[0,0,0,0,0,0,0,0,0,0,0],"id":34,"left_children":[1,3,5,-1,-1,-1,7,-1,9,-1,-1],"loss_changes":[9.308894E-2,4.8539963E-2,2.1049218E-1,0E0,0E0,0E0,1.7667718E-1,0E0,1.4924875E-1,0E0,0E0],"parents":[2147483647,0,0,1,1,2,2,6,6,8,8],"right_children":[2,4,6,-1,-1,-1,8,-1,10,-1,-1],"split_conditions":[4.4037937E1,-2.6240861E0,-1.0378046E0,6.627425E-2,-3.7474649E-3,-9.845686E-2,3.14851E2,-5.8041584E-2,4.19E0,1.07329145E-1,-7.709498E-3],"split_indices":[0,1,1,0,0,0,6,0,5,0,0],"split_type":[0,0,0,0,0,0,0,0,0,0,0],"sum_hessian":[7.588713E0,2.4904423E0,5.098271E0,1.1343392E0,1.3561031E0,1.1892726E0,3.9089983E0,1.0975084E0,2.8114898E0,1.0117261E0,1.7997638E0],"tree_param":{"num_deleted":"0","num_feature":"7","num_nodes":"11","size_leaf_vector":"1"}},{"base_weights":[-2.0344188E-3,5.8260962E-2,-5.651493E-2,-9.852117E-2,5.6367468E-2,1.7659901E-1,-1.2184018E-1,1.0646392E-1,-6.2240725E-3,2.0082295E-2,-7.58905E-2],"categories":[],"categories_nodes":[],"categories_segments":[],"categories_sizes":[],"default_left":[0,0,0,0,0,0,0,0,0,0,0],"id":35,"left_children":[1,-1,3,-1,5,7,9,-1,-1,-1,-1],"loss_changes":[1.01211764E-1,0E0,2.4504001E-1,0E0,1.5155199E-1,1.4922898E-1,9.2107E-2,0E0,0E0,0E0,0E0],"parents":[2147483647,0,0,2,2,4,4,5,5,6,6],"right_children":[2,-1,4,-1,6,8,10,-1,-1,-1,-1],"split_conditions":[-6.101807E0,5.8260962E-2,-1.2267567E0,-9.852117E-2,5.3629303E1,4.21E0,6.4678E-2,1.0646392E-1,-6.2240725E-3,2.0082295E-2,-7.58905E-2],"split_indices":[1,0,1,0,0,5,3,0,0,0,0],"split_type":[0,0,0,0,0,0,0,0,0,0,0],"sum_hessian":[7.440307E0,1.0594729E0,6.380834E0,1.3118501E0,5.068984E0,3.0322437E0,2.0367403E0,1.1736845E0,1.8585593E0,1.0354844E0,1.0012559E0],"tree_param":{"num_deleted":"0","num_feature":"7","num_nodes":"11","size_leaf_vector":"1"}},{"base_weights":[-8.4595167E-4,8.712694E-2,-1.0414538E-1,-2.2221688E-2,7.718282E-2,2.1188047E-2,-7.306761E-2,3.6894586E-2,-3.9875098E-2],"categories":[],"categories_nodes":[],"categories_segments":[],"categories_sizes":[],"default_left":[0,0,0,0,0,0,0,0,0],"id":36,"left_children":[1,3,5,7,-1,-1,-1,-1,-1],"loss_changes":[8.4207594E-2,9.892388E-2,1.2095402E-1,8.016061E-2,0E0,0E0,0E0,0E0,0E0],"parents":[2147483647,0,0,1,1,2,2,3,3],"right_children":[2,4,6,8,-1,-1,-1,-1,-1],"split_conditions":[4.884193E1,4.5674168E1,6.4678E-2,4.0208366E1,7.718282E-2,2.1188047E-2,-7.306761E-2,3.6894586E-2,-3.9875098E-2],"split_indices":[0,0,3,0,0,0,0,0,0],"split_type":[0,0,0,0,0,0,0,0,0],"sum_hessian":[7.2677655E0,4.009616E0,3.2581499E0,2.970185E0,1.0394309E0,1.6646724E0,1.5934775E0,1.236812E0,1.733373E0],"tree_param":{"num_deleted":"0","num_feature":"7","num_nodes":"9","size_leaf_vector":"1"}},{"base_weights":[2.1492485E-3,-7.698276E-2,1.1383322E-1,4.233289E-2,-2.3390552E-1,-2.7024267E-2,7.049972E-2,-9.376111E-2,-1.42471315E-2],"categories":[],"categories_nodes":[],"categories_segments":[],"categories_sizes":[],"default_left":[0,0,0,0,0,0,0,0,0],"id":37,"left_children":[1,3,5,-1,7,-1,-1,-1,-1],"loss_changes":[8.1093654E-2,2.1736123E-1,1.149946E-1,0E0,3.6592513E-2,0E0,0E0,0E0,0E0],"parents":[2147483647,0,0,1,1,2,2,4,4],"right_children":[2,4,6,-1,8,-1,-1,-1,-1],"split_conditions":[4.37E0,3.15564E2,3.20321E2,4.233289E-2,2.7745375E-1,-2.7024267E-2,7.049972E-2,-9.376111E-2,-1.42471315E-2],"split_indices":[5,6,6,0,1,0,0,0,0],"split_type":[0,0,0,0,0,0,0,0,0],"sum_hessian":[7.184237E0,4.3867674E0,2.7974694E0,1.8777823E0,2.508985E0,1.1383129E0,1.6591566E0,1.2887952E0,1.2201898E0],"tree_param":{"num_deleted":"0","num_feature":"7","num_nodes":"9","size_leaf_vector":"1"}},{"base_weights":[-1.2582204E-3,1.300353E-1,-7.744982E-2,6.678915E-2,-4.3508057E-3,-9.2620276E-2,4.211526E-2,4.7615655E-2,-4.0296543E-2],"categories":[],"categories_nodes":[],"categories_segments":[],"categories_sizes":[],"default_left":[0,0,0,0,0,0,0,0,0],"id":38,"left_children":[1,3,5,-1,-1,-1,7,-1,-1],"loss_changes":[9.1096886E-2,4.8031837E-2,1.720692E-1,0E0,0E0,0E0,1.17434055E-1,0E0,0E0],"parents":[2147483647,0,0,1,1,2,2,6,6],"right_children":[2,4,6,-1,-1,-1,8,-1,-1],"split_conditions":[4.4037937E1,-2.6240861E0,-1.0378046E0,6.678915E-2,-4.3508057E-3,-9.2620276E-2,5.6749607E1,4.7615655E-2,-4.0296543E-2],"split_indices":[0,1,1,0,0,0,0,0,0],"split_type":[0,0,0,0,0,0,0,0,0],"sum_hessian":[7.099763E0,2.3476315E0,4.7521315E0,1.1016147E0,1.2460167E0,1.0802916E0,3.6718397E0,2.271244E0,1.4005954E0],"tree_param":{"num_deleted":"0","num_feature":"7","num_nodes":"9","size_leaf_vector":"1"}},{"base_weights":[-3.8420365E-3,5.1915582E-2,-5.4353155E-2,-7.044542E-2,7.144036E-2,6.3211925E-2,-2.721208E-2],"categories":[],"categories_nodes":[],"categories_segments":[],"categories_sizes":[],"default_left":[0,0,0,0,0,0,0],"id":39,"left_children":[1,-1,3,-1,5,-1,-1],"loss_changes":[8.085563E-2,0E0,1.752605E-1,0E0,1.293225E-1,0E0,0E0],"parents":[2147483647,0,0,2,2,4,4],"right_children":[2,-1,4,-1,6,-1,-1],"split_conditions":[-6.101807E0,5.1915582E-2,-8.234793E-1,-7.044542E-2,5.3629303E1,6.3211925E-2,-2.721208E-2],"split_indices":[1,0,1,0,0,0,0],"split_type":[0,0,0,0,0,0,0],"sum_hessian":[6.9965096E0,1.0151958E0,5.9813137E0,2.1007943E0,3.8805194E0,1.9264463E0,1.954073E0],"tree_param":{"num_deleted":"0","num_feature":"7","num_nodes":"7","size_leaf_vector":"1"}},{"base_weights":[-4.5401338E-4,-7.9334654E-2,1.122699E-1,3.666408E-2,-2.2053641E-1,-1.7804502E-2,7.791052E-2,-8.647415E-2,-8.699149E-3],"categories":[],"categories_nodes":[],"categories_segments":[],"categories_sizes":[],"default_left":[0,0,0,0,0,0,0,0,0],"id":40,"left_children":[1,3,5,-1,7,-1,-1,-1,-1],"loss_changes":[7.919383E-2,1.7597601E-1,1.0822861E-1,0E0,3.6200956E-2,0E0,0E0,0E0,0E0],"parents":[2147483647,0,0,1,1,2,2,4,4],"right_children":[2,4,6,-1,8,-1,-1,-1,-1],"split_conditions":[4.37E0,3.15564E2,4.5885185E1,3.666408E-2,5.108344E1,-1.7804502E-2,7.791052E-2,-8.647415E-2,-8.699149E-3],"split_indices":[5,6,0,0,0,0,0,0,0],"split_type":[0,0,0,0,0,0,0,0,0],"sum_hessian":[6.9047503E0,4.2364326E0,2.6683178E0,1.8006706E0,2.4357617E0,1.5091002E0,1.1592177E0,1.4265615E0,1.0092002E0],"tree_param":{"num_deleted":"0","num_feature":"7","num_nodes":"9","size_leaf_vector":"1"}},{"base_weights":[-1.1592845E-4,1.4876124E-1,-8.8540174E-2,6.860588E-2,1.9458778E-3,-1.9111016E-1,4.1015815E-2,-1.4565954E-1,6.59259E-2,4.0854376E-2,-1.04480535E-2],"categories":[],"categories_nodes":[],"categories_segments":[],"categories_sizes":[],"default_left":[0,0,0,0,0,0,0,0,0,0,0],"id":41,"left_children":[1,3,5,-1,-1,7,-1,-1,9,-1,-1],"loss_changes":[1.1627357E-1,3.5945147E-2,1.5413983E-1,0E0,0E0,3.516701E-1,0E0,0E0,2.693816E-2,0E0,0E0],"parents":[2147483647,0,0,1,1,2,2,5,5,8,8],"right_children":[2,4,6,-1,-1,8,-1,-1,10,-1,-1],"split_conditions":[4.4037937E1,-2.6240861E0,4.41E0,6.860588E-2,1.9458778E-3,5.5020726E-1,4.1015815E-2,-1.4565954E-1,5.741454E1,4.0854376E-2,-1.04480535E-2],"split_indices":[0,1,5,0,0,1,0,0,0,0,0],"split_type":[0,0,0,0,0,0,0,0,0,0,0],"sum_hessian":[6.8319263E0,2.291478E0,4.5404487E0,1.0783471E0,1.2131308E0,3.2240193E0,1.3164293E0,1.0883764E0,2.1356428E0,1.0510812E0,1.0845617E0],"tree_param":{"num_deleted":"0","num_feature":"7","num_nodes":"11","size_leaf_vector":"1"}},{"base_weights":[-1.3324288E-3,1.2676576E-1,-7.8281656E-2,5.8733232E-2,1.6261728E-3,2.7024353E-2,-1.937679E-1,-1.0379983E-2,-8.5211605E-2],"categories":[],"categories_nodes":[],"categories_segments":[],"categories_sizes":[],"default_left":[0,0,0,0,0,0,0,0,0],"id":42,"left_children":[1,3,5,-1,-1,-1,7,-1,-1],"loss_changes":[8.5708246E-2,2.6297677E-2,1.2286533E-1,0E0,0E0,0E0,4.0934965E-2,0E0,0E0],"parents":[2147483647,0,0,1,1,2,2,6,6],"right_children":[2,4,6,-1,-1,-1,8,-1,-1],"split_conditions":[4.4037937E1,-2.6240861E0,6.4678E-2,5.8733232E-2,1.6261728E-3,2.7024353E-2,5.0801945E1,-1.0379983E-2,-8.5211605E-2],"split_indices":[0,1,3,0,0,0,0,0,0],"split_type":[0,0,0,0,0,0,0,0,0],"sum_hessian":[6.6883817E0,2.267033E0,4.4213486E0,1.0541322E0,1.2129009E0,1.8883628E0,2.532986E0,1.417283E0,1.1157029E0],"tree_param":{"num_deleted":"0","num_feature":"7","num_nodes":"9","size_leaf_vector":"1"}},{"base_weights":[-2.1473772E-3,4.230905E-2,-6.7265145E-2,4.2981457E-2,-8.679244E-2,-1.5695661E-1,9.319923E-2,7.6825446E-3,-8.322043E-2],"categories":[],"categories_nodes":[],"categories_segments":[],"categories_sizes":[],"default_left":[0,0,0,0,0,0,0,0,0],"id":43,"left_children":[1,-1,3,5,-1,7,-1,-1,-1],"loss_changes":[8.059182E-2,0E0,1.573385E-1,3.070541E-1,0E0,8.245996E-2,0E0,0E0,0E0],"parents":[2147483647,0,0,2,2,3,3,5,5],"right_children":[2,-1,4,6,-1,8,-1,-1,-1],"split_conditions":[3.15564E2,4.230905E-2,1.0337371E0,4.5927586E1,-8.679244E-2,-2.6240861E0,9.319923E-2,7.6825446E-3,-8.322043E-2],"split_indices":[6,0,1,0,0,1,0,0,0],"split_type":[0,0,0,0,0,0,0,0,0],"sum_hessian":[6.6265526E0,1.7071625E0,4.91939E0,3.8261135E0,1.0932769E0,2.4269886E0,1.3991247E0,1.2776959E0,1.1492927E0],"tree_param":{"num_deleted":"0","num_feature":"7","num_nodes":"9","size_leaf_vector":"1"}},{"base_weights":[-5.1469128E-3,1.2630264E-1,-8.457392E-2,7.814727E-3,4.8453677E-2,2.3662947E-2,-1.9169362E-1,-8.084482E-2,-8.856397E-3],"categories":[],"categories_nodes":[],"categories_segments":[],"categories_sizes":[],"default_left":[0,0,0,0,0,0,0,0,0],"id":44,"left_children":[1,3,5,-1,-1,-1,7,-1,-1],"loss_changes":[8.896564E-2,7.1772933E-3,1.0744019E-1,0E0,0E0,0E0,3.5905123E-2,0E0,0E0],"parents":[2147483647,0,0,1,1,2,2,6,6],"right_children":[2,4,6,-1,-1,-1,8,-1,-1],"split_conditions":[4.4037937E1,4.33E0,6.4678E-2,7.814727E-3,4.8453677E-2,2.3662947E-2,-4.130167E-1,-8.084482E-2,-8.856397E-3],"split_indices":[0,5,3,0,0,0,1,0,0],"split_type":[0,0,0,0,0,0,0,0,0],"sum_hessian":[6.497978E0,2.2251847E0,4.2727933E0,1.0305872E0,1.1945976E0,1.7959987E0,2.4767947E0,1.2266849E0,1.2501098E0],"tree_param":{"num_deleted":"0","num_feature":"7","num_nodes":"9","size_leaf_vector":"1"}},{"base_weights":[-5.0828517E-3,4.121565E-2,-6.295225E-2,3.718451E-2,-8.3003536E-2,-6.1589863E-2,1.9057684E-1,5.883872E-3,8.088485E-2],"categories":[],"categories_nodes":[],"categories_segments":[],"categories_sizes":[],"default_left":[0,0,0,0,0,0,0,0,0],"id":45,"left_children":[1,-1,3,5,-1,-1,7,-1,-1],"loss_changes":[7.002772E-2,0E0,1.3827254E-1,2.2337815E-1,0E0,0E0,4.2721152E-2,0E0,0E0],"parents":[2147483647,0,0,2,2,3,3,6,6],"right_children":[2,-1,4,6,-1,-1,8,-1,-1],"split_conditions":[4.02E0,4.121565E-2,1.2440469E0,4.337151E1,-8.3003536E-2,-6.1589863E-2,-1.0378046E0,5.883872E-3,8.088485E-2],"split_indices":[5,0,1,0,0,0,1,0,0],"split_type":[0,0,0,0,0,0,0,0,0],"sum_hessian":[6.444788E0,1.4647261E0,4.980062E0,3.9536726E0,1.0263892E0,1.4008307E0,2.552842E0,1.2016928E0,1.351149E0],"tree_param":{"num_deleted":"0","num_feature":"7","num_nodes":"9","size_leaf_vector":"1"}},{"base_weights":[-5.8511943E-3,1.274165E-1,-8.680724E-2,5.0005693E-2,9.626535E-3,-1.7498572E-1,3.370513E-2,-9.282692E-2,6.6632065E-3],"categories":[],"categories_nodes":[],"categories_segments":[],"categories_sizes":[],"default_left":[0,0,0,0,0,0,0,0,0],"id":46,"left_children":[1,3,5,-1,-1,7,-1,-1,-1],"loss_changes":[9.028387E-2,6.5562315E-3,1.10327244E-1,0E0,0E0,1.121059E-1,0E0,0E0,0E0],"parents":[2147483647,0,0,1,1,2,2,5,5],"right_children":[2,4,6,-1,-1,8,-1,-1,-1],"split_conditions":[4.4037937E1,-2.6240861E0,4.41E0,5.0005693E-2,9.626535E-3,1.1128873E0,3.370513E-2,-9.282692E-2,6.6632065E-3],"split_indices":[0,1,5,0,0,1,0,0,0],"split_type":[0,0,0,0,0,0,0,0,0],"sum_hessian":[6.343078E0,2.1801975E0,4.162881E0,1.0139618E0,1.1662356E0,2.969489E0,1.1933914E0,1.4273152E0,1.542174E0],"tree_param":{"num_deleted":"0","num_feature":"7","num_nodes":"9","size_leaf_vector":"1"}},{"base_weights":[-3.3842446E-3,3.8946666E-2,-6.571881E-2,-1.9767223E-1,2.94633E-2,9.561868E-3,-9.1720566E-2],"categories":[],"categories_nodes":[],"categories_segments":[],"categories_sizes":[],"default_left":[0,0,0,0,0,0,0],"id":47,"left_children":[1,-1,3,5,-1,-1,-1],"loss_changes":[6.8939604E-2,0E0,1.4097728E-1,9.521204E-2,0E0,0E0,0E0],"parents":[2147483647,0,0,2,2,3,3],"right_children":[2,-1,4,6,-1,-1,-1],"split_conditions":[3.15564E2,3.8946666E-2,3.20321E2,4.29E0,2.94633E-2,9.561868E-3,-9.1720566E-2],"split_indices":[6,0,6,5,0,0,0],"split_type":[0,0,0,0,0,0,0],"sum_hessian":[6.2751017E0,1.6552439E0,4.619858E0,2.4455254E0,2.1743324E0,1.0084497E0,1.4370756E0],"tree_param":{"num_deleted":"0","num_feature":"7","num_nodes":"7","size_leaf_vector":"1"}},{"base_weights":[-4.553624E-3,3.265486E-2,-7.337254E-2,-1.5700819E-1,3.3159412E-2,1.2118056E-2,-8.116948E-2],"categories":[],"categories_nodes":[],"categories_segments":[],"categories_sizes":[],"default_left":[0,0,0,0,0,0,0],"id":48,"left_children":[1,-1,3,5,-1,-1,-1],"loss_changes":[6.422249E-2,0E0,9.5516376E-2,9.849349E-2,0E0,0E0,0E0],"parents":[2147483647,0,0,2,2,3,3],"right_children":[2,-1,4,6,-1,-1,-1],"split_conditions":[4.4037937E1,3.265486E-2,4.41E0,6.4678E-2,3.3159412E-2,1.2118056E-2,-8.116948E-2],"split_indices":[0,0,5,3,0,0,0],"split_type":[0,0,0,0,0,0,0],"sum_hessian":[6.2057786E0,2.1240256E0,4.081753E0,2.9062843E0,1.1754684E0,1.2966087E0,1.6096758E0],"tree_param":{"num_deleted":"0","num_feature":"7","num_nodes":"7","size_leaf_vector":"1"}},{"base_weights":[-3.8361934E-3,4.1527443E-2,-7.082691E-2,-2.0331497E-1,7.4825965E-2,-8.355217E-2,-9.4455695E-3,5.587736E-2,-1.5753176E-2],"categories":[],"categories_nodes":[],"categories_segments":[],"categories_sizes":[],"default_left":[0,0,0,0,0,0,0,0,0],"id":49,"left_children":[1,-1,3,5,7,-1,-1,-1,-1],"loss_changes":[7.794295E-2,0E0,1.21779576E-1,3.2070667E-2,5.7477526E-2,0E0,0E0,0E0,0E0],"parents":[2147483647,0,0,2,2,3,3,4,4],"right_children":[2,-1,4,6,8,-1,-1,-1,-1],"split_conditions":[3.15564E2,4.1527443E-2,4.37E0,2.7745375E-1,4.42E0,-8.355217E-2,-9.4455695E-3,5.587736E-2,-1.5753176E-2],"split_indices":[6,0,5,1,5,0,0,0,0],"split_type":[0,0,0,0,0,0,0,0,0],"sum_hessian":[6.149797E0,1.6274428E0,4.522354E0,2.1608894E0,2.3614647E0,1.0712714E0,1.0896178E0,1.0126106E0,1.3488542E0],"tree_param":{"num_deleted":"0","num_feature":"7","num_nodes":"9","size_leaf_vector":"1"}},{"base_weights":[-4.3650838E-3,7.277441E-2,-9.174214E-2,-1.9272706E-2,5.8267783E-2,1.4864024E-2,-5.9566174E-2],"categories":[],"categories_nodes":[],"categories_segments":[],"categories_sizes":[],"default_left":[0,0,0,0,0,0,0],"id":50,"left_children":[1,3,5,-1,-1,-1,-1],"loss_changes":[5.4483555E-2,8.444499E-2,6.670282E-2,0E0,0E0,0E0,0E0],"parents":[2147483647,0,0,1,1,2,2],"right_children":[2,4,6,-1,-1,-1,-1],"split_conditions":[4.884193E1,-1.2267567E0,6.4678E-2,-1.9272706E-2,5.8267783E-2,1.4864024E-2,-5.9566174E-2],"split_indices":[0,1,3,0,0,0,0],"split_type":[0,0,0,0,0,0,0],"sum_hessian":[6.0928044E0,3.3247352E0,2.768069E0,1.7835974E0,1.5411378E0,1.4225168E0,1.3455523E0],"tree_param":{"num_deleted":"0","num_feature":"7","num_nodes":"7","size_leaf_vector":"1"}},{"base_weights":[-3.8602848E-3,3.7723783E-2,-6.407862E-2,-1.8669206E-1,2.678346E-2,-8.2252085E-2,-1.9408766E-3],"categories":[],"categories_nodes":[],"categories_segments":[],"categories_sizes":[],"default_left":[0,0,0,0,0,0,0],"id":51,"left_children":[1,-1,3,5,-1,-1,-1],"loss_changes":[6.3048E-2,0E0,1.19581565E-1,5.1277876E-2,0E0,0E0,0E0],"parents":[2147483647,0,0,2,2,3,3],"right_children":[2,-1,4,6,-1,-1,-1],"split_conditions":[3.15564E2,3.7723783E-2,3.20321E2,5.108344E1,2.678346E-2,-8.2252085E-2,-1.9408766E-3],"split_indices":[6,0,6,0,0,0,0],"split_type":[0,0,0,0,0,0,0],"sum_hessian":[6.0458274E0,1.5727262E0,4.473101E0,2.3649118E0,2.108189E0,1.2411435E0,1.1237683E0],"tree_param":{"num_deleted":"0","num_feature":"7","num_nodes":"7","size_leaf_vector":"1"}},{"base_weights":[-5.712196E-3,-9.157321E-2,6.753664E-2,2.5840342E-2,-7.362972E-2,5.9381437E-2,-3.5711743E-2],"categories":[],"categories_nodes":[],"categories_segments":[],"categories_sizes":[],"default_left":[0,0,0,0,0,0,0],"id":52,"left_children":[1,3,5,-1,-1,-1,-1],"loss_changes":[5.0140038E-2,1.2071897E-1,1.2932493E-1,0E0,0E0,0E0,0E0],"parents":[2147483647,0,0,1,1,2,2],"right_children":[2,4,6,-1,-1,-1,-1],"split_conditions":[-8.234793E-1,-2.6240861E0,1.4071602E0,2.5840342E-2,-7.362972E-2,5.9381437E-2,-3.5711743E-2],"split_indices":[1,1,1,0,0,0,0],"split_type":[0,0,0,0,0,0,0],"sum_hessian":[5.989022E0,2.6419766E0,3.3470452E0,1.4302305E0,1.2117461E0,1.9342563E0,1.4127889E0],"tree_param":{"num_deleted":"0","num_feature":"7","num_nodes":"7","size_leaf_vector":"1"}},{"base_weights":[-7.530457E-3,3.376227E-2,-6.344716E-2,-5.9724603E-2,6.4994626E-2,-1.2517102E-2,4.4632707E-2],"categories":[],"categories_nodes":[],"categories_segments":[],"categories_sizes":[],"default_left":[0,0,0,0,0,0,0],"id":53,"left_children":[1,-1,3,-1,5,-1,-1],"loss_changes":[5.3605564E-2,0E0,1.0633819E-1,0E0,3.756801E-2,0E0,0E0],"parents":[2147483647,0,0,2,2,4,4],"right_children":[2,-1,4,-1,6,-1,-1],"split_conditions":[3.15564E2,3.376227E-2,4.34E0,-5.9724603E-2,-1.2267567E0,-1.2517102E-2,4.4632707E-2],"split_indices":[6,0,5,0,1,0,0],"split_type":[0,0,0,0,0,0,0],"sum_hessian":[5.9206448E0,1.5594171E0,4.361228E0,1.8537183E0,2.5075095E0,1.3235698E0,1.1839398E0],"tree_param":{"num_deleted":"0","num_feature":"7","num_nodes":"7","size_leaf_vector":"1"}},{"base_weights":[-4.4281106E-3,3.072088E-2,-6.9170676E-2,2.5543021E-2,-1.7164694E-1,-2.3740353E-3,-8.098388E-2],"categories":[],"categories_nodes":[],"categories_segments":[],"categories_sizes":[],"default_left":[0,0,0,0,0,0,0],"id":54,"left_children":[1,-1,3,-1,5,-1,-1],"loss_changes":[5.4671206E-2,0E0,9.1799095E-2,0E0,5.040838E-2,0E0,0E0],"parents":[2147483647,0,0,2,2,4,4],"right_children":[2,-1,4,-1,6,-1,-1],"split_conditions":[4.4037937E1,3.072088E-2,6.4678E-2,2.5543021E-2,5.0801945E1,-2.3740353E-3,-8.098388E-2],"split_indices":[0,0,3,0,0,0,0],"split_type":[0,0,0,0,0,0,0],"sum_hessian":[5.8803325E0,1.9994185E0,3.8809142E0,1.6162386E0,2.2646756E0,1.2549145E0,1.009761E0],"tree_param":{"num_deleted":"0","num_feature":"7","num_nodes":"7","size_leaf_vector":"1"}},{"base_weights":[-7.2522666E-3,3.3279985E-2,-6.1672933E-2,-1.6944195E-1,2.233347E-2,-7.3737174E-2,-2.4888816E-3],"categories":[],"categories_nodes":[],"categories_segments":[],"categories_sizes":[],"default_left":[0,0,0,0,0,0,0],"id":55,"left_children":[1,-1,3,5,-1,-1,-1],"loss_changes":[5.0777745E-2,0E0,9.065566E-2,3.8247526E-2,0E0,0E0,0E0],"parents":[2147483647,0,0,2,2,3,3],"right_children":[2,-1,4,6,-1,-1,-1],"split_conditions":[3.15564E2,3.3279985E-2,3.20321E2,5.108344E1,2.233347E-2,-7.3737174E-2,-2.4888816E-3],"split_indices":[6,0,6,0,0,0,0],"split_type":[0,0,0,0,0,0,0],"sum_hessian":[5.831151E0,1.5110841E0,4.320067E0,2.274473E0,2.045594E0,1.1868773E0,1.0875956E0],"tree_param":{"num_deleted":"0","num_feature":"7","num_nodes":"7","size_leaf_vector":"1"}},{"base_weights":[-8.277637E-3,-3.3417612E-2,5.233599E-2,5.3993303E-2,-7.166053E-2,3.935288E-2,-7.76013E-2],"categories":[],"categories_nodes":[],"categories_segments":[],"categories_sizes":[],"default_left":[0,0,0,0,0,0,0],"id":56,"left_children":[1,-1,3,-1,5,-1,-1],"loss_changes":[4.8243046E-2,0E0,9.130627E-2,0E0,1.563836E-1,0E0,0E0],"parents":[2147483647,0,0,2,2,4,4],"right_children":[2,-1,4,-1,6,-1,-1],"split_conditions":[-1.2267567E0,-3.3417612E-2,5.0209602E1,5.3993303E-2,1.3904575E0,3.935288E-2,-7.76013E-2],"split_indices":[1,0,0,0,1,0,0],"split_type":[0,0,0,0,0,0,0],"sum_hessian":[5.785968E0,1.8318799E0,3.9540877E0,1.7259382E0,2.2281497E0,1.2120683E0,1.0160813E0],"tree_param":{"num_deleted":"0","num_feature":"7","num_nodes":"7","size_leaf_vector":"1"}},{"base_weights":[-8.572634E-3,2.5924468E-2,-6.551014E-2,2.6077574E-2,-1.6795497E-1,-6.871955E-2,-5.1357704E-3],"categories":[],"categories_nodes":[],"categories_segments":[],"categories_sizes":[],"default_left":[0,0,0,0,0,0,0],"id":57,"left_children":[1,-1,3,-1,5,-1,-1],"loss_changes":[4.196602E-2,0E0,8.9023195E-2,0E0,2.549477E-2,0E0,0E0],"parents":[2147483647,0,0,2,2,4,4],"right_children":[2,-1,4,-1,6,-1,-1],"split_conditions":[4.4037937E1,2.5924468E-2,6.4678E-2,2.6077574E-2,5.152862E-2,-6.871955E-2,-5.1357704E-3],"split_indices":[0,0,3,0,1,0,0],"split_type":[0,0,0,0,0,0,0],"sum_hessian":[5.7127604E0,1.9469664E0,3.7657938E0,1.5744876E0,2.1913064E0,1.1903878E0,1.0009184E0],"tree_param":{"num_deleted":"0","num_feature":"7","num_nodes":"7","size_leaf_vector":"1"}},{"base_weights":[-9.416999E-3,-6.587596E-2,2.4306776E-2,9.428817E-2,-8.168675E-2,-2.6518758E-2,6.4277485E-2],"categories":[],"categories_nodes":[],"categories_segments":[],"categories_sizes":[],"default_left":[0,0,0,0,0,0,0],"id":58,"left_children":[1,3,-1,5,-1,-1,-1],"loss_changes":[3.9412286E-2,1.797351E-1,0E0,9.272804E-2,0E0,0E0,0E0],"parents":[2147483647,0,0,1,1,3,3],"right_children":[2,4,-1,6,-1,-1,-1],"split_conditions":[3.20321E2,4.29E0,2.4306776E-2,3.14851E2,-8.168675E-2,-2.6518758E-2,6.4277485E-2],"split_indices":[6,5,0,6,0,0,0],"split_type":[0,0,0,0,0,0,0],"sum_hessian":[5.6733274E0,3.6600566E0,2.0132709E0,2.3667831E0,1.2932736E0,1.0425017E0,1.3242815E0],"tree_param":{"num_deleted":"0","num_feature":"7","num_nodes":"7","size_leaf_vector":"1"}},{"base_weights":[-9.736498E-3,4.654817E-2,-3.3366155E-2,-7.666785E-2,5.910938E-2,-4.3604154E-2,1.3327586E-2],"categories":[],"categories_nodes":[],"categories_segments":[],"categories_sizes":[],"default_left":[0,0,0,0,0,0,0],"id":59,"left_children":[1,3,-1,5,-1,-1,-1],"loss_changes":[4.2886958E-2,1.0691788E-1,0E0,3.50855E-2,0E0,0E0,0E0],"parents":[2147483647,0,0,1,1,3,3],"right_children":[2,4,-1,6,-1,-1,-1],"split_conditions":[5.3629303E1,4.5927586E1,-3.3366155E-2,-1.2933606E0,5.910938E-2,-4.3604154E-2,1.3327586E-2],"split_indices":[0,0,0,1,0,0,0],"split_type":[0,0,0,0,0,0,0],"sum_hessian":[5.6018705E0,3.9515839E0,1.6502868E0,2.4423237E0,1.5092602E0,1.4306322E0,1.0116915E0],"tree_param":{"num_deleted":"0","num_feature":"7","num_nodes":"7","size_leaf_vector":"1"}},{"base_weights":[-7.4704923E-3,6.1107382E-2,-8.504375E-2,-1.9900672E-2,4.8538495E-2,1.097188E-2,-5.174414E-2],"categories":[],"categories_nodes":[],"categories_segments":[],"categories_sizes":[],"default_left":[0,0,0,0,0,0,0],"id":60,"left_children":[1,3,5,-1,-1,-1,-1],"loss_changes":[4.01089E-2,6.289685E-2,4.349949E-2,0E0,0E0,0E0,0E0],"parents":[2147483647,0,0,1,1,2,2],"right_children":[2,4,6,-1,-1,-1,-1],"split_conditions":[4.884193E1,4.337151E1,6.4678E-2,-1.9900672E-2,4.8538495E-2,1.097188E-2,-5.174414E-2],"split_indices":[0,0,3,0,0,0,0],"split_type":[0,0,0,0,0,0,0],"sum_hessian":[5.5626597E0,3.0651798E0,2.49748E0,1.5034269E0,1.561753E0,1.2878778E0,1.2096021E0],"tree_param":{"num_deleted":"0","num_feature":"7","num_nodes":"7","size_leaf_vector":"1"}},{"base_weights":[-7.108425E-3,3.3015992E-2,-6.0135663E-2,-5.7277113E-2,6.467429E-2,-9.362411E-3,4.0809844E-2],"categories":[],"categories_nodes":[],"categories_segments":[],"categories_sizes":[],"default_left":[0,0,0,0,0,0,0],"id":61,"left_children":[1,-1,3,-1,5,-1,-1],"loss_changes":[4.7220364E-2,0E0,9.634429E-2,0E0,2.7371272E-2,0E0,0E0],"parents":[2147483647,0,0,2,2,4,4],"right_children":[2,-1,4,-1,6,-1,-1],"split_conditions":[3.15564E2,3.3015992E-2,4.34E0,-5.7277113E-2,-1.2267567E0,-9.362411E-3,4.0809844E-2],"split_indices":[6,0,5,0,1,0,0],"split_type":[0,0,0,0,0,0,0],"sum_hessian":[5.5352945E0,1.3896042E0,4.1456904E0,1.7657009E0,2.3799891E0,1.2555724E0,1.1244168E0],"tree_param":{"num_deleted":"0","num_feature":"7","num_nodes":"7","size_leaf_vector":"1"}},{"base_weights":[-3.9197677E-3,2.8365597E-2,-6.515242E-2,-1.4186066E-1,2.9671365E-2,1.2219361E-2,-7.410296E-2],"categories":[],"categories_nodes":[],"categories_segments":[],"categories_sizes":[],"default_left":[0,0,0,0,0,0,0],"id":62,"left_children":[1,-1,3,5,-1,-1,-1],"loss_changes":[4.5352004E-2,0E0,7.191614E-2,7.812369E-2,0E0,0E0,0E0],"parents":[2147483647,0,0,2,2,3,3],"right_children":[2,-1,4,6,-1,-1,-1],"split_conditions":[4.4037937E1,2.8365597E-2,4.41E0,6.4678E-2,2.9671365E-2,1.2219361E-2,-7.410296E-2],"split_indices":[0,0,5,3,0,0,0],"split_type":[0,0,0,0,0,0,0],"sum_hessian":[5.499793E0,1.9000578E0,3.5997353E0,2.5450435E0,1.0546916E0,1.1539099E0,1.3911335E0],"tree_param":{"num_deleted":"0","num_feature":"7","num_nodes":"7","size_leaf_vector":"1"}},{"base_weights":[-3.4979132E-3,3.593605E-2,-6.026682E-2,-1.6970359E-1,2.2918615E-2,-7.185006E-2,-3.6720645E-3],"categories":[],"categories_nodes":[],"categories_segments":[],"categories_sizes":[],"default_left":[0,0,0,0,0,0,0],"id":63,"left_children":[1,-1,3,5,-1,-1,-1],"loss_changes":[5.2396227E-2,0E0,8.901687E-2,3.1515263E-2,0E0,0E0,0E0],"parents":[2147483647,0,0,2,2,3,3],"right_children":[2,-1,4,6,-1,-1,-1],"split_conditions":[3.15564E2,3.593605E-2,3.20321E2,5.108344E1,2.2918615E-2,-7.185006E-2,-3.6720645E-3],"split_indices":[6,0,6,0,0,0,0],"split_type":[0,0,0,0,0,0,0],"sum_hessian":[5.455027E0,1.3699139E0,4.085113E0,2.13426E0,1.9508532E0,1.1177988E0,1.0164611E0],"tree_param":{"num_deleted":"0","num_feature":"7","num_nodes":"7","size_leaf_vector":"1"}},{"base_weights":[-5.1808166E-3,-8.745534E-2,6.6883475E-2,2.7453613E-2,-7.318046E-2,5.2030064E-2,-2.8184464E-2],"categories":[],"categories_nodes":[],"categories_segments":[],"categories_sizes":[],"default_left":[0,0,0,0,0,0,0],"id":64,"left_children":[1,3,5,-1,-1,-1,-1],"loss_changes":[4.3862298E-2,1.18293464E-1,8.4572375E-2,0E0,0E0,0E0,0E0],"parents":[2147483647,0,0,1,1,2,2],"right_children":[2,4,6,-1,-1,-1,-1],"split_conditions":[-8.234793E-1,-2.6240861E0,1.4071602E0,2.7453613E-2,-7.318046E-2,5.2030064E-2,-2.8184464E-2],"split_indices":[1,1,1,0,0,0,0],"split_type":[0,0,0,0,0,0,0],"sum_hessian":[5.411306E0,2.4269388E0,2.984367E0,1.3257946E0,1.1011442E0,1.7479836E0,1.2363834E0],"tree_param":{"num_deleted":"0","num_feature":"7","num_nodes":"7","size_leaf_vector":"1"}},{"base_weights":[-7.1396944E-3,3.2160565E-2,-5.97006E-2,-4.9034685E-2,5.8857135E-2,2.5306674E-2,1.1459008E-3],"categories":[],"categories_nodes":[],"categories_segments":[],"categories_sizes":[],"default_left":[0,0,0,0,0,0,0],"id":65,"left_children":[1,-1,3,-1,5,-1,-1],"loss_changes":[4.4591688E-2,0E0,7.10699E-2,0E0,3.981591E-3,0E0,0E0],"parents":[2147483647,0,0,2,2,4,4],"right_children":[2,-1,4,-1,6,-1,-1],"split_conditions":[3.15564E2,3.2160565E-2,4.37E0,-4.9034685E-2,4.43E0,2.5306674E-2,1.1459008E-3],"split_indices":[6,0,5,0,5,0,0],"split_type":[0,0,0,0,0,0,0],"sum_hessian":[5.3547964E0,1.358949E0,3.9958472E0,1.9290854E0,2.066762E0,1.0483675E0,1.0183944E0],"tree_param":{"num_deleted":"0","num_feature":"7","num_nodes":"7","size_leaf_vector":"1"}},{"base_weights":[-3.52208E-3,6.449376E-2,-8.245084E-2,-3.248252E-2,4.8845E-2,2.5006767E-2,-6.878248E-2],"categories":[],"categories_nodes":[],"categories_segments":[],"categories_sizes":[],"default_left":[0,0,0,0,0,0,0],"id":66,"left_children":[1,3,5,-1,-1,-1,-1],"loss_changes":[3.9305095E-2,8.492698E-2,1.0113566E-1,0E0,0E0,0E0,0E0],"parents":[2147483647,0,0,1,1,2,2],"right_children":[2,4,6,-1,-1,-1,-1],"split_conditions":[3.17603E2,5.152862E-2,-2.6240861E0,-3.248252E-2,4.8845E-2,2.5006767E-2,-6.878248E-2],"split_indices":[6,1,1,0,0,0,0],"split_type":[0,0,0,0,0,0,0],"sum_hessian":[5.331029E0,2.9617045E0,2.3693242E0,1.0374763E0,1.9242282E0,1.3157439E0,1.0535803E0],"tree_param":{"num_deleted":"0","num_feature":"7","num_nodes":"7","size_leaf_vector":"1"}},{"base_weights":[-6.906464E-3,2.6896708E-2,-6.6294976E-2,-1.4941657E-1,3.299049E-2,9.106535E-3,-7.40659E-2],"categories":[],"categories_nodes":[],"categories_segments":[],"categories_sizes":[],"default_left":[0,0,0,0,0,0,0],"id":67,"left_children":[1,-1,3,5,-1,-1,-1],"loss_changes":[4.1947115E-2,0E0,8.180876E-2,6.805572E-2,0E0,0E0,0E0],"parents":[2147483647,0,0,2,2,3,3],"right_children":[2,-1,4,6,-1,-1,-1],"split_conditions":[4.4037937E1,2.6896708E-2,4.41E0,6.4678E-2,3.299049E-2,9.106535E-3,-7.40659E-2],"split_indices":[0,0,5,3,0,0,0],"split_type":[0,0,0,0,0,0,0],"sum_hessian":[5.278184E0,1.8159354E0,3.4622486E0,2.4562497E0,1.0059988E0,1.1056238E0,1.350626E0],"tree_param":{"num_deleted":"0","num_feature":"7","num_nodes":"7","size_leaf_vector":"1"}},{"base_weights":[-5.823946E-3,3.1661455E-2,-5.74141E-2,-4.5745343E-2,1.9088663E-2],"categories":[],"categories_nodes":[],"categories_segments":[],"categories_sizes":[],"default_left":[0,0,0,0,0],"id":68,"left_children":[1,-1,3,-1,-1],"loss_changes":[4.187422E-2,0E0,6.618079E-2,0E0,0E0],"parents":[2147483647,0,0,2,2],"right_children":[2,-1,4,-1,-1],"split_conditions":[3.15564E2,3.1661455E-2,3.20321E2,-4.5745343E-2,1.9088663E-2],"split_indices":[6,0,6,0,0],"split_type":[0,0,0,0,0],"sum_hessian":[5.233883E0,1.3259637E0,3.9079192E0,2.0433013E0,1.864618E0],"tree_param":{"num_deleted":"0","num_feature":"7","num_nodes":"5","size_leaf_vector":"1"}},{"base_weights":[-3.3212653E-3,-3.329371E-2,6.0231637E-2,1.4265953E-1,-3.1313784E-2,7.0569147E-3,6.22413E-2],"categories":[],"categories_nodes":[],"categories_segments":[],"categories_sizes":[],"default_left":[0,0,0,0,0,0,0],"id":69,"left_children":[1,-1,3,5,-1,-1,-1],"loss_changes":[4.9139373E-2,0E0,7.662717E-2,2.179198E-2,0E0,0E0,0E0],"parents":[2147483647,0,0,2,2,3,3],"right_children":[2,-1,4,6,-1,-1,-1],"split_conditions":[-1.2267567E0,-3.329371E-2,5.6749607E1,5.152862E-2,-3.1313784E-2,7.0569147E-3,6.22413E-2],"split_indices":[1,0,0,1,0,0,0],"split_type":[0,0,0,0,0,0,0],"sum_hessian":[5.2050796E0,1.655106E0,3.5499737E0,2.4543343E0,1.0956395E0,1.3449647E0,1.1093695E0],"tree_param":{"num_deleted":"0","num_feature":"7","num_nodes":"7","size_leaf_vector":"1"}},{"base_weights":[-1.4760926E-3,-2.7099645E-2,5.101455E-2,1.3112627E-1,-2.8645823E-2,5.942009E-3,5.673655E-2],"categories":[],"categories_nodes":[],"categories_segments":[],"categories_sizes":[],"default_left":[0,0,0,0,0,0,0],"id":70,"left_children":[1,-1,3,5,-1,-1,-1],"loss_changes":[3.338899E-2,0E0,6.554836E-2,1.7832164E-2,0E0,0E0,0E0],"parents":[2147483647,0,0,2,2,3,3],"right_children":[2,-1,4,6,-1,-1,-1],"split_conditions":[-1.2267567E0,-2.7099645E-2,1.4071602E0,-1.9767788E-1,-2.8645823E-2,5.942009E-3,5.673655E-2],"split_indices":[1,0,1,1,0,0,0],"split_type":[0,0,0,0,0,0,0],"sum_hessian":[5.1706796E0,1.6524674E0,3.5182123E0,2.3423026E0,1.1759099E0,1.2618209E0,1.0804815E0],"tree_param":{"num_deleted":"0","num_feature":"7","num_nodes":"7","size_leaf_vector":"1"}},{"base_weights":[1.6678296E-4,2.5806291E-2,-5.4458823E-2,2.4058776E-2,-4.430288E-2],"categories":[],"categories_nodes":[],"categories_segments":[],"categories_sizes":[],"default_left":[0,0,0,0,0],"id":71,"left_children":[1,-1,3,-1,-1],"loss_changes":[3.349931E-2,0E0,6.666197E-2,0E0,0E0],"parents":[2147483647,0,0,2,2],"right_children":[2,-1,4,-1,-1],"split_conditions":[4.4037937E1,2.5806291E-2,6.4678E-2,2.4058776E-2,-4.430288E-2],"split_indices":[0,0,3,0,0],"split_type":[0,0,0,0,0],"sum_hessian":[5.1440754E0,1.7767885E0,3.367287E0,1.4346261E0,1.9326608E0],"tree_param":{"num_deleted":"0","num_feature":"7","num_nodes":"5","size_leaf_vector":"1"}},{"base_weights":[1.0023034E-3,3.0218417E-2,-4.6666205E-2,-4.60826E-2,2.4511587E-2],"categories":[],"categories_nodes":[],"categories_segments":[],"categories_sizes":[],"default_left":[0,0,0,0,0],"id":72,"left_children":[1,-1,3,-1,-1],"loss_changes":[3.3783488E-2,0E0,7.875812E-2,0E0,0E0],"parents":[2147483647,0,0,2,2],"right_children":[2,-1,4,-1,-1],"split_conditions":[3.15564E2,3.0218417E-2,3.20321E2,-4.60826E-2,2.4511587E-2],"split_indices":[6,0,6,0,0],"split_type":[0,0,0,0,0],"sum_hessian":[5.1178493E0,1.2951704E0,3.8226788E0,1.9781479E0,1.8445308E0],"tree_param":{"num_deleted":"0","num_feature":"7","num_nodes":"5","size_leaf_vector":"1"}},{"base_weights":[2.0975508E-3,-2.5902761E-2,5.3818226E-2,4.700134E-2,-1.578942E-2],"categories":[],"categories_nodes":[],"categories_segments":[],"categories_sizes":[],"default_left":[0,0,0,0,0],"id":73,"left_children":[1,-1,3,-1,-1],"loss_changes":[3.2492526E-2,0E0,5.704653E-2,0E0,0E0],"parents":[2147483647,0,0,2,2],"right_children":[2,-1,4,-1,-1],"split_conditions":[-1.2267567E0,-2.5902761E-2,5.0209602E1,4.700134E-2,-1.578942E-2],"split_indices":[1,0,0,0,0],"split_type":[0,0,0,0,0],"sum_hessian":[5.087587E0,1.6303533E0,3.4572337E0,1.5183749E0,1.9388587E0],"tree_param":{"num_deleted":"0","num_feature":"7","num_nodes":"5","size_leaf_vector":"1"}},{"base_weights":[2.4108947E-3,-7.4336424E-2,6.543307E-2,9.732517E-3,-4.1824866E-2,5.532399E-2,-2.1767076E-2],"categories":[],"categories_nodes":[],"categories_segments":[],"categories_sizes":[],"default_left":[0,0,0,0,0,0,0],"id":74,"left_children":[1,3,5,-1,-1,-1,-1],"loss_changes":[3.421313E-2,2.6788974E-2,7.681539E-2,0E0,0E0,0E0,0E0],"parents":[2147483647,0,0,1,1,2,2],"right_children":[2,4,6,-1,-1,-1,-1],"split_conditions":[4.5927586E1,-2.6240861E0,5.3629303E1,9.732517E-3,-4.1824866E-2,5.532399E-2,-2.1767076E-2],"split_indices":[0,1,0,0,0,0,0],"split_type":[0,0,0,0,0,0,0],"sum_hessian":[5.06789E0,2.2041664E0,2.8637238E0,1.0245948E0,1.1795716E0,1.3571299E0,1.506594E0],"tree_param":{"num_deleted":"0","num_feature":"7","num_nodes":"7","size_leaf_vector":"1"}},{"base_weights":[2.0072563E-3,-4.884436E-2,2.310366E-2,9.054921E-2,-6.868728E-2,4.392519E-2,-2.061031E-3],"categories":[],"categories_nodes":[],"categories_segments":[],"categories_sizes":[],"default_left":[0,0,0,0,0,0,0],"id":75,"left_children":[1,3,-1,5,-1,-1,-1],"loss_changes":[2.6781563E-2,1.2639987E-1,0E0,1.7819135E-2,0E0,0E0,0E0],"parents":[2147483647,0,0,1,1,3,3],"right_children":[2,4,-1,6,-1,-1,-1],"split_conditions":[3.20321E2,4.29E0,2.310366E-2,5.3257313E1,-6.868728E-2,4.392519E-2,-2.061031E-3],"split_indices":[6,5,0,0,0,0,0],"split_type":[0,0,0,0,0,0,0],"sum_hessian":[5.0354514E0,3.2087665E0,1.8266848E0,2.0891743E0,1.1195924E0,1.0080929E0,1.0810813E0],"tree_param":{"num_deleted":"0","num_feature":"7","num_nodes":"7","size_leaf_vector":"1"}},{"base_weights":[7.1163225E-4,-5.732689E-2,2.4215706E-2,-6.201222E-2,3.1034239E-2],"categories":[],"categories_nodes":[],"categories_segments":[],"categories_sizes":[],"default_left":[0,0,0,0,0],"id":76,"left_children":[1,3,-1,-1,-1],"loss_changes":[3.2445602E-2,1.1881383E-1,0E0,0E0,0E0],"parents":[2147483647,0,0,1,1],"right_children":[2,4,-1,-1,-1],"split_conditions":[4.37E0,5.5020726E-1,2.4215706E-2,-6.201222E-2,3.1034239E-2],"split_indices":[5,1,0,0,0],"split_type":[0,0,0,0,0],"sum_hessian":[4.990776E0,3.0568051E0,1.933971E0,1.4364527E0,1.6203523E0],"tree_param":{"num_deleted":"0","num_feature":"7","num_nodes":"5","size_leaf_vector":"1"}},{"base_weights":[-6.868795E-4,2.5245976E-2,-5.4850068E-2,2.5455944E-2,-4.6031017E-2],"categories":[],"categories_nodes":[],"categories_segments":[],"categories_sizes":[],"default_left":[0,0,0,0,0],"id":77,"left_children":[1,-1,3,-1,-1],"loss_changes":[3.2018583E-2,0E0,7.148681E-2,0E0,0E0],"parents":[2147483647,0,0,2,2],"right_children":[2,-1,4,-1,-1],"split_conditions":[4.4037937E1,2.5245976E-2,6.4678E-2,2.5455944E-2,-4.6031017E-2],"split_indices":[0,0,3,0,0],"split_type":[0,0,0,0,0],"sum_hessian":[4.963331E0,1.718231E0,3.2451005E0,1.4002151E0,1.8448853E0],"tree_param":{"num_deleted":"0","num_feature":"7","num_nodes":"5","size_leaf_vector":"1"}},{"base_weights":[2.752295E-4,4.349024E-2,-2.8891014E-2,-6.617328E-2,4.9644295E-2,-3.5046004E-3,-2.5713503E-2],"categories":[],"categories_nodes":[],"categories_segments":[],"categories_sizes":[],"default_left":[0,0,0,0,0,0,0],"id":78,"left_children":[1,3,-1,5,-1,-1,-1],"loss_changes":[2.8964687E-2,7.503274E-2,0E0,2.4449257E-3,0E0,0E0,0E0],"parents":[2147483647,0,0,1,1,3,3],"right_children":[2,4,-1,6,-1,-1,-1],"split_conditions":[1.3904575E0,-8.234793E-1,-2.8891014E-2,-3.8604443E0,4.9644295E-2,-3.5046004E-3,-2.5713503E-2],"split_indices":[1,1,0,1,0,0,0],"split_type":[0,0,0,0,0,0,0],"sum_hessian":[4.9364004E0,3.790152E0,1.1462486E0,2.236872E0,1.5532801E0,1.0120982E0,1.2247738E0],"tree_param":{"num_deleted":"0","num_feature":"7","num_nodes":"7","size_leaf_vector":"1"}},{"base_weights":[-1.1774441E-3,2.740456E-2,-4.4936232E-2,-4.9633432E-2,7.0092894E-2,-3.3732012E-3,3.5773974E-2],"categories":[],"categories_nodes":[],"categories_segments":[],"categories_sizes":[],"default_left":[0,0,0,0,0,0,0],"id":79,"left_children":[1,-1,3,-1,5,-1,-1],"loss_changes":[2.803426E-2,0E0,7.6509655E-2,0E0,1.3727796E-2,0E0,0E0],"parents":[2147483647,0,0,2,2,4,4],"right_children":[2,-1,4,-1,6,-1,-1],"split_conditions":[3.15564E2,2.740456E-2,4.34E0,-4.9633432E-2,-1.2933606E0,-3.3732012E-3,3.5773974E-2],"split_indices":[6,0,5,0,1,0,0],"split_type":[0,0,0,0,0,0,0],"sum_hessian":[4.9102097E0,1.2273939E0,3.6828156E0,1.5845256E0,2.09829E0,1.0809083E0,1.0173817E0],"tree_param":{"num_deleted":"0","num_feature":"7","num_nodes":"7","size_leaf_vector":"1"}},{"base_weights":[8.882373E-4,3.0133115E-2,-4.748439E-2,2.4942536E-2,-5.3858574E-2],"categories":[],"categories_nodes":[],"categories_segments":[],"categories_sizes":[],"default_left":[0,0,0,0,0],"id":80,"left_children":[1,-1,3,-1,-1],"loss_changes":[3.3116687E-2,0E0,9.496768E-2,0E0,0E0],"parents":[2147483647,0,0,2,2],"right_children":[2,-1,4,-1,-1],"split_conditions":[-2.6240861E0,3.0133115E-2,4.29E0,2.4942536E-2,-5.3858574E-2],"split_indices":[1,0,5,0,0],"split_type":[0,0,0,0,0],"sum_hessian":[4.8863354E0,1.2458335E0,3.6405017E0,2.0162513E0,1.6242502E0],"tree_param":{"num_deleted":"0","num_feature":"7","num_nodes":"5","size_leaf_vector":"1"}},{"base_weights":[7.939236E-4,-5.8134492E-2,7.23738E-2,-6.028982E-2,2.593226E-2,-7.4523296E-3,4.120432E-2],"categories":[],"categories_nodes":[],"categories_segments":[],"categories_sizes":[],"default_left":[0,0,0,0,0,0,0],"id":81,"left_children":[1,3,5,-1,-1,-1,-1],"loss_changes":[2.8918972E-2,9.517542E-2,2.2934217E-2,0E0,0E0,0E0,0E0],"parents":[2147483647,0,0,1,1,2,2],"right_children":[2,4,6,-1,-1,-1,-1],"split_conditions":[4.34E0,5.5020726E-1,-1.2267567E0,-6.028982E-2,2.593226E-2,-7.4523296E-3,4.120432E-2],"split_indices":[5,1,1,0,0,0,0],"split_type":[0,0,0,0,0,0,0],"sum_hessian":[4.8584723E0,2.7677493E0,2.090723E0,1.1960659E0,1.5716834E0,1.0850027E0,1.0057204E0],"tree_param":{"num_deleted":"0","num_feature":"7","num_nodes":"7","size_leaf_vector":"1"}},{"base_weights":[4.287935E-4,-5.934254E-2,2.6339548E-2,1.9631332E-2,-6.367553E-2],"categories":[],"categories_nodes":[],"categories_segments":[],"categories_sizes":[],"default_left":[0,0,0,0,0],"id":82,"left_children":[1,3,-1,-1,-1],"loss_changes":[3.565566E-2,9.1324724E-2,0E0,0E0,0E0],"parents":[2147483647,0,0,1,1],"right_children":[2,4,-1,-1,-1],"split_conditions":[3.20321E2,4.29E0,2.6339548E-2,1.9631332E-2,-6.367553E-2],"split_indices":[6,5,0,0,0],"split_type":[0,0,0,0,0],"sum_hessian":[4.8300056E0,3.0584486E0,1.7715569E0,1.9991262E0,1.0593224E0],"tree_param":{"num_deleted":"0","num_feature":"7","num_nodes":"5","size_leaf_vector":"1"}},{"base_weights":[-2.8427485E-3,6.4917676E-2,-8.003609E-2,-1.2698886E-2,4.3316662E-2,1.1610678E-2,-4.880425E-2],"categories":[],"categories_nodes":[],"categories_segments":[],"categories_sizes":[],"default_left":[0,0,0,0,0,0,0],"id":83,"left_children":[1,3,5,-1,-1,-1,-1],"loss_changes":[3.551823E-2,3.7130006E-2,3.7283555E-2,0E0,0E0,0E0,0E0],"parents":[2147483647,0,0,1,1,2,2],"right_children":[2,4,6,-1,-1,-1,-1],"split_conditions":[4.884193E1,4.337151E1,6.4678E-2,-1.2698886E-2,4.3316662E-2,1.1610678E-2,-4.880425E-2],"split_indices":[0,0,3,0,0,0,0],"split_type":[0,0,0,0,0,0,0],"sum_hessian":[4.797072E0,2.6393085E0,2.1577635E0,1.3222611E0,1.3170472E0,1.1037185E0,1.054045E0],"tree_param":{"num_deleted":"0","num_feature":"7","num_nodes":"7","size_leaf_vector":"1"}},{"base_weights":[-3.1439571E-3,2.5546571E-2,-5.92967E-2,2.0714141E-2,-4.3680772E-2],"categories":[],"categories_nodes":[],"categories_segments":[],"categories_sizes":[],"default_left":[0,0,0,0,0],"id":84,"left_children":[1,-1,3,-1,-1],"loss_changes":[3.3680227E-2,0E0,5.5681303E-2,0E0,0E0],"parents":[2147483647,0,0,2,2],"right_children":[2,-1,4,-1,-1],"split_conditions":[4.4037937E1,2.5546571E-2,6.4678E-2,2.0714141E-2,-4.3680772E-2],"split_indices":[0,0,3,0,0],"split_type":[0,0,0,0,0],"sum_hessian":[4.774387E0,1.6551694E0,3.1192172E0,1.3345721E0,1.7846452E0],"tree_param":{"num_deleted":"0","num_feature":"7","num_nodes":"5","size_leaf_vector":"1"}},{"base_weights":[-1.7855024E-3,4.3576285E-2,-3.0182363E-2,-6.705917E-2,4.780183E-2,-7.101672E-4,-2.9555606E-2],"categories":[],"categories_nodes":[],"categories_segments":[],"categories_sizes":[],"default_left":[0,0,0,0,0,0,0],"id":85,"left_children":[1,3,-1,5,-1,-1,-1],"loss_changes":[3.0162845E-2,7.01018E-2,0E0,6.026864E-3,0E0,0E0,0E0],"parents":[2147483647,0,0,1,1,3,3],"right_children":[2,4,-1,6,-1,-1,-1],"split_conditions":[1.3904575E0,4.5927586E1,-3.0182363E-2,4.1487534E1,4.780183E-2,-7.101672E-4,-2.9555606E-2],"split_indices":[1,0,0,0,0,0,0],"split_type":[0,0,0,0,0,0,0],"sum_hessian":[4.7506385E0,3.639203E0,1.1114353E0,2.0759385E0,1.5632645E0,1.0310272E0,1.0449113E0],"tree_param":{"num_deleted":"0","num_feature":"7","num_nodes":"7","size_leaf_vector":"1"}},{"base_weights":[-3.4164055E-3,2.2950811E-2,-5.462258E-2,1.6018465E-2,-3.7507217E-2],"categories":[],"categories_nodes":[],"categories_segments":[],"categories_sizes":[],"default_left":[0,0,0,0,0],"id":86,"left_children":[1,-1,3,-1,-1],"loss_changes":[2.7612785E-2,0E0,3.7653174E-2,0E0,0E0],"parents":[2147483647,0,0,2,2],"right_children":[2,-1,4,-1,-1],"split_conditions":[4.4037937E1,2.2950811E-2,6.4678E-2,1.6018465E-2,-3.7507217E-2],"split_indices":[0,0,3,0,0],"split_type":[0,0,0,0,0],"sum_hessian":[4.7262945E0,1.6527623E0,3.073532E0,1.3080885E0,1.7654436E0],"tree_param":{"num_deleted":"0","num_feature":"7","num_nodes":"5","size_leaf_vector":"1"}},{"base_weights":[-2.1565256E-3,2.9955499E-2,-5.0879493E-2,-5.0107673E-2,6.325722E-2,-2.6813708E-3,3.1108407E-2],"categories":[],"categories_nodes":[],"categories_segments":[],"categories_sizes":[],"default_left":[0,0,0,0,0,0,0],"id":87,"left_children":[1,-1,3,-1,5,-1,-1],"loss_changes":[3.3450194E-2,0E0,7.055669E-2,0E0,9.707605E-3,0E0,0E0],"parents":[2147483647,0,0,2,2,4,4],"right_children":[2,-1,4,-1,6,-1,-1],"split_conditions":[3.15564E2,2.9955499E-2,4.34E0,-5.0107673E-2,-1.329284E0,-2.6813708E-3,3.1108407E-2],"split_indices":[6,0,5,0,1,0,0],"split_type":[0,0,0,0,0,0,0],"sum_hessian":[4.7080455E0,1.1826437E0,3.5254018E0,1.5176511E0,2.0077507E0,1.0004914E0,1.0072594E0],"tree_param":{"num_deleted":"0","num_feature":"7","num_nodes":"7","size_leaf_vector":"1"}},{"base_weights":[-7.8051926E-5,-5.4027207E-2,2.3445794E-2,2.155818E-2,-6.343079E-2],"categories":[],"categories_nodes":[],"categories_segments":[],"categories_sizes":[],"default_left":[0,0,0,0,0],"id":88,"left_children":[1,3,-1,-1,-1],"loss_changes":[2.8216366E-2,9.358557E-2,0E0,0E0,0E0],"parents":[2147483647,0,0,1,1],"right_children":[2,4,-1,-1,-1],"split_conditions":[3.20321E2,4.29E0,2.3445794E-2,2.155818E-2,-6.343079E-2],"split_indices":[6,5,0,0,0],"split_type":[0,0,0,0,0],"sum_hessian":[4.685135E0,2.9560091E0,1.7291257E0,1.9444284E0,1.0115807E0],"tree_param":{"num_deleted":"0","num_feature":"7","num_nodes":"5","size_leaf_vector":"1"}},{"base_weights":[-3.4056858E-3,-4.553036E-2,2.5343737E-2,-5.1786106E-2,2.9738039E-2],"categories":[],"categories_nodes":[],"categories_segments":[],"categories_sizes":[],"default_left":[0,0,0,0,0],"id":89,"left_children":[1,3,-1,-1,-1],"loss_changes":[2.4776343E-2,9.931744E-2,0E0,0E0,0E0],"parents":[2147483647,0,0,1,1],"right_children":[2,4,-1,-1,-1],"split_conditions":[4.41E0,5.152862E-2,2.5343737E-2,-5.1786106E-2,2.9738039E-2],"split_indices":[5,1,0,0,0],"split_type":[0,0,0,0,0],"sum_hessian":[4.6535134E0,3.4714975E0,1.1820161E0,1.7450552E0,1.7264422E0],"tree_param":{"num_deleted":"0","num_feature":"7","num_nodes":"5","size_leaf_vector":"1"}},{"base_weights":[-1.8299961E-3,3.034213E-2,-5.2425273E-2,1.6085776E-2,-4.635787E-2],"categories":[],"categories_nodes":[],"categories_segments":[],"categories_sizes":[],"default_left":[0,0,0,0,0],"id":90,"left_children":[1,-1,3,-1,-1],"loss_changes":[3.4646593E-2,0E0,5.630845E-2,0E0,0E0],"parents":[2147483647,0,0,2,2],"right_children":[2,-1,4,-1,-1],"split_conditions":[-2.6240861E0,3.034213E-2,4.29E0,1.6085776E-2,-4.635787E-2],"split_indices":[1,0,5,0,0],"split_type":[0,0,0,0,0],"sum_hessian":[4.6324964E0,1.1971246E0,3.4353716E0,1.9180645E0,1.5173072E0],"tree_param":{"num_deleted":"0","num_feature":"7","num_nodes":"5","size_leaf_vector":"1"}},{"base_weights":[-1.2925696E-3,6.061284E-2,-2.5419569E-2,4.9965877E-2,-1.2328541E-2],"categories":[],"categories_nodes":[],"categories_segments":[],"categories_sizes":[],"default_left":[0,0,0,0,0],"id":91,"left_children":[1,3,-1,-1,-1],"loss_changes":[3.4123287E-2,4.7839433E-2,0E0,0E0,0E0],"parents":[2147483647,0,0,1,1],"right_children":[2,4,-1,-1,-1],"split_conditions":[5.0209602E1,7.4811384E-2,-2.5419569E-2,4.9965877E-2,-1.2328541E-2],"split_indices":[0,3,0,0,0],"split_type":[0,0,0,0,0],"sum_hessian":[4.611909E0,2.8046496E0,1.8072594E0,1.0614609E0,1.7431887E0],"tree_param":{"num_deleted":"0","num_feature":"7","num_nodes":"5","size_leaf_vector":"1"}},{"base_weights":[1.3416456E-3,-5.85926E-2,2.601715E-2,1.6294256E-2,-4.1218143E-2],"categories":[],"categories_nodes":[],"categories_segments":[],"categories_sizes":[],"default_left":[0,0,0,0,0],"id":92,"left_children":[1,3,-1,-1,-1],"loss_changes":[3.3695042E-2,4.2002745E-2,0E0,0E0,0E0],"parents":[2147483647,0,0,1,1],"right_children":[2,4,-1,-1,-1],"split_conditions":[3.20321E2,4.18E0,2.601715E-2,1.6294256E-2,-4.1218143E-2],"split_indices":[6,5,0,0,0],"split_type":[0,0,0,0,0],"sum_hessian":[4.591539E0,2.88216E0,1.7093788E0,1.3124372E0,1.5697227E0],"tree_param":{"num_deleted":"0","num_feature":"7","num_nodes":"5","size_leaf_vector":"1"}},{"base_weights":[1.1189216E-3,-2.3857655E-2,6.663934E-2,-1.7651573E-2,5.2156094E-2],"categories":[],"categories_nodes":[],"categories_segments":[],"categories_sizes":[],"default_left":[0,0,0,0,0],"id":93,"left_children":[1,-1,3,-1,-1],"loss_changes":[3.4724154E-2,0E0,5.8883205E-2,0E0,0E0],"parents":[2147483647,0,0,2,2],"right_children":[2,-1,4,-1,-1],"split_conditions":[4.27E0,-2.3857655E-2,4.5885185E1,-1.7651573E-2,5.2156094E-2],"split_indices":[5,0,0,0,0],"split_type":[0,0,0,0,0],"sum_hessian":[4.5687776E0,1.9522005E0,2.616577E0,1.4134989E0,1.203078E0],"tree_param":{"num_deleted":"0","num_feature":"7","num_nodes":"5","size_leaf_vector":"1"}},{"base_weights":[2.7718646E-3,2.6684927E-2,-5.4636553E-2,1.9864034E-2,-4.0824752E-2],"categories":[],"categories_nodes":[],"categories_segments":[],"categories_sizes":[],"default_left":[0,0,0,0,0],"id":94,"left_children":[1,-1,3,-1,-1],"loss_changes":[3.232637E-2,0E0,4.7904644E-2,0E0,0E0],"parents":[2147483647,0,0,2,2],"right_children":[2,-1,4,-1,-1],"split_conditions":[4.4037937E1,2.6684927E-2,6.4678E-2,1.9864034E-2,-4.0824752E-2],"split_indices":[0,0,3,0,0],"split_type":[0,0,0,0,0],"sum_hessian":[4.5517683E0,1.6002116E0,2.9515567E0,1.2636181E0,1.6879385E0],"tree_param":{"num_deleted":"0","num_feature":"7","num_nodes":"5","size_leaf_vector":"1"}},{"base_weights":[2.9698107E-3,4.5427416E-2,-2.726158E-2,-1.8014759E-2,4.8506323E-2],"categories":[],"categories_nodes":[],"categories_segments":[],"categories_sizes":[],"default_left":[0,0,0,0,0],"id":95,"left_children":[1,3,-1,-1,-1],"loss_changes":[2.6160594E-2,6.457259E-2,0E0,0E0,0E0],"parents":[2147483647,0,0,1,1],"right_children":[2,4,-1,-1,-1],"split_conditions":[1.3904575E0,-8.234793E-1,-2.726158E-2,-1.8014759E-2,4.8506323E-2],"split_indices":[1,1,0,0,0],"split_type":[0,0,0,0,0],"sum_hessian":[4.5298395E0,3.4739883E0,1.055851E0,2.0749729E0,1.3990153E0],"tree_param":{"num_deleted":"0","num_feature":"7","num_nodes":"5","size_leaf_vector":"1"}},{"base_weights":[2.7387403E-3,6.3221924E-2,-2.0364141E-2,-1.3320462E-2,4.3514207E-2],"categories":[],"categories_nodes":[],"categories_segments":[],"categories_sizes":[],"default_left":[0,0,0,0,0],"id":96,"left_children":[1,3,-1,-1,-1],"loss_changes":[2.7821114E-2,3.7131444E-2,0E0,0E0,0E0],"parents":[2147483647,0,0,1,1],"right_children":[2,4,-1,-1,-1],"split_conditions":[4.884193E1,4.337151E1,-2.0364141E-2,-1.3320462E-2,4.3514207E-2],"split_indices":[0,0,0,0,0],"split_type":[0,0,0,0,0],"sum_hessian":[4.508796E0,2.485118E0,2.0236783E0,1.2708954E0,1.2142224E0],"tree_param":{"num_deleted":"0","num_feature":"7","num_nodes":"5","size_leaf_vector":"1"}},{"base_weights":[3.7502793E-3,2.314316E-2,-4.5665573E-2,1.7578369E-2,-3.4847938E-2],"categories":[],"categories_nodes":[],"categories_segments":[],"categories_sizes":[],"default_left":[0,0,0,0,0],"id":97,"left_children":[1,-1,3,-1,-1],"loss_changes":[2.3456423E-2,0E0,3.5564378E-2,0E0,0E0],"parents":[2147483647,0,0,2,2],"right_children":[2,-1,4,-1,-1],"split_conditions":[4.4037937E1,2.314316E-2,6.4678E-2,1.7578369E-2,-3.4847938E-2],"split_indices":[0,0,3,0,0],"split_type":[0,0,0,0,0],"sum_hessian":[4.4961863E0,1.5833871E0,2.9127991E0,1.2430886E0,1.6697106E0],"tree_param":{"num_deleted":"0","num_feature":"7","num_nodes":"5","size_leaf_vector":"1"}},{"base_weights":[3.698937E-3,2.930199E-2,-4.2899117E-2,-4.283476E-2,2.20716E-2],"categories":[],"categories_nodes":[],"categories_segments":[],"categories_sizes":[],"default_left":[0,0,0,0,0],"id":98,"left_children":[1,-1,3,-1,-1],"loss_changes":[2.8184189E-2,0E0,6.1201647E-2,0E0,0E0],"parents":[2147483647,0,0,2,2],"right_children":[2,-1,4,-1,-1],"split_conditions":[3.15564E2,2.930199E-2,3.20321E2,-4.283476E-2,2.20716E-2],"split_indices":[6,0,6,0,0],"split_type":[0,0,0,0,0],"sum_hessian":[4.4793267E0,1.1215049E0,3.3578215E0,1.686019E0,1.6718026E0],"tree_param":{"num_deleted":"0","num_feature":"7","num_nodes":"5","size_leaf_vector":"1"}},{"base_weights":[4.146032E-3,-2.0953085E-2,6.5773286E-2,5.258691E-2,-1.9521646E-2],"categories":[],"categories_nodes":[],"categories_segments":[],"categories_sizes":[],"default_left":[0,0,0,0,0],"id":99,"left_children":[1,-1,3,-1,-1],"loss_changes":[2.946514E-2,0E0,6.1429556E-2,0E0,0E0],"parents":[2147483647,0,0,2,2],"right_children":[2,-1,4,-1,-1],"split_conditions":[4.5927586E1,-2.0953085E-2,5.3629303E1,5.258691E-2,-1.9521646E-2],"split_indices":[0,0,0,0,0],"split_type":[0,0,0,0,0],"sum_hessian":[4.4544964E0,1.9636345E0,2.490862E0,1.1710413E0,1.3198206E0],"tree_param":{"num_deleted":"0","num_feature":"7","num_nodes":"5","size_leaf_vector":"1"}}]},"name":"gbtree"},"learner_model_param":{"base_score":"5E-1","boost_from_average":"1","num_class":"0","num_feature":"7","num_target":"1"},"objective":{"name":"binary:logistic","reg_loss_param":{"scale_pos_weight":"2.25714278"}}},"version":[2,0,3]}