{"learner":{"attributes":{"scikit_learn":"{\"_estimator_type\": \"classifier\"}"},"feature_names":["RSI_14","MACD_12_26_9","roe","roa","avg_sentiment"],"feature_types":["float","float","float","float","float"],"gradient_booster":{"model":{"gbtree_model_param":{"num_parallel_tree":"1","num_trees":"100"},"iteration_indptr":[0,1,2,3,4,5,6,7,8,9,10,11,12,13,14,15,16,17,18,19,20,21,22,23,24,25,26,27,28,29,30,31,32,33,34,35,36,37,38,39,40,41,42,43,44,45,46,47,48,49,50,51,52,53,54,55,56,57,58,59,60,61,62,63,64,65,66,67,68,69,70,71,72,73,74,75,76,77,78,79,80,81,82,83,84,85,86,87,88,89,90,91,92,93,94,95,96,97,98,99,100],"tree_info":[0,0,0,0,0,0,0,0,0,0,0,0,0,0,0,0,0,0,0,0,0,0,0,0,0,0,0,0,0,0,0,0,0,0,0,0,0,0,0,0,0,0,0,0,0,0,0,0,0,0,0,0,0,0,0,0,0,0,0,0,0,0,0,0,0,0,0,0,0,0,0,0,0,0,0,0,0,0,0,0,0,0,0,0,0,0,0,0,0,0,0,0,0,0,0,0,0,0,0,0],"trees":[{"base_weights":[-2.001988E-8,-3.731175E-1,1.6333475E0,3.093601E-1,-1.6558143E0,1.8675916E0,-2.3067358E-1,7.542782E-1,3.0686747E-2,-7.1636736E-1,-5.639982E-1,5.722591E-1,1.5630998E-1,1.4102547E0,-5.04E-1,-7.2740376E-1,5.548344E-1,-4.8000002E-1,3.455108E-1,1.5031241E0,8.58902E-2,1.248496E-1,-5.294118E-1,-2.4142759E-1,7.7678853E-1,8.392702E-1,-1.5338346E-1,4.7266087E-1,7.332457E-2,2.9656067E-1,-3.0935907E-1,3.2241505E-1,-6.2948965E-2,3.2320446E-1,7.332457E-2],"categories":[],"categories_nodes":[],"categories_segments":[],"categories_sizes":[],"default_left":[0,0,0,0,0,0,0,0,0,0,0,0,0,0,0,0,0,0,0,0,0,0,0,0,0,0,0,0,0,0,0,0,0,0,0],"id":0,"left_children":[1,3,5,7,9,11,-1,13,15,17,-1,-1,-1,19,-1,21,23,-1,25,27,-1,29,-1,-1,31,33,-1,-1,-1,-1,-1,-1,-1,-1,-1],"loss_changes":[8.044484E1,9.4578384E1,1.524865E1,8.777317E0,6.545555E0,2.24617E-1,0E0,4.595215E1,1.8159481E1,8.843098E0,0E0,0E0,0E0,1.8705673E0,0E0,1.6751156E1,8.768777E0,0E0,2.4746747E0,1.4492912E0,0E0,1.22012415E1,0E0,0E0,7.1942987E0,2.2472405E-1,0E0,0E0,0E0,0E0,0E0,0E0,0E0,0E0,0E0],"parents":[2147483647,0,0,1,1,2,2,3,3,4,4,5,5,7,7,8,8,9,9,13,13,15,15,16,16,18,18,19,19,21,21,24,24,25,25],"right_children":[2,4,6,8,10,12,-1,14,16,18,-1,-1,-1,20,-1,22,24,-1,26,28,-1,30,-1,-1,32,34,-1,-1,-1,-1,-1,-1,-1,-1,-1],"split_conditions":[7.649962E-2,5.6676598E1,6.6280084E0,-1.673185E0,1.3904568E0,7.302656E1,-2.3067358E-1,2.4898632E-1,2.4898632E-1,2.4898632E-1,-5.639982E-1,5.722591E-1,1.5630998E-1,-1.8205912E0,-5.04E-1,1.4245018E-1,-8.5639507E-1,-4.8000002E-1,6.0442993E1,4.733428E1,8.58902E-2,-3.9880297E-1,-5.294118E-1,-2.4142759E-1,1.8075461E0,5.7815643E1,-1.5338346E-1,4.7266087E-1,7.332457E-2,2.9656067E-1,-3.0935907E-1,3.2241505E-1,-6.2948965E-2,3.2320446E-1,7.332457E-2],"split_indices":[3,0,1,1,1,0,0,2,2,2,0,0,0,1,0,2,1,0,0,0,0,1,0,0,1,0,0,0,0,0,0,0,0,0,0],"split_type":[0,0,0,0,0,0,0,0,0,0,0,0,0,0,0,0,0,0,0,0,0,0,0,0,0,0,0,0,0,0,0,0,0,0,0],"sum_hessian":[1.3E2,1.0645359E2,2.3546406E1,6.997904E1,3.6474552E1,2.1657185E1,1.8892215E0,2.6293413E1,4.3685627E1,7.835329E0,2.8639221E1,2.0628742E1,1.0284431E0,2.1043413E1,5.25E0,1.7699102E1,2.5986526E1,4E0,3.8353293E0,1.9125748E1,1.9176646E0,1.0199101E1,7.5E0,3.278443E0,2.2708084E1,2.4461079E0,1.3892215E0,1.7847305E1,1.2784431E0,5.9206586E0,4.2784433E0,1.7372755E1,5.335329E0,1.1676646E0,1.2784431E0],"tree_param":{"num_deleted":"0","num_feature":"5","num_nodes":"35","size_leaf_vector":"1"}},{"base_weights":[-6.282328E-3,-2.892691E-1,1.2600446E0,3.155294E-1,-1.1561384E0,1.4338019E0,-2.9723462E-1,8.163755E-1,8.2093805E-2,-4.6951073E-1,-4.586965E-1,4.502091E-1,6.0012255E-2,-6.430035E-1,1.1281859E0,-2.1684234E-1,6.603807E-1,-3.885804E-1,1.814115E-1,2.1156868E-2,-2.9266617E-1,1.4827896E0,-1.1981962E-2,5.518527E-1,-6.702356E-1,-2.4448764E-1,1.0268332E0,5.8283067E-1,-7.35523E-1,1.5086949E-1,4.667772E-1,2.3377505E-1,-2.1512806E-1,4.3071005E-1,-3.689741E-1,-2.6454556E-1,3.117987E-1,1.741171E-1,-2.1260361E-1,4.2413124E-1,1.5459716E-1,-2.1260121E-1,3.151198E-1,-3.0419037E-1,-1.3960238E-2],"categories":[],"categories_nodes":[],"categories_segments":[],"categories_sizes":[],"default_left":[0,0,0,0,0,0,0,0,0,0,0,0,0,0,0,0,0,0,0,0,0,0,0,0,0,0,0,0,0,0,0,0,0,0,0,0,0,0,0,0,0,0,0,0,0],"id":1,"left_children":[1,3,5,7,9,11,-1,13,15,17,-1,-1,-1,19,21,23,25,-1,27,-1,-1,29,31,33,35,37,39,41,43,-1,-1,-1,-1,-1,-1,-1,-1,-1,-1,-1,-1,-1,-1,-1,-1],"loss_changes":[4.4954884E1,5.4112415E1,1.0382366E1,7.084917E0,1.0122787E1,1.4891853E0,0E0,9.523983E0,7.5483932E0,9.020523E0,0E0,0E0,0E0,1.0276322E0,6.6057644E0,1.0474098E1,5.173468E0,0E0,4.1158047E0,0E0,0E0,1.0880661E-1,3.2688391E0,1.956795E1,7.6760044E0,2.358993E0,1.4007359E0,5.2885313E0,6.2278044E-1,0E0,0E0,0E0,0E0,0E0,0E0,0E0,0E0,0E0,0E0,0E0,0E0,0E0,0E0,0E0,0E0],"parents":[2147483647,0,0,1,1,2,2,3,3,4,4,5,5,7,7,8,8,9,9,13,13,14,14,15,15,16,16,18,18,21,21,22,22,23,23,24,24,25,25,26,26,27,27,28,28],"right_children":[2,4,6,8,10,12,-1,14,16,18,-1,-1,-1,20,22,24,26,-1,28,-1,-1,30,32,34,36,38,40,42,44,-1,-1,-1,-1,-1,-1,-1,-1,-1,-1,-1,-1,-1,-1,-1,-1],"split_conditions":[7.649962E-2,5.3257317E1,7.3300967E0,1.4245018E-1,1.8850584E0,7.302656E1,-2.9723462E-1,3.3210033E1,2.7745146E-1,2.4898632E-1,-4.586965E-1,4.502091E-1,6.0012255E-2,3.0018864E1,4.5769054E1,-2.4012074E0,4.624302E1,-3.885804E-1,6.0633526E1,2.1156868E-2,-2.9266617E-1,3.704055E1,-1.620307E0,2.4898632E-1,5.1632923E1,4.5883894E-1,1.5139375E0,3.7211385E-2,1.5139375E0,1.5086949E-1,4.667772E-1,2.3377505E-1,-2.1512806E-1,4.3071005E-1,-3.689741E-1,-2.6454556E-1,3.117987E-1,1.741171E-1,-2.1260361E-1,4.2413124E-1,1.5459716E-1,-2.1260121E-1,3.151198E-1,-3.0419037E-1,-1.3960238E-2],"split_indices":[3,0,1,2,1,0,0,0,1,2,0,0,0,0,0,1,0,0,0,0,0,0,1,2,0,1,1,1,1,0,0,0,0,0,0,0,0,0,0,0,0,0,0,0,0],"split_type":[0,0,0,0,0,0,0,0,0,0,0,0,0,0,0,0,0,0,0,0,0,0,0,0,0,0,0,0,0,0,0,0,0,0,0,0,0,0,0,0,0,0,0,0,0],"sum_hessian":[1.2343121E2,1.0151678E2,2.191444E1,6.0171947E1,4.134483E1,2.0680922E1,1.2335182E0,1.8335382E1,4.1836567E1,1.5345092E1,2.5999737E1,1.9412031E1,1.2688903E0,3.0408766E0,1.5294505E1,2.7991722E1,1.3844845E1,6.3277893E0,9.0173025E0,1.2171881E0,1.8236886E0,1.1436985E1,3.85752E0,1.0304328E1,1.7687395E1,4.0866485E0,9.758196E0,6.525092E0,2.4922104E0,1.3413427E0,1.0095642E1,1.7682056E0,2.0893145E0,7.0175095E0,3.2868183E0,1.6170279E1,1.5171168E0,1.3814516E0,2.705197E0,4.5513506E0,5.2068458E0,1.5973363E0,4.927756E0,1.4389884E0,1.0532218E0],"tree_param":{"num_deleted":"0","num_feature":"5","num_nodes":"45","size_leaf_vector":"1"}},{"base_weights":[-2.447854E-3,-2.2782058E-1,1.0591285E0,2.6159325E-1,-9.695025E-1,1.2243817E0,-2.568336E-1,6.5244794E-1,8.1135854E-2,-3.0970004E-1,-3.8135937E-1,3.8745284E-1,5.00514E-2,-5.111471E-1,9.279846E-1,-1.5685149E-1,5.2590656E-1,-3.1005663E-1,3.2009396E-1,1.7711004E-2,-2.3204073E-1,1.2391989E0,-4.5937886E-3,4.5306593E-1,-4.884731E-1,-1.7990378E-1,8.2157916E-1,-1.736238E-1,6.467998E-1,1.2833895E-1,3.9058283E-1,1.9497319E-1,-1.7645417E-1,3.653859E-1,-3.1652442E-1,-1.9813108E-1,2.686258E-1,1.4725555E-1,-1.664036E-1,3.550824E-1,1.1684325E-1,3.1001756E-1,-1.2620535E-1],"categories":[],"categories_nodes":[],"categories_segments":[],"categories_sizes":[],"default_left":[0,0,0,0,0,0,0,0,0,0,0,0,0,0,0,0,0,0,0,0,0,0,0,0,0,0,0,0,0,0,0,0,0,0,0,0,0,0,0,0,0,0,0],"id":2,"left_children":[1,3,5,7,9,11,-1,13,15,17,-1,-1,-1,19,21,23,25,-1,27,-1,-1,29,31,33,35,37,39,-1,41,-1,-1,-1,-1,-1,-1,-1,-1,-1,-1,-1,-1,-1,-1],"loss_changes":[2.7146177E1,3.4223843E1,7.337158E0,3.979286E0,7.0543976E0,1.1123028E0,0E0,6.218251E0,4.34324E0,6.2854757E0,0E0,0E0,0E0,6.551548E-1,4.3128767E0,5.680809E0,3.1238225E0,0E0,2.6497169E0,0E0,0E0,9.710312E-3,2.1811464E0,1.2850428E1,4.86701E0,1.5368626E0,1.1393194E0,0E0,2.9748294E0,0E0,0E0,0E0,0E0,0E0,0E0,0E0,0E0,0E0,0E0,0E0,0E0,0E0,0E0],"parents":[2147483647,0,0,1,1,2,2,3,3,4,4,5,5,7,7,8,8,9,9,13,13,14,14,15,15,16,16,18,18,21,21,22,22,23,23,24,24,25,25,26,26,28,28],"right_children":[2,4,6,8,10,12,-1,14,16,18,-1,-1,-1,20,22,24,26,-1,28,-1,-1,30,32,34,36,38,40,-1,42,-1,-1,-1,-1,-1,-1,-1,-1,-1,-1,-1,-1,-1,-1],"split_conditions":[7.649962E-2,5.3257317E1,7.3300967E0,1.4245018E-1,1.3904568E0,7.302656E1,-2.568336E-1,3.3210033E1,2.7745146E-1,2.4898632E-1,-3.8135937E-1,3.8745284E-1,5.00514E-2,3.0018864E1,4.5769054E1,-2.4012074E0,4.624302E1,-3.1005663E-1,3.7211385E-2,1.7711004E-2,-2.3204073E-1,3.704055E1,-1.620307E0,2.4898632E-1,5.1632923E1,4.5883894E-1,1.5139375E0,-1.736238E-1,6.0442993E1,1.2833895E-1,3.9058283E-1,1.9497319E-1,-1.7645417E-1,3.653859E-1,-3.1652442E-1,-1.9813108E-1,2.686258E-1,1.4725555E-1,-1.664036E-1,3.550824E-1,1.1684325E-1,3.1001756E-1,-1.2620535E-1],"split_indices":[3,0,1,2,1,0,0,0,1,2,0,0,0,0,0,1,0,0,1,0,0,0,1,2,0,1,1,0,0,0,0,0,0,0,0,0,0,0,0,0,0,0,0],"split_type":[0,0,0,0,0,0,0,0,0,0,0,0,0,0,0,0,0,0,0,0,0,0,0,0,0,0,0,0,0,0,0,0,0,0,0,0,0,0,0,0,0,0,0],"sum_hessian":[1.11454956E2,9.258463E1,1.8870329E1,5.61682E1,3.6416428E1,1.7703527E1,1.1668013E0,1.691541E1,3.9252792E1,1.2062493E1,2.4353935E1,1.6438833E1,1.2646933E0,3.074913E0,1.3840495E1,2.599224E1,1.3260552E1,5.3140316E0,6.7484617E0,1.2130877E0,1.8618252E0,1.0130889E1,3.7096062E0,9.025802E0,1.696644E1,4.0305734E0,9.229979E0,1.5933486E0,5.155113E0,1.288332E0,8.842558E0,1.694991E0,2.0146153E0,6.1162443E0,2.9095578E0,1.5556182E1,1.4102577E0,1.3337543E0,2.6968188E0,4.0758834E0,5.1540956E0,3.807981E0,1.3471321E0],"tree_param":{"num_deleted":"0","num_feature":"5","num_nodes":"43","size_leaf_vector":"1"}},{"base_weights":[3.7362624E-3,-1.8120968E-1,9.2724466E-1,1.4078139E-1,-1.0414636E0,1.1299101E0,-1.6646E-1,2.4089909E-1,-4.9667865E-1,-3.634288E-1,-3.4019947E-1,3.548776E-1,8.832462E-2,-2.8557035E-1,3.4578624E-1,4.2215267E-1,-3.6120924E-1,-2.3149124E-1,3.789054E-2,2.0687594E-1,-7.199331E-1,7.28334E-1,1.9243318E-1,-8.8868715E-2,3.2955685E-1,2.884476E-2,-2.9224363E-1,2.661731E-1,-7.048129E-2,-3.0271143E-3,2.2043777E-1],"categories":[],"categories_nodes":[],"categories_segments":[],"categories_sizes":[],"default_left":[0,0,0,0,0,0,0,0,0,0,0,0,0,0,0,0,0,0,0,0,0,0,0,0,0,0,0,0,0,0,0],"id":3,"left_children":[1,3,5,7,9,11,-1,13,15,17,-1,-1,-1,19,21,23,-1,-1,-1,-1,25,27,29,-1,-1,-1,-1,-1,-1,-1,-1],"loss_changes":[1.710214E1,2.3259087E1,5.6449995E0,4.050756E0,1.0211735E0,3.1728172E-1,0E0,3.0755546E0,6.1546326E0,9.400773E-1,0E0,0E0,0E0,4.5218515E0,2.523511E0,2.521294E0,0E0,0E0,0E0,0E0,1.5591626E0,2.1423602E0,3.716825E0,0E0,0E0,0E0,0E0,0E0,0E0,0E0,0E0],"parents":[2147483647,0,0,1,1,2,2,3,3,4,4,5,5,7,7,8,8,9,9,13,13,14,14,15,15,20,20,21,21,22,22],"right_children":[2,4,6,8,10,12,-1,14,16,18,-1,-1,-1,20,22,24,-1,-1,-1,-1,26,28,30,-1,-1,-1,-1,-1,-1,-1,-1],"split_conditions":[7.649962E-2,5.7815643E1,6.6280084E0,1.8075461E0,5.811752E-1,5.3607316E0,-1.6646E-1,3.5425392E1,4.9545795E1,2.4898632E-1,-3.4019947E-1,3.548776E-1,8.832462E-2,2.956679E1,4.04553E1,4.8321854E1,-3.6120924E-1,-2.3149124E-1,3.789054E-2,2.0687594E-1,-3.8008611E0,-2.4401529E-1,7.4714684E-1,-8.8868715E-2,3.2955685E-1,2.884476E-2,-2.9224363E-1,2.661731E-1,-7.048129E-2,-3.0271143E-3,2.2043777E-1],"split_indices":[3,0,1,1,1,1,0,0,0,2,0,0,0,0,0,0,0,0,0,0,1,1,1,0,0,0,0,0,0,0,0],"split_type":[0,0,0,0,0,0,0,0,0,0,0,0,0,0,0,0,0,0,0,0,0,0,0,0,0,0,0,0,0,0,0],"sum_hessian":[9.814638E1,8.244029E1,1.5706083E1,6.0595783E1,2.1844513E1,1.4025814E1,1.680269E0,5.2908257E1,7.6875277E0,3.21494E0,1.8629572E1,1.2797902E1,1.2279116E0,8.503457E0,4.4404797E1,3.519276E0,4.168252E0,1.43946E0,1.77548E0,2.4393852E0,6.0640717E0,1.1633927E1,3.277087E1,1.9791868E0,1.5400891E0,1.5879971E0,4.4760747E0,1.0054224E1,1.5797042E0,2.4575483E1,8.195388E0],"tree_param":{"num_deleted":"0","num_feature":"5","num_nodes":"31","size_leaf_vector":"1"}},{"base_weights":[1.0347416E-3,-1.48504E-1,8.2567376E-1,1.0693101E-1,-9.3318576E-1,9.964389E-1,-2.0846064E-1,1.9574405E-1,-3.7184355E-1,-3.1927645E-1,-3.0871224E-1,3.273283E-1,9.809356E-3,1.1964341E-1,2.6660383E-1,2.7659562E-1,-8.762488E-1,-2.0821097E-1,3.0729579E-2,5.006426E-1,-9.017412E-2,-2.6210693E-1,2.8117558E-1,-1.695213E-2,-3.193783E-1,2.0605889E-1,-1.648415E-1,8.6681746E-2,-6.5992504E-2,-2.169103E-1,9.677313E-2],"categories":[],"categories_nodes":[],"categories_segments":[],"categories_sizes":[],"default_left":[0,0,0,0,0,0,0,0,0,0,0,0,0,0,0,0,0,0,0,0,0,0,0,0,0,0,0,0,0,0,0],"id":4,"left_children":[1,3,5,7,9,11,-1,13,15,17,-1,-1,-1,19,-1,21,23,-1,-1,25,27,29,-1,-1,-1,-1,-1,-1,-1,-1,-1],"loss_changes":[1.1265477E1,1.560096E1,4.3335514E0,2.5918396E0,7.951584E-1,1.1518679E0,0E0,2.5633926E0,3.3871162E0,7.0779026E-1,0E0,0E0,0E0,3.7841887E0,0E0,2.0133379E0,8.1185055E-1,0E0,0E0,3.6554933E0,1.5895271E0,1.18116E0,0E0,0E0,0E0,0E0,0E0,0E0,0E0,0E0,0E0],"parents":[2147483647,0,0,1,1,2,2,3,3,4,4,5,5,7,7,8,8,9,9,13,13,15,15,16,16,19,19,20,20,21,21],"right_children":[2,4,6,8,10,12,-1,14,16,18,-1,-1,-1,20,-1,22,24,-1,-1,26,28,30,-1,-1,-1,-1,-1,-1,-1,-1,-1],"split_conditions":[7.649962E-2,5.7815643E1,7.3300967E0,1.5139375E0,5.811752E-1,7.302656E1,-2.0846064E-1,1.0312856E0,4.9545795E1,2.4898632E-1,-3.0871224E-1,3.273283E-1,9.809356E-3,1.4245018E-1,2.6660383E-1,4.8468872E1,1.7962306E0,-2.0821097E-1,3.0729579E-2,4.9873985E1,-2.4012074E0,2.5878801E0,2.8117558E-1,-1.695213E-2,-3.193783E-1,2.0605889E-1,-1.648415E-1,8.6681746E-2,-6.5992504E-2,-2.169103E-1,9.677313E-2],"split_indices":[3,0,1,1,1,0,0,1,0,2,0,0,0,2,0,0,1,0,0,0,1,1,0,0,0,0,0,0,0,0,0],"split_type":[0,0,0,0,0,0,0,0,0,0,0,0,0,0,0,0,0,0,0,0,0,0,0,0,0,0,0,0,0,0,0],"sum_hessian":[8.9360596E1,7.633758E1,1.3023019E1,5.8241974E1,1.80956E1,1.2018013E1,1.0050058E0,4.962724E1,8.614734E0,3.0287325E0,1.5066869E1,1.0822883E1,1.1951307E0,4.5772953E1,3.8542876E0,3.96682E0,4.647914E0,1.2617117E0,1.7670207E0,1.5763167E1,3.0009785E1,2.51739E0,1.44943E0,1.1112791E0,3.536635E0,1.3682687E1,2.080481E0,7.341431E0,2.2668354E1,1.2753567E0,1.2420335E0],"tree_param":{"num_deleted":"0","num_feature":"5","num_nodes":"31","size_leaf_vector":"1"}},{"base_weights":[-2.0679627E-3,-1.2234652E-1,7.390716E-1,8.222375E-2,-8.4195536E-1,3.0969796E-1,-2.4654895E-1,-3.2826877E-1,1.5628949E-1,-4.0115634E-1,-3.068051E-1,1.0800489E-1,-2.564687E-1,1.5592724E-1,-6.728334E-1,5.5822253E-1,3.1324986E-2,-2.2835994E-1,-8.600997E-2,-3.2854053E-1,-1.8679224E-1,2.9606214E-1,2.3118056E-1,1.3026927E-1,-3.071823E-1,5.6910176E-2,-2.4545276E-1,1.9264452E-1,-2.608204E-1,-1.1631584E-1,1.4005177E-1,-6.2150862E-2,1.232905E-1,7.038027E-2,-2.2987597E-1,-1.4999543E-1,4.7043387E-2],"categories":[],"categories_nodes":[],"categories_segments":[],"categories_sizes":[],"default_left":[0,0,0,0,0,0,0,0,0,0,0,0,0,0,0,0,0,0,0,0,0,0,0,0,0,0,0,0,0,0,0,0,0,0,0,0,0],"id":5,"left_children":[1,3,5,7,9,-1,11,13,15,17,-1,-1,-1,-1,19,21,23,-1,25,-1,27,-1,29,31,33,-1,35,-1,-1,-1,-1,-1,-1,-1,-1,-1,-1],"loss_changes":[7.433255E0,1.0628321E1,3.6199045E0,1.7770536E0,8.6168575E-1,0E0,1.5908425E0,2.9791217E0,2.4317489E0,6.4801633E-1,0E0,0E0,0E0,0E0,1.198278E0,1.3847997E0,1.3213816E0,0E0,2.4352543E-1,0E0,3.0384517E0,0E0,1.3233333E0,2.9557176E0,2.4060168E0,0E0,4.137024E-1,0E0,0E0,0E0,0E0,0E0,0E0,0E0,0E0,0E0,0E0],"parents":[2147483647,0,0,1,1,2,2,3,3,4,4,6,6,7,7,8,8,9,9,14,14,15,15,16,16,18,18,20,20,22,22,23,23,24,24,26,26],"right_children":[2,4,6,8,10,-1,12,14,16,18,-1,-1,-1,-1,20,22,24,-1,26,-1,28,-1,30,32,34,-1,36,-1,-1,-1,-1,-1,-1,-1,-1,-1,-1],"split_conditions":[7.649962E-2,5.7815643E1,5.3607316E0,3.5425392E1,1.8850584E0,3.0969796E-1,6.832294E1,2.956679E1,4.04553E1,2.4898632E-1,-3.068051E-1,1.0800489E-1,-2.564687E-1,1.5592724E-1,4.7335103E-2,-1.9122308E0,1.5139375E0,-2.2835994E-1,5.4890394E-1,-3.2854053E-1,2.4898632E-1,2.9606214E-1,3.7423313E1,-7.8272355E-1,4.9545795E1,5.6910176E-2,1.4071615E0,1.9264452E-1,-2.608204E-1,-1.1631584E-1,1.4005177E-1,-6.2150862E-2,1.232905E-1,7.038027E-2,-2.2987597E-1,-1.4999543E-1,4.7043387E-2],"split_indices":[3,0,1,0,1,0,0,0,0,2,0,0,0,0,3,1,1,0,1,0,2,0,0,1,0,0,1,0,0,0,0,0,0,0,0,0,0],"split_type":[0,0,0,0,0,0,0,0,0,0,0,0,0,0,0,0,0,0,0,0,0,0,0,0,0,0,0,0,0,0,0,0,0,0,0,0,0],"sum_hessian":[8.137121E1,7.0727806E1,1.0643401E1,5.576164E1,1.4966169E1,8.166276E0,2.4771252E0,7.998676E0,4.7762962E1,5.288092E0,9.678078E0,1.4447807E0,1.0323445E0,2.1640847E0,5.834591E0,1.0505679E1,3.7257282E1,1.8075948E0,3.4804971E0,2.4514499E0,3.383141E0,3.673404E0,6.8322754E0,2.9306328E1,7.950954E0,1.2057414E0,2.2747557E0,1.554579E0,1.828562E0,1.706172E0,5.1261034E0,1.3427083E1,1.5879246E1,3.8712149E0,4.0797386E0,1.2444224E0,1.0303333E0],"tree_param":{"num_deleted":"0","num_feature":"5","num_nodes":"37","size_leaf_vector":"1"}},{"base_weights":[-7.875495E-3,-1.0456845E-1,6.594612E-1,6.0237486E-2,-7.623152E-1,2.907786E-1,-2.2567867E-1,2.898222E-1,-3.593077E-2,-3.446348E-1,-2.900172E-1,7.155778E-2,-1.8146515E-1,5.505484E-1,-6.5632707E-1,-2.8497198E-1,2.1581103E-1,-2.0795031E-1,-7.0935525E-2,-3.4683472E-1,8.2045E-1,-2.6808518E-1,-1.956236E-2,2.8640395E-1,-6.231427E-1,-5.6379426E-1,3.6791793E-1,4.7676306E-2,-2.0346637E-1,2.6712995E-3,-1.467069E-1,1.1157713E-2,2.8417325E-1,2.528614E-1,-2.6341432E-1,-3.506078E-1,-5.6534186E-2,2.6400331E-3,-2.4812682E-1,-2.6502237E-1,1.6965695E-1,-1.2661107E-1,3.9143354E-2],"categories":[],"categories_nodes":[],"categories_segments":[],"categories_sizes":[],"default_left":[0,0,0,0,0,0,0,0,0,0,0,0,0,0,0,0,0,0,0,0,0,0,0,0,0,0,0,0,0,0,0,0,0,0,0,0,0,0,0,0,0,0,0],"id":6,"left_children":[1,3,5,7,9,-1,11,13,15,17,-1,-1,-1,19,21,23,25,-1,27,29,31,-1,-1,33,35,37,39,-1,41,-1,-1,-1,-1,-1,-1,-1,-1,-1,-1,-1,-1,-1,-1],"loss_changes":[4.9883537E0,7.357838E0,2.9020348E0,1.2217594E0,8.2694435E-1,0E0,7.336383E-1,4.384141E0,2.5415134E0,5.249826E-1,0E0,0E0,0E0,3.5127335E0,4.9986815E-1,4.104038E0,2.6076846E0,0E0,1.6897216E-1,1.9578946E-1,1.0118809E0,0E0,0E0,6.0786147E0,2.8810806E0,5.6499684E-1,4.8371067E0,0E0,2.9473126E-1,0E0,0E0,0E0,0E0,0E0,0E0,0E0,0E0,0E0,0E0,0E0,0E0,0E0,0E0],"parents":[2147483647,0,0,1,1,2,2,3,3,4,4,6,6,7,7,8,8,9,9,13,13,14,14,15,15,16,16,18,18,19,19,20,20,23,23,24,24,25,25,26,26,28,28],"right_children":[2,4,6,8,10,-1,12,14,16,18,-1,-1,-1,20,22,24,26,-1,28,30,32,-1,-1,34,36,38,40,-1,42,-1,-1,-1,-1,-1,-1,-1,-1,-1,-1,-1,-1,-1,-1],"split_conditions":[7.649962E-2,5.7815643E1,5.3607316E0,1.4245018E-1,1.8850584E0,2.907786E-1,6.755051E1,4.9873985E1,4.624302E1,2.4898632E-1,-2.900172E-1,7.155778E-2,-1.8146515E-1,3.3210033E1,5.4367832E1,-1.7661589E0,-1.1641407E0,-2.0795031E-1,5.4890394E-1,-2.9153981E0,-2.7132256E0,-2.6808518E-1,-1.956236E-2,2.4898632E-1,2.4898632E-1,-2.4553664E0,2.4898632E-1,4.7676306E-2,1.4071615E0,2.6712995E-3,-1.467069E-1,1.1157713E-2,2.8417325E-1,2.528614E-1,-2.6341432E-1,-3.506078E-1,-5.6534186E-2,2.6400331E-3,-2.4812682E-1,-2.6502237E-1,1.6965695E-1,-1.2661107E-1,3.9143354E-2],"split_indices":[3,0,1,2,1,0,0,0,0,2,0,0,0,0,0,1,1,0,1,1,1,0,0,2,2,1,2,0,1,0,0,0,0,0,0,0,0,0,0,0,0,0,0],"split_type":[0,0,0,0,0,0,0,0,0,0,0,0,0,0,0,0,0,0,0,0,0,0,0,0,0,0,0,0,0,0,0,0,0,0,0,0,0,0,0,0,0,0,0],"sum_hessian":[7.523806E1,6.645277E1,8.78529E0,5.3864758E1,1.258801E1,6.4372134E0,2.3480766E0,1.53073845E1,3.8557373E1,5.018802E0,7.569207E0,1.2225161E0,1.1255605E0,1.2328258E1,2.9791262E0,1.9316296E1,1.9241077E1,1.5334697E0,3.4853327E0,2.7846541E0,9.543604E0,1.7606282E0,1.218498E0,7.2387404E0,1.2077555E1,2.6993458E0,1.6541733E1,1.2018187E0,2.283514E0,1.0628638E0,1.7217903E0,1.5098692E0,8.033734E0,5.0849247E0,2.1538157E0,4.607071E0,7.4704833E0,1.1547216E0,1.5446243E0,1.7826456E0,1.4759087E1,1.2207344E0,1.0627797E0],"tree_param":{"num_deleted":"0","num_feature":"5","num_nodes":"43","size_leaf_vector":"1"}},{"base_weights":[-2.4909772E-2,-1.0747105E-1,5.860374E-1,6.0571495E-2,-6.279099E-1,8.3367085E-1,-1.2048777E-1,-2.4239321E-1,1.2049384E-1,-2.5098035E-1,-2.8250262E-1,2.6906678E-1,7.500954E-2,4.1382387E-1,-6.437948E-1,4.5924145E-1,1.2609801E-2,-2.9789472E-1,9.7775854E-2,-2.485988E-2,1.9959192E-1,-3.3297363E-1,-5.5132587E-2,2.4745022E-1,2.2292048E-1,2.6740053E-1,-8.535084E-2,4.3252635E-1,-3.690554E-1,1.3688251E-1,-1.9559827E-1,-5.437346E-2,1.6677648E-1,2.7412236E-1,-7.184583E-2,-2.0470093E-1,6.688378E-2,1.6846585E-1,4.47657E-2,-2.0787507E-1,4.632221E-2],"categories":[],"categories_nodes":[],"categories_segments":[],"categories_sizes":[],"default_left":[0,0,0,0,0,0,0,0,0,0,0,0,0,0,0,0,0,0,0,0,0,0,0,0,0,0,0,0,0,0,0,0,0,0,0,0,0,0,0,0,0],"id":7,"left_children":[1,3,5,7,9,11,-1,13,15,17,-1,-1,-1,19,21,23,25,-1,27,-1,-1,-1,29,-1,31,33,35,37,39,-1,-1,-1,-1,-1,-1,-1,-1,-1,-1,-1,-1],"loss_changes":[3.5395505E0,5.422145E0,2.3795693E0,8.906213E-1,1.5511861E0,3.437519E-2,0E0,2.417716E0,1.4663426E0,2.226679E0,0E0,0E0,0E0,5.1835E-1,1.436614E0,6.543498E-1,8.1105E-1,0E0,1.1767259E0,0E0,0E0,0E0,1.3550066E0,0E0,1.0782893E0,3.1713352E0,4.4898477E0,7.1593285E-2,6.5925574E-1,0E0,0E0,0E0,0E0,0E0,0E0,0E0,0E0,0E0,0E0,0E0,0E0],"parents":[2147483647,0,0,1,1,2,2,3,3,4,4,5,5,7,7,8,8,9,9,13,13,14,14,15,15,16,16,18,18,22,22,24,24,25,25,26,26,27,27,28,28],"right_children":[2,4,6,8,10,12,-1,14,16,18,-1,-1,-1,20,22,24,26,-1,28,-1,-1,-1,30,-1,32,34,36,38,40,-1,-1,-1,-1,-1,-1,-1,-1,-1,-1,-1,-1],"split_conditions":[7.649962E-2,5.5552788E1,6.6280084E0,3.5707264E1,1.8850584E0,7.143457E1,-1.2048777E-1,-3.4736156E0,4.04553E1,3.7211385E-2,-2.8250262E-1,2.6906678E-1,7.500954E-2,-4.101517E0,4.7335103E-2,-1.9122308E0,1.4245018E-1,-2.9789472E-1,6.0633526E1,-2.485988E-2,1.9959192E-1,-3.3297363E-1,-1.5903077E0,2.4745022E-1,2.4898632E-1,4.5769054E1,4.624302E1,7.908487E-1,6.262954E1,1.3688251E-1,-1.9559827E-1,-5.437346E-2,1.6677648E-1,2.7412236E-1,-7.184583E-2,-2.0470093E-1,6.688378E-2,1.6846585E-1,4.47657E-2,-2.0787507E-1,4.632221E-2],"split_indices":[3,0,1,0,1,0,0,1,0,1,0,0,0,1,3,1,2,0,0,0,0,0,1,0,2,0,0,1,0,0,0,0,0,0,0,0,0,0,0,0,0],"split_type":[0,0,0,0,0,0,0,0,0,0,0,0,0,0,0,0,0,0,0,0,0,0,0,0,0,0,0,0,0,0,0,0,0,0,0,0,0,0,0,0,0],"sum_hessian":[6.7924034E1,6.056375E1,7.360284E0,4.644947E1,1.411428E1,6.0094666E0,1.3508173E0,7.1672163E0,3.9282253E1,7.2294126E0,6.8848677E0,4.9378877E0,1.0715791E0,2.7084522E0,4.458764E0,8.70196E0,3.0580294E1,1.7208911E0,5.508521E0,1.1357601E0,1.5726923E0,1.9942139E0,2.4645503E0,2.4387927E0,6.263167E0,8.011947E0,2.2568348E1,3.2508907E0,2.2576303E0,1.4541432E0,1.0104071E0,3.035132E0,3.228035E0,3.1687546E0,4.843192E0,7.2725472E0,1.5295799E1,1.5588241E0,1.6920668E0,1.194739E0,1.0628915E0],"tree_param":{"num_deleted":"0","num_feature":"5","num_nodes":"41","size_leaf_vector":"1"}},{"base_weights":[-2.093355E-2,-8.8948056E-2,5.242668E-1,3.911392E-2,-6.483818E-1,2.6088297E-1,-2.1456255E-1,9.1167115E-2,-2.2300701E-1,2.3035736E-1,-2.9657722E-1,5.861766E-2,-1.6085318E-1,5.29623E-1,1.5369665E-2,-2.7851036E-1,1.0948679E-1,-7.210187E-2,2.1263295E-1,2.6830113E-1,-1.0144753E-1,-7.6026365E-2,5.8566624E-1,3.9851472E-1,-3.2391113E-1,1.2950839E-2,-1.5133075E-1,-9.207192E-2,2.730163E-1,1.676209E-1,2.9913599E-2,-1.9398573E-1,5.2515473E-2],"categories":[],"categories_nodes":[],"categories_segments":[],"categories_sizes":[],"default_left":[0,0,0,0,0,0,0,0,0,0,0,0,0,0,0,0,0,0,0,0,0,0,0,0,0,0,0,0,0,0,0,0,0],"id":8,"left_children":[1,3,5,7,9,-1,11,13,15,17,-1,-1,-1,19,21,-1,23,-1,-1,-1,-1,25,27,29,31,-1,-1,-1,-1,-1,-1,-1,-1],"loss_changes":[2.418389E0,4.160646E0,2.0336688E0,6.7406064E-1,3.4590821E0,0E0,5.1454866E-1,1.3439481E0,2.031448E0,1.0323236E0,0E0,0E0,0E0,2.1908317E0,1.906219E0,0E0,9.416517E-1,0E0,0E0,0E0,0E0,1.6389447E0,1.7410005E0,1.5206093E-1,6.199011E-1,0E0,0E0,0E0,0E0,0E0,0E0,0E0,0E0],"parents":[2147483647,0,0,1,1,2,2,3,3,4,4,6,6,7,7,8,8,9,9,13,13,14,14,16,16,21,21,22,22,23,23,24,24],"right_children":[2,4,6,8,10,-1,12,14,16,18,-1,-1,-1,20,22,-1,24,-1,-1,-1,-1,26,28,30,32,-1,-1,-1,-1,-1,-1,-1,-1],"split_conditions":[7.649962E-2,1.8850584E0,5.3607316E0,5.5372166E1,4.9545795E1,2.6088297E-1,6.755051E1,1.1473704E-1,3.7211385E-2,4.8321854E1,-2.9657722E-1,5.861766E-2,-1.6085318E-1,-3.9880297E-1,5.1632923E1,-2.7851036E-1,6.0633526E1,-7.210187E-2,2.1263295E-1,2.6830113E-1,-1.0144753E-1,4.733428E1,-1.6537793E0,5.7815643E1,1.2897862E0,1.2950839E-2,-1.5133075E-1,-9.207192E-2,2.730163E-1,1.676209E-1,2.9913599E-2,-1.9398573E-1,5.2515473E-2],"split_indices":[3,1,1,0,0,0,0,2,1,0,0,0,0,1,0,0,0,0,0,0,0,0,1,0,1,0,0,0,0,0,0,0,0],"split_type":[0,0,0,0,0,0,0,0,0,0,0,0,0,0,0,0,0,0,0,0,0,0,0,0,0,0,0,0,0,0,0,0,0],"sum_hessian":[6.2960587E1,5.6721367E1,6.2392173E0,4.6912537E1,9.808833E0,4.131203E0,2.108014E0,3.9684082E1,7.228455E0,2.8277688E0,6.9810643E0,1.099268E0,1.0087463E0,4.9666705E0,3.471741E1,1.7416145E0,5.4868407E0,1.6762314E0,1.1515373E0,3.4754112E0,1.4912593E0,3.066906E1,4.04835E0,3.3399532E0,2.1468875E0,2.4696905E1,5.9721556E0,1.0934768E0,2.9548733E0,1.6078744E0,1.7320787E0,1.1240032E0,1.0228844E0],"tree_param":{"num_deleted":"0","num_feature":"5","num_nodes":"33","size_leaf_vector":"1"}},{"base_weights":[-1.6497241E-2,-7.136278E-2,4.611438E-1,6.399326E-2,-4.4326183E-1,2.4460554E-1,-1.8705721E-1,3.1527436E-1,-3.0852733E-2,-1.6286518E-1,-2.6017612E-1,-1.6046472E-2,-6.788805E-2,4.8358092E-1,-9.2720404E-2,-2.2172579E-1,2.1820138E-1,-2.4157386E-1,3.8971413E-2,-4.982923E-2,7.384895E-1,2.0673747E-1,-4.5876095E-1,3.2429904E-1,6.1970815E-2,-4.0651068E-1,2.5803313E-1,1.1802061E-1,-1.04539685E-1,2.7220666E-1,1.7505676E-2,2.1112002E-1,-2.3576118E-1,-2.9730573E-1,-3.3082623E-2,-1.7682388E-1,8.964311E-2,1.6383795E-2,-1.9708298E-1,1.12285025E-1,-2.5526011E-2],"categories":[],"categories_nodes":[],"categories_segments":[],"categories_sizes":[],"default_left":[0,0,0,0,0,0,0,0,0,0,0,0,0,0,0,0,0,0,0,0,0,0,0,0,0,0,0,0,0,0,0,0,0,0,0,0,0,0,0,0,0],"id":9,"left_children":[1,3,5,7,9,-1,11,13,15,17,-1,-1,-1,19,-1,21,23,-1,25,27,29,31,33,-1,35,37,39,-1,-1,-1,-1,-1,-1,-1,-1,-1,-1,-1,-1,-1,-1],"loss_changes":[1.6127644E0,2.794005E0,1.6094155E0,9.9055135E-1,1.6166606E0,0E0,3.9095655E-3,1.3438295E0,1.5119646E0,1.3450089E0,0E0,0E0,0E0,1.3071301E0,0E0,1.9154005E0,1.8015454E0,0E0,9.503171E-1,6.609629E-1,6.803689E-1,4.0428524E0,2.089015E0,0E0,2.1504564E0,4.1050017E-1,2.8789216E-1,0E0,0E0,0E0,0E0,0E0,0E0,0E0,0E0,0E0,0E0,0E0,0E0,0E0,0E0],"parents":[2147483647,0,0,1,1,2,2,3,3,4,4,6,6,7,7,8,8,9,9,13,13,15,15,16,16,18,18,19,19,20,20,21,21,22,22,24,24,25,25,26,26],"right_children":[2,4,6,8,10,-1,12,14,16,18,-1,-1,-1,20,-1,22,24,-1,26,28,30,32,34,-1,36,38,40,-1,-1,-1,-1,-1,-1,-1,-1,-1,-1,-1,-1,-1,-1],"split_conditions":[7.649962E-2,5.3257317E1,5.3607316E0,1.4245018E-1,1.8850584E0,2.4460554E-1,6.905121E0,-3.9880297E-1,4.624302E1,-7.8272355E-1,-2.6017612E-1,-1.6046472E-2,-6.788805E-2,3.5403503E1,-9.2720404E-2,-1.7661589E0,4.6462322E1,-2.4157386E-1,2.4898632E-1,-3.179249E0,4.733428E1,2.4898632E-1,2.4898632E-1,3.2429904E-1,-7.8272355E-1,2.1945703E-1,6.0633526E1,1.1802061E-1,-1.04539685E-1,2.7220666E-1,1.7505676E-2,2.1112002E-1,-2.3576118E-1,-2.9730573E-1,-3.3082623E-2,-1.7682388E-1,8.964311E-2,1.6383795E-2,-1.9708298E-1,1.12285025E-1,-2.5526011E-2],"split_indices":[3,0,1,2,1,0,1,1,0,1,0,0,0,0,0,1,0,0,2,1,0,2,2,0,1,1,0,0,0,0,0,0,0,0,0,0,0,0,0,0,0],"split_type":[0,0,0,0,0,0,0,0,0,0,0,0,0,0,0,0,0,0,0,0,0,0,0,0,0,0,0,0,0,0,0,0,0,0,0,0,0,0,0,0,0],"sum_hessian":[5.9285957E1,5.3940525E1,5.3454323E0,4.015403E1,1.3786496E1,3.2898386E0,2.0555937E0,1.0366194E1,2.9787836E1,9.131637E0,4.65486E0,1.0033169E0,1.0522768E0,8.342679E0,2.023515E0,1.6925781E1,1.2862054E1,1.468447E0,7.6631894E0,2.9578137E0,5.3848653E0,6.074098E0,1.0851684E1,1.064428E0,1.17976265E1,2.244039E0,5.4191504E0,1.0629189E0,1.8948948E0,4.0461907E0,1.3386744E0,4.241445E0,1.8326529E0,3.564171E0,7.2875123E0,2.7488258E0,9.0488E0,1.0649908E0,1.1790484E0,3.9799154E0,1.4392347E0],"tree_param":{"num_deleted":"0","num_feature":"5","num_nodes":"41","size_leaf_vector":"1"}},{"base_weights":[-1.9457141E-2,8.092644E-2,-2.2999133E-1,3.8584265E-1,-4.1278016E-2,-7.257867E-1,2.0980532E-4,-2.1348979E-1,5.7557315E-1,-1.7736451E-1,2.1065131E-1,-5.6509748E-2,-2.5471437E-1,9.581049E-2,-1.7731671E-1,-8.5086554E-2,-8.325046E-3,7.4868023E-1,-3.4102898E-2,-2.7179164E-1,1.7487259E-1,5.2537686E-1,-1.9486192E-1,5.4541343E-1,-1.1039485E-1,-2.4496242E-2,2.8200027E-1,-9.4166204E-2,-2.9817048E-1,1.7964417E-1,2.4281701E-1,-4.7279665E-1,9.931937E-2,2.2577365E-1,-1.0051154E-2,1.5871508E-1,-2.2012503E-1,-7.774009E-2,1.5970807E-1,1.3203509E-1,-3.0847339E-2,-2.4002425E-1,-9.045272E-3,-1.3023418E-1,1.1140834E-1],"categories":[],"categories_nodes":[],"categories_segments":[],"categories_sizes":[],"default_left":[0,0,0,0,0,0,0,0,0,0,0,0,0,0,0,0,0,0,0,0,0,0,0,0,0,0,0,0,0,0,0,0,0,0,0,0,0,0,0,0,0,0,0,0,0],"id":10,"left_children":[1,3,5,7,9,11,13,15,17,19,21,-1,-1,23,-1,-1,-1,25,-1,27,-1,29,31,33,35,-1,-1,37,-1,39,-1,41,-1,-1,-1,43,-1,-1,-1,-1,-1,-1,-1,-1,-1],"loss_changes":[1.1907133E0,1.4428338E0,2.07351E0,1.3797288E0,1.005575E0,2.2166109E-1,8.1439304E-1,3.6251202E-2,1.119062E0,1.5137584E0,1.4248095E0,0E0,0E0,1.2098563E0,0E0,0E0,0E0,1.198005E0,0E0,2.1478696E0,0E0,4.5401824E-1,9.2500293E-1,5.13021E-1,1.682078E0,0E0,0E0,1.7017286E0,0E0,3.4238082E-1,0E0,5.338377E-1,0E0,0E0,0E0,1.0866307E0,0E0,0E0,0E0,0E0,0E0,0E0,0E0,0E0,0E0],"parents":[2147483647,0,0,1,1,2,2,3,3,4,4,5,5,6,6,7,7,8,8,9,9,10,10,13,13,17,17,19,19,21,21,22,22,23,23,24,24,27,27,29,29,31,31,35,35],"right_children":[2,4,6,8,10,12,14,16,18,20,22,-1,-1,24,-1,-1,-1,26,-1,28,-1,30,32,34,36,-1,-1,38,-1,40,-1,42,-1,-1,-1,44,-1,-1,-1,-1,-1,-1,-1,-1,-1],"split_conditions":[5.2601345E1,2.0840296E-1,7.30518E-2,3.3210033E1,2.7745146E-1,-6.8551975E-1,7.3300967E0,-2.205464E0,-3.9880297E-1,5.1632923E1,1.5139375E0,-5.6509748E-2,-2.5471437E-1,2.0840296E-1,-1.7731671E-1,-8.5086554E-2,-8.325046E-3,-2.7132256E0,-3.4102898E-2,4.8468872E1,1.7487259E-1,4.624302E1,2.5878801E0,7.1402466E1,1.8850584E0,-2.4496242E-2,2.8200027E-1,4.5305027E1,-2.9817048E-1,4.5883894E-1,2.4281701E-1,4.8468872E1,9.931937E-2,2.2577365E-1,-1.0051154E-2,3.7211385E-2,-2.2012503E-1,-7.774009E-2,1.5970807E-1,1.3203509E-1,-3.0847339E-2,-2.4002425E-1,-9.045272E-3,-1.3023418E-1,1.1140834E-1],"split_indices":[0,2,3,0,1,1,1,1,1,0,1,0,0,2,0,0,0,1,0,0,0,0,1,0,1,0,0,0,0,1,0,0,0,0,0,1,0,0,0,0,0,0,0,0,0],"split_type":[0,0,0,0,0,0,0,0,0,0,0,0,0,0,0,0,0,0,0,0,0,0,0,0,0,0,0,0,0,0,0,0,0,0,0,0,0,0,0,0,0,0,0,0,0],"sum_hessian":[5.4459976E1,3.7293766E1,1.716621E1,1.0052958E1,2.7240808E1,4.760485E0,1.2405725E1,2.3871267E0,7.665831E0,1.787897E1,9.361838E0,1.3598225E0,3.4006627E0,1.1400374E1,1.0053498E0,1.3502932E0,1.0368335E0,6.058097E0,1.6077344E0,1.647523E1,1.4037415E0,5.104537E0,4.2573013E0,3.0673752E0,8.332999E0,1.2418138E0,4.8162827E0,1.4129935E1,2.3452935E0,3.0383892E0,2.066148E0,2.851434E0,1.4058671E0,2.0380745E0,1.0293006E0,6.34093E0,1.9920696E0,1.1649075E1,2.4808607E0,1.2903811E0,1.748008E0,1.175094E0,1.67634E0,1.399057E0,4.9418726E0],"tree_param":{"num_deleted":"0","num_feature":"5","num_nodes":"45","size_leaf_vector":"1"}},{"base_weights":[-1.7958704E-2,6.0156044E-2,-2.6470527E-1,1.16592936E-1,-2.5230104E-1,-4.5521292E-1,2.2216967E-1,-1.4642511E-1,1.9818056E-1,-4.4991696E-1,8.273701E-2,-2.3770519E-1,-2.22626E-1,1.8641733E-1,-5.820718E-2,4.0875152E-1,-4.188453E-1,9.8226376E-2,5.1970935E-1,-1.7042577E-1,-1.3715711E-2,-2.191243E-1,-6.9917873E-3,8.207718E-3,1.940022E-1,-2.4218418E-1,-7.875327E-2,4.9194244E-1,-1.07353374E-1,2.5714576E-1,2.0356984E-1,1.2388868E-1,-1.9615339E-1,6.649051E-2,-1.0614459E-1,1.9761553E-1,-3.753087E-2,-7.408611E-2,1.4789084E-1,-4.5935635E-2,1.4751536E-1,-1.0691062E-1,5.659599E-2],"categories":[],"categories_nodes":[],"categories_segments":[],"categories_sizes":[],"default_left":[0,0,0,0,0,0,0,0,0,0,0,0,0,0,0,0,0,0,0,0,0,0,0,0,0,0,0,0,0,0,0,0,0,0,0,0,0,0,0,0,0,0,0],"id":11,"left_children":[1,3,5,7,9,11,13,15,17,19,-1,21,-1,-1,-1,23,25,27,29,-1,-1,-1,31,-1,-1,-1,33,35,37,-1,39,-1,41,-1,-1,-1,-1,-1,-1,-1,-1,-1,-1],"loss_changes":[1.01816E0,7.4023944E-1,1.2780243E0,7.7636236E-1,8.006431E-1,4.1312325E-1,8.251391E-1,1.5052288E0,8.1687546E-1,2.1751022E-1,0E0,7.7298236E-1,0E0,0E0,0E0,2.9169607E-1,7.833357E-1,1.820109E0,4.8386943E-1,0E0,0E0,0E0,5.3154975E-1,0E0,0E0,0E0,4.524042E-1,8.716314E-1,1.3926854E0,0E0,5.3756577E-1,0E0,3.5010368E-1,0E0,0E0,0E0,0E0,0E0,0E0,0E0,0E0,0E0,0E0],"parents":[2147483647,0,0,1,1,2,2,3,3,4,4,5,5,6,6,7,7,8,8,9,9,11,11,15,15,16,16,17,17,18,18,22,22,26,26,27,27,28,28,30,30,32,32],"right_children":[2,4,6,8,10,12,14,16,18,20,-1,22,-1,-1,-1,24,26,28,30,-1,-1,-1,32,-1,-1,-1,34,36,38,-1,40,-1,42,-1,-1,-1,-1,-1,-1,-1,-1,-1,-1],"split_conditions":[5.5552788E1,1.5139375E0,7.649962E-2,3.7423313E1,2.644609E0,1.8850584E0,5.3607316E0,-3.4736156E0,2.7745146E-1,5.2280262E1,8.273701E-2,3.7211385E-2,-2.22626E-1,1.8641733E-1,-5.820718E-2,-3.903286E0,4.7335103E-2,2.0840296E-1,4.5883894E-1,-1.7042577E-1,-1.3715711E-2,-2.191243E-1,5.7815643E1,8.207718E-3,1.940022E-1,-2.4218418E-1,-1.5903077E0,4.9873985E1,5.1632923E1,2.5714576E-1,1.0312856E0,1.2388868E-1,6.212397E1,6.649051E-2,-1.0614459E-1,1.9761553E-1,-3.753087E-2,-7.408611E-2,1.4789084E-1,-4.5935635E-2,1.4751536E-1,-1.0691062E-1,5.659599E-2],"split_indices":[0,1,3,0,1,1,1,1,1,0,0,1,0,0,0,1,3,2,1,0,0,0,0,0,0,0,1,0,0,0,1,0,0,0,0,0,0,0,0,0,0,0,0],"split_type":[0,0,0,0,0,0,0,0,0,0,0,0,0,0,0,0,0,0,0,0,0,0,0,0,0,0,0,0,0,0,0,0,0,0,0,0,0,0,0,0,0,0,0],"sum_hessian":[5.099793E1,3.9309555E1,1.1688373E1,3.3826557E1,5.482998E0,8.447866E0,3.2405062E0,7.820507E0,2.600605E1,4.0976543E0,1.3853434E0,5.844881E0,2.602985E0,1.4023294E0,1.8381766E0,2.409546E0,5.410961E0,2.0834648E1,5.1714034E0,2.8569486E0,1.2407058E0,1.1732997E0,4.6715817E0,1.3540229E0,1.0555229E0,1.8846737E0,3.5262876E0,6.669192E0,1.4165456E1,1.6736553E0,3.4977484E0,1.0833464E0,3.5882354E0,1.7783895E0,1.7478981E0,5.1970015E0,1.4721905E0,1.1970453E1,2.1950023E0,1.7723843E0,1.725364E0,2.5856109E0,1.0026244E0],"tree_param":{"num_deleted":"0","num_feature":"5","num_nodes":"43","size_leaf_vector":"1"}},{"base_weights":[-8.835236E-3,9.441074E-2,-1.6582018E-1,5.863339E-1,2.9940683E-2,-5.923374E-1,7.890233E-3,2.3728047E-1,1.3685847E-2,-3.453937E-1,1.2494835E-1,1.0919285E-3,-2.5122908E-1,-1.6843198E-1,9.2835344E-2,3.1722155E-1,-2.369676E-1,3.6802036E-1,-1.0165744E-2,3.2641676E-1,-2.8175405E-1,1.18441194E-1,2.5939496E-2,5.1429003E-1,-7.35609E-2,-2.3650968E-1,2.1160528E-1,5.981046E-1,3.587066E-2,1.7480765E-1,-2.3224044E-1,6.752559E-2,2.336908E-1,1.7938846E-1,-1.3846953E-1,2.7964497E-1,-5.879203E-3,-3.8353764E-2,2.6287848E-1,-6.0488325E-2,4.0723227E-2,1.3659985E-1,-9.150865E-2],"categories":[],"categories_nodes":[],"categories_segments":[],"categories_sizes":[],"default_left":[0,0,0,0,0,0,0,0,0,0,0,0,0,0,0,0,0,0,0,0,0,0,0,0,0,0,0,0,0,0,0,0,0,0,0,0,0,0,0,0,0,0,0],"id":12,"left_children":[1,3,5,7,9,11,13,-1,-1,15,17,-1,-1,-1,19,21,-1,23,25,27,29,-1,-1,31,-1,33,35,37,39,41,-1,-1,-1,-1,-1,-1,-1,-1,-1,-1,-1,-1,-1],"loss_changes":[8.183424E-1,9.5013213E-1,1.4873202E0,3.4910417E-1,1.0427287E0,8.509195E-1,7.875466E-1,0E0,0E0,1.9964973E0,7.625036E-1,0E0,0E0,0E0,1.3248506E0,2.1244138E-2,0E0,8.688687E-1,8.442662E-1,7.001981E-1,1.4725604E0,0E0,0E0,3.611753E-1,0E0,1.8352416E0,1.4375664E0,1.0531201E0,1.5738975E-1,6.64164E-1,0E0,0E0,0E0,0E0,0E0,0E0,0E0,0E0,0E0,0E0,0E0,0E0,0E0],"parents":[2147483647,0,0,1,1,2,2,3,3,4,4,5,5,6,6,9,9,10,10,14,14,15,15,17,17,18,18,19,19,20,20,23,23,25,25,26,26,27,27,28,28,29,29],"right_children":[2,4,6,8,10,12,14,-1,-1,16,18,-1,-1,-1,20,22,-1,24,26,28,30,-1,-1,32,-1,34,36,38,40,42,-1,-1,-1,-1,-1,-1,-1,-1,-1,-1,-1,-1,-1],"split_conditions":[4.9873985E1,1.1473704E-1,7.30518E-2,-7.658955E-1,3.5425392E1,-6.8551975E-1,-8.042803E-1,2.3728047E-1,1.3685847E-2,-3.4736156E0,4.04553E1,1.0919285E-3,-2.5122908E-1,-1.6843198E-1,1.9021357E0,2.956679E1,-2.369676E-1,-2.4401529E-1,4.624302E1,5.5552788E1,2.0840296E-1,1.18441194E-1,2.5939496E-2,7.30518E-2,-7.35609E-2,2.0840296E-1,4.6462322E1,5.108344E1,1.1288469E-1,7.302656E1,-2.3224044E-1,6.752559E-2,2.336908E-1,1.7938846E-1,-1.3846953E-1,2.7964497E-1,-5.879203E-3,-3.8353764E-2,2.6287848E-1,-6.0488325E-2,4.0723227E-2,1.3659985E-1,-9.150865E-2],"split_indices":[0,2,3,1,0,1,1,0,0,1,0,0,0,0,1,0,0,1,0,0,2,0,0,3,0,2,0,0,1,0,0,0,0,0,0,0,0,0,0,0,0,0,0],"split_type":[0,0,0,0,0,0,0,0,0,0,0,0,0,0,0,0,0,0,0,0,0,0,0,0,0,0,0,0,0,0,0,0,0,0,0,0,0,0,0,0,0,0,0],"sum_hessian":[4.8523933E1,2.951264E1,1.9011295E1,2.4817302E0,2.703091E1,4.8045654E0,1.420673E1,1.4647312E0,1.0169989E0,4.927813E0,2.2103096E1,1.6871575E0,3.1174078E0,1.1161929E0,1.3090537E1,2.0934448E0,2.8343685E0,7.280896E0,1.4822201E1,8.142036E0,4.9485E0,1.0346688E0,1.058776E0,6.0089407E0,1.2719553E0,7.3025813E0,7.5196195E0,3.6605375E0,4.481499E0,2.9023037E0,2.0461965E0,3.7556713E0,2.2532694E0,1.1991951E0,6.1033864E0,1.0902143E0,6.429405E0,1.1637352E0,2.4968023E0,1.0250658E0,3.4564333E0,1.8637642E0,1.0385395E0],"tree_param":{"num_deleted":"0","num_feature":"5","num_nodes":"43","size_leaf_vector":"1"}},{"base_weights":[-1.2064683E-3,9.2756145E-2,-1.5077895E-1,5.1887935E-1,3.7727635E-2,-5.241206E-1,-3.5098614E-3,2.1511929E-1,1.1619447E-2,-2.3414823E-1,1.3312672E-1,8.860623E-4,-2.3314707E-1,-1.480126E-1,7.2446845E-2,3.2053217E-1,-5.326145E-1,4.0277544E-1,1.3725843E-2,2.686724E-1,-2.5479355E-1,-3.3944831E-3,1.4680347E-1,-2.0618868E-1,-3.1822786E-2,1.7164153E-1,8.2279906E-2,-1.2990187E-1,2.5094286E-1,5.221711E-1,2.1522038E-2,1.4148542E-1,-2.1336292E-1,-8.9423165E-2,1.1303749E-1,1.9941358E-3,-1.9034012E-1,-3.4435494E-3,2.0905125E-1,-3.1806815E-2,2.3924264E-1,-2.8783841E-2,5.3761587E-2,1.25928E-1,-8.575663E-2],"categories":[],"categories_nodes":[],"categories_segments":[],"categories_sizes":[],"default_left":[0,0,0,0,0,0,0,0,0,0,0,0,0,0,0,0,0,0,0,0,0,0,0,0,0,0,0,0,0,0,0,0,0,0,0,0,0,0,0,0,0,0,0,0,0],"id":13,"left_children":[1,3,5,7,9,11,13,-1,-1,15,17,-1,-1,-1,19,21,23,25,27,29,31,-1,-1,-1,-1,-1,33,35,37,39,41,43,-1,-1,-1,-1,-1,-1,-1,-1,-1,-1,-1,-1,-1],"loss_changes":[6.724913E-1,6.697273E-1,1.013051E0,2.846837E-1,7.3437774E-1,6.977887E-1,5.657383E-1,0E0,0E0,1.396622E0,6.6117716E-1,0E0,0E0,0E0,9.163065E-1,1.8563157E-1,2.6952028E-1,2.959715E-1,5.568673E-1,5.364021E-1,1.0886698E0,0E0,0E0,0E0,0E0,0E0,4.8791635E-1,7.0996475E-1,7.2694504E-1,8.233812E-1,1.18492834E-1,5.6689674E-1,0E0,0E0,0E0,0E0,0E0,0E0,0E0,0E0,0E0,0E0,0E0,0E0,0E0],"parents":[2147483647,0,0,1,1,2,2,3,3,4,4,5,5,6,6,9,9,10,10,14,14,15,15,16,16,17,17,18,18,19,19,20,20,26,26,27,27,28,28,29,29,30,30,31,31],"right_children":[2,4,6,8,10,12,14,-1,-1,16,18,-1,-1,-1,20,22,24,26,28,30,32,-1,-1,-1,-1,-1,34,36,38,40,42,44,-1,-1,-1,-1,-1,-1,-1,-1,-1,-1,-1,-1,-1],"split_conditions":[4.9873985E1,1.1473704E-1,7.30518E-2,-7.658955E-1,3.7423313E1,-6.8551975E-1,-8.042803E-1,2.1511929E-1,1.1619447E-2,-3.4736156E0,4.04553E1,8.860623E-4,-2.3314707E-1,-1.480126E-1,1.9021357E0,-4.0996075E0,3.5707264E1,-1.0128543E0,7.4714684E-1,5.5552788E1,2.0840296E-1,-3.3944831E-3,1.4680347E-1,-2.0618868E-1,-3.1822786E-2,1.7164153E-1,-6.1984926E-1,4.8468872E1,4.8468872E1,5.108344E1,1.1128864E0,6.6280084E0,-2.1336292E-1,-8.9423165E-2,1.1303749E-1,1.9941358E-3,-1.9034012E-1,-3.4435494E-3,2.0905125E-1,-3.1806815E-2,2.3924264E-1,-2.8783841E-2,5.3761587E-2,1.25928E-1,-8.575663E-2],"split_indices":[0,2,3,1,0,1,1,0,0,1,0,0,0,0,1,1,0,1,1,0,2,0,0,0,0,0,1,0,0,0,1,1,0,0,0,0,0,0,0,0,0,0,0,0,0],"split_type":[0,0,0,0,0,0,0,0,0,0,0,0,0,0,0,0,0,0,0,0,0,0,0,0,0,0,0,0,0,0,0,0,0,0,0,0,0,0,0,0,0,0,0,0,0],"sum_hessian":[4.5854652E1,2.839595E1,1.7458702E1,2.2835543E0,2.6112396E1,4.2148104E0,1.3243892E1,1.2671175E0,1.0164368E0,6.4048734E0,1.9707523E1,1.6876876E0,2.5271227E0,1.0401568E0,1.2203735E1,2.2148275E0,4.190046E0,5.3199415E0,1.4387582E1,7.7409487E0,4.462786E0,1.0613769E0,1.1534506E0,2.6263037E0,1.5637422E0,2.966927E0,2.3530145E0,9.243384E0,5.144197E0,3.2720678E0,4.468881E0,2.7581E0,1.7046862E0,1.0215687E0,1.3314457E0,8.051309E0,1.1920761E0,3.8516507E0,1.2925462E0,1.1843923E0,2.0876756E0,2.785393E0,1.6834881E0,1.6811278E0,1.0769722E0],"tree_param":{"num_deleted":"0","num_feature":"5","num_nodes":"45","size_leaf_vector":"1"}},{"base_weights":[-7.236757E-4,8.0120966E-2,-1.3430093E-1,3.500096E-2,1.753595E-1,-4.6293223E-1,-8.1236875E-3,1.5956715E-1,-1.8412173E-1,7.1899284E-4,-2.1597825E-1,1.5488143E-1,-1.7759484E-1,2.955416E-1,-9.730887E-2,-7.3499465E-1,8.042609E-2,-1.08798906E-1,3.435677E-1,-1.7298287E-1,2.0956029E-1,5.914674E-1,-1.3153914E-1,-2.4693932E-1,4.4136098E-1,-6.418311E-2,-2.6512355E-1,2.9724082E-1,-1.7947039E-1,5.387812E-1,-1.15886545E-2,2.4385993E-1,-2.2020389E-1,7.2614686E-3,2.7133098E-1,1.7229249E-1,-1.7719083E-1,4.491465E-2,1.9262394E-1,-7.061187E-3,1.910531E-1,-1.3828455E-1,7.423246E-2,5.5950503E-3,2.1976264E-1,6.1588008E-2,-1.504246E-1],"categories":[],"categories_nodes":[],"categories_segments":[],"categories_sizes":[],"default_left":[0,0,0,0,0,0,0,0,0,0,0,0,0,0,0,0,0,0,0,0,0,0,0,0,0,0,0,0,0,0,0,0,0,0,0,0,0,0,0,0,0,0,0,0,0,0,0],"id":14,"left_children":[1,3,5,7,-1,9,11,13,15,-1,-1,17,19,21,23,25,27,-1,29,-1,31,33,35,-1,37,-1,-1,39,41,43,-1,-1,45,-1,-1,-1,-1,-1,-1,-1,-1,-1,-1,-1,-1,-1,-1],"loss_changes":[4.927101E-1,6.265495E-1,7.0946765E-1,7.706704E-1,0E0,5.702479E-1,3.989576E-1,6.522597E-1,1.5612423E0,0E0,0E0,8.4607285E-1,1.2112007E0,1.5842872E0,3.0731096E0,7.7759385E-2,4.9652088E-1,0E0,4.6307868E-1,0E0,1.2979983E0,1.260453E0,2.1852896E0,0E0,1.7486316E-1,0E0,0E0,5.2309895E-1,6.1882E-1,3.8850892E-1,0E0,0E0,4.9866557E-1,0E0,0E0,0E0,0E0,0E0,0E0,0E0,0E0,0E0,0E0,0E0,0E0,0E0,0E0],"parents":[2147483647,0,0,1,1,2,2,3,3,5,5,6,6,7,7,8,8,11,11,12,12,13,13,14,14,15,15,16,16,18,18,20,20,21,21,22,22,24,24,27,27,28,28,29,29,32,32],"right_children":[2,4,6,8,-1,10,12,14,16,-1,-1,18,20,22,24,26,28,-1,30,-1,32,34,36,-1,38,-1,-1,40,42,44,-1,-1,46,-1,-1,-1,-1,-1,-1,-1,-1,-1,-1,-1,-1,-1,-1],"split_conditions":[4.9873985E1,4.9295887E1,7.30518E-2,-5.556822E-1,1.753595E-1,-6.8551975E-1,1.3904568E0,2.4898632E-1,2.4898632E-1,7.1899284E-4,-2.1597825E-1,-4.5055732E-1,6.2339993E1,-1.9023213E0,-1.2874879E0,4.523791E1,1.1694607E0,-1.08798906E-1,5.7815643E1,-1.7298287E-1,6.506841E1,4.7335103E-2,2.0840296E-1,-2.4693932E-1,4.4442566E1,-6.418311E-2,-2.6512355E-1,5.992388E-1,2.5878801E0,2.7745146E-1,-1.15886545E-2,2.4385993E-1,5.3607316E0,7.2614686E-3,2.7133098E-1,1.7229249E-1,-1.7719083E-1,4.491465E-2,1.9262394E-1,-7.061187E-3,1.910531E-1,-1.3828455E-1,7.423246E-2,5.5950503E-3,2.1976264E-1,6.1588008E-2,-1.504246E-1],"split_indices":[0,0,3,1,0,1,1,2,2,0,0,1,0,1,1,0,1,0,0,0,0,3,2,0,0,0,0,1,1,1,0,0,1,0,0,0,0,0,0,0,0,0,0,0,0,0,0],"split_type":[0,0,0,0,0,0,0,0,0,0,0,0,0,0,0,0,0,0,0,0,0,0,0,0,0,0,0,0,0,0,0,0,0,0,0,0,0,0,0,0,0,0,0,0,0,0,0],"sum_hessian":[4.362909E1,2.7428684E1,1.6200405E1,2.61582E1,1.2704852E0,3.754036E0,1.2446369E1,1.6850737E1,9.307463E0,1.6881176E0,2.0659182E0,6.388096E0,6.0582733E0,1.091989E1,5.9308453E0,2.4426925E0,6.8647704E0,1.4603857E0,4.92771E0,2.7424574E0,3.3158162E0,6.2230263E0,4.6968646E0,2.3015618E0,3.6292837E0,1.0839715E0,1.358721E0,3.6642423E0,3.2005281E0,2.990542E0,1.9371681E0,1.0085633E0,2.307253E0,2.5956686E0,3.6273577E0,1.752105E0,2.9447596E0,2.1912632E0,1.4380205E0,2.3629584E0,1.3012838E0,1.8807535E0,1.3197746E0,1.1092169E0,1.881325E0,1.0255201E0,1.2817327E0],"tree_param":{"num_deleted":"0","num_feature":"5","num_nodes":"47","size_leaf_vector":"1"}},{"base_weights":[2.359507E-3,5.2248493E-2,-1.6128254E-1,2.0058592E-1,-2.306916E-3,-1.8059196E-1,-2.783649E-2,3.4377846E-1,-6.776434E-2,-1.2773924E-1,1.5270604E-1,-1.9072063E-1,1.6098574E-1,-2.9753257E-2,5.235505E-1,3.00904E-1,-2.7733395E-1,2.3117766E-1,2.1897808E-2,8.069157E-2,-1.8142262E-1,1.6590092E-1,-7.615381E-2,6.085576E-1,2.7467975E-2,2.3175041E-1,-1.7275023E-1,-2.8774986E-2,-5.24481E-1,-4.6238428E-1,2.1532786E-1,-1.3160905E-2,5.4246012E-2,4.3455508E-2,2.1634237E-1,-1.4767058E-1,6.574273E-2,-2.489019E-1,-3.3526406E-2,9.964477E-3,-2.1001594E-1,1.196367E-1,-7.2603202E-3],"categories":[],"categories_nodes":[],"categories_segments":[],"categories_sizes":[],"default_left":[0,0,0,0,0,0,0,0,0,0,0,0,0,0,0,0,0,0,0,0,0,0,0,0,0,0,0,0,0,0,0,0,0,0,0,0,0,0,0,0,0,0,0],"id":15,"left_children":[1,3,5,7,9,-1,11,13,-1,15,17,19,21,-1,23,25,27,-1,29,31,-1,-1,-1,33,-1,-1,-1,35,37,39,41,-1,-1,-1,-1,-1,-1,-1,-1,-1,-1,-1,-1],"loss_changes":[3.5252032E-1,2.6797146E-1,5.767418E-1,6.211307E-1,5.0863504E-1,0E0,3.0119935E-1,6.1405236E-1,0E0,1.0099821E0,9.2933047E-1,6.308166E-1,8.909389E-1,0E0,1.3452196E-1,2.1887453E0,6.7486954E-1,0E0,1.1010189E0,5.795598E-2,0E0,0E0,0E0,1.1228061E-1,0E0,0E0,0E0,8.7285364E-1,6.093509E-1,4.200871E-1,3.7534294E-1,0E0,0E0,0E0,0E0,0E0,0E0,0E0,0E0,0E0,0E0,0E0,0E0],"parents":[2147483647,0,0,1,1,2,2,3,3,4,4,6,6,7,7,9,9,10,10,11,11,12,12,14,14,15,15,16,16,18,18,19,19,23,23,27,27,28,28,29,29,30,30],"right_children":[2,4,6,8,10,-1,12,14,-1,16,18,20,22,-1,24,26,28,-1,30,32,-1,-1,-1,34,-1,-1,-1,36,38,40,42,-1,-1,-1,-1,-1,-1,-1,-1,-1,-1,-1,-1],"split_conditions":[5.5372166E1,2.0840296E-1,7.30518E-2,-3.9880297E-1,4.624302E1,-1.8059196E-1,1.8620867E0,-2.6018033E0,-6.776434E-2,-1.966216E0,4.6462322E1,6.0633526E1,5.3607316E0,-2.9753257E-2,4.9873985E1,2.4898632E-1,4.0294113E1,2.3117766E-1,-7.8272355E-1,5.839323E1,-1.8142262E-1,1.6590092E-1,-7.615381E-2,3.7423313E1,2.7467975E-2,2.3175041E-1,-1.7275023E-1,3.7423313E1,2.7745146E-1,-2.449621E0,1.5139375E0,-1.3160905E-2,5.4246012E-2,4.3455508E-2,2.1634237E-1,-1.4767058E-1,6.574273E-2,-2.489019E-1,-3.3526406E-2,9.964477E-3,-2.1001594E-1,1.196367E-1,-7.2603202E-3],"split_indices":[0,2,3,1,0,0,1,1,0,1,0,0,1,0,0,2,0,0,1,0,0,0,0,0,0,0,0,0,1,1,1,0,0,0,0,0,0,0,0,0,0,0,0],"split_type":[0,0,0,0,0,0,0,0,0,0,0,0,0,0,0,0,0,0,0,0,0,0,0,0,0,0,0,0,0,0,0,0,0,0,0,0,0,0,0,0,0,0,0],"sum_hessian":[4.1148E1,3.2055935E1,9.092067E0,7.899708E0,2.4156225E1,1.2972054E0,7.7948613E0,6.059151E0,1.8405567E0,1.3449333E1,1.0706893E1,4.179466E0,3.6153958E0,1.8786058E0,4.1805453E0,3.2177753E0,1.0231558E1,1.0161235E0,9.690769E0,3.0108213E0,1.1686443E0,1.6875646E0,1.9278313E0,3.1516376E0,1.0289077E0,2.1696255E0,1.0481498E0,5.6578317E0,4.5737257E0,2.3690467E0,7.3217225E0,1.5920963E0,1.418725E0,1.0624142E0,2.0892234E0,1.6283293E0,4.0295024E0,2.0486317E0,2.5250943E0,1.0466875E0,1.3223592E0,3.769602E0,3.5521204E0],"tree_param":{"num_deleted":"0","num_feature":"5","num_nodes":"43","size_leaf_vector":"1"}},{"base_weights":[-3.341254E-3,-3.256355E-2,2.7425602E-1,2.749382E-2,-2.855969E-1,1.7676897E-1,-3.3568133E-2,2.8014353E-1,-9.131351E-3,-3.7671074E-1,3.3972777E-2,1.508043E-1,-3.989193E-2,-2.580322E-1,3.805448E-2,-1.4063883E-1,-2.008845E-1,7.9009056E-2,-1.8457477E-1,2.0199104E-1,-3.0458752E-2,-3.4995142E-1,9.2104755E-2,9.939409E-2,-7.2754025E-2,-7.320767E-2,1.7932858E-2,-1.895411E-1,2.961538E-2],"categories":[],"categories_nodes":[],"categories_segments":[],"categories_sizes":[],"default_left":[0,0,0,0,0,0,0,0,0,0,0,0,0,0,0,0,0,0,0,0,0,0,0,0,0,0,0,0,0],"id":16,"left_children":[1,3,5,7,9,-1,-1,11,13,15,-1,-1,-1,17,19,21,-1,-1,-1,23,25,27,-1,-1,-1,-1,-1,-1,-1],"loss_changes":[3.3410752E-1,5.725813E-1,5.431963E-1,2.8890756E-1,3.0489558E-1,0E0,0E0,4.2994422E-1,3.3862025E-1,3.2799208E-1,0E0,0E0,0E0,1.0169461E0,2.802745E-1,5.428202E-1,0E0,0E0,0E0,5.013939E-1,3.6303565E-1,5.2185154E-1,0E0,0E0,0E0,0E0,0E0,0E0,0E0],"parents":[2147483647,0,0,1,1,2,2,3,3,4,4,7,7,8,8,9,9,13,13,14,14,15,15,19,19,20,20,21,21],"right_children":[2,4,6,8,10,-1,-1,12,14,16,-1,-1,-1,18,20,22,-1,-1,-1,24,26,28,-1,-1,-1,-1,-1,-1,-1],"split_conditions":[7.649962E-2,5.5372166E1,5.3607316E0,1.1473704E-1,6.4876686E1,1.7676897E-1,-3.3568133E-2,-3.9880297E-1,3.5425392E1,6.0633526E1,3.3972777E-2,1.508043E-1,-3.989193E-2,-3.4736156E0,4.04553E1,5.955607E1,-2.008845E-1,7.9009056E-2,-1.8457477E-1,-2.4401529E-1,-1.0378066E0,5.811752E-1,9.2104755E-2,9.939409E-2,-7.2754025E-2,-7.320767E-2,1.7932858E-2,-1.895411E-1,2.961538E-2],"split_indices":[3,0,1,2,0,0,0,1,0,0,0,0,0,1,0,0,0,0,0,1,1,1,0,0,0,0,0,0,0],"split_type":[0,0,0,0,0,0,0,0,0,0,0,0,0,0,0,0,0,0,0,0,0,0,0,0,0,0,0,0,0],"sum_hessian":[3.908575E1,3.6161747E1,2.9240038E0,2.9945532E1,6.216217E0,1.3207705E0,1.6032333E0,2.9495885E0,2.6995943E1,5.105387E0,1.1108296E0,1.7760599E0,1.1735288E0,3.5900958E0,2.3405846E1,3.64654E0,1.4588475E0,1.566443E0,2.0236528E0,6.3245163E0,1.7081331E1,2.6334553E0,1.0130847E0,5.096425E0,1.2280912E0,4.5672626E0,1.2514068E1,1.3667172E0,1.266738E0],"tree_param":{"num_deleted":"0","num_feature":"5","num_nodes":"29","size_leaf_vector":"1"}},{"base_weights":[-5.7048392E-3,1.44845275E-2,-1.1278531E-1,-2.4270544E-2,1.4711697E-1,4.503218E-2,-1.5754168E-1,-1.2637936E-3,1.6044916E-1,-2.5475016E-2,-1.9822134E-1,9.923692E-2,-1.4935069E-1,-1.6800752E-1,1.505919E-1,8.287659E-3,1.202857E-1,-1.9073297E-1,2.1054914E-2,-9.475347E-2,8.131849E-2],"categories":[],"categories_nodes":[],"categories_segments":[],"categories_sizes":[],"default_left":[0,0,0,0,0,0,0,0,0,0,0,0,0,0,0,0,0,0,0,0,0],"id":17,"left_children":[1,3,-1,5,-1,7,9,11,-1,13,-1,15,17,-1,19,-1,-1,-1,-1,-1,-1],"loss_changes":[2.982483E-1,7.14759E-1,0E0,3.4135973E-1,0E0,5.582167E-1,8.2075584E-1,3.640009E-1,0E0,1.1218412E0,0E0,3.0388582E-1,1.1001605E0,0E0,5.958563E-1,0E0,0E0,0E0,0E0,0E0,0E0],"parents":[2147483647,0,0,1,1,3,3,5,5,6,6,7,7,9,9,11,11,12,12,14,14],"right_children":[2,4,-1,6,-1,8,10,12,-1,14,-1,16,18,-1,20,-1,-1,-1,-1,-1,-1],"split_conditions":[7.302656E1,7.649962E-2,-1.1278531E-1,4.9873985E1,1.4711697E-1,4.9295887E1,1.8850584E0,-5.556822E-1,1.6044916E-1,-7.8272355E-1,-1.9822134E-1,-7.8272355E-1,2.4898632E-1,-1.6800752E-1,5.108344E1,8.287659E-3,1.202857E-1,-1.9073297E-1,2.1054914E-2,-9.475347E-2,8.131849E-2],"split_indices":[0,3,0,0,0,0,1,1,0,1,0,1,2,0,0,0,0,0,0,0,0],"split_type":[0,0,0,0,0,0,0,0,0,0,0,0,0,0,0,0,0,0,0,0,0],"sum_hessian":[3.8170757E1,3.7108147E1,1.0626127E0,3.519136E1,1.916786E0,2.35876E1,1.1603759E1,2.2461908E1,1.1256908E0,1.0023627E1,1.5801313E0,1.3577364E1,8.884545E0,1.9432002E0,8.080427E0,1.1855138E1,1.7222258E0,2.173233E0,6.7113123E0,1.3257166E0,6.7547107E0],"tree_param":{"num_deleted":"0","num_feature":"5","num_nodes":"21","size_leaf_vector":"1"}},{"base_weights":[-1.0884803E-2,1.9037001E-1,-5.1113967E-2,5.14577E-1,-1.918827E-1,-2.8999645E-1,6.3190676E-2,8.259559E-3,2.4224025E-1,4.7903925E-2,-6.392809E-1,-1.1694412E-1,1.0178666E-1,3.2234848E-1,-1.1010324E-1,2.0910033E-3,-2.823324E-1,2.4784312E-1,-9.580635E-2,1.3533168E-1,6.875874E-3,-8.4069416E-2,3.4183004E-1,-4.3421555E-1,7.4181095E-2,1.7329375E-1,1.616789E-2,-2.2238162E-1,3.5192233E-2,1.7751274E-1,-2.9436704E-2],"categories":[],"categories_nodes":[],"categories_segments":[],"categories_sizes":[],"default_left":[0,0,0,0,0,0,0,0,0,0,0,0,0,0,0,0,0,0,0,0,0,0,0,0,0,0,0,0,0,0,0],"id":18,"left_children":[1,3,5,7,-1,9,11,-1,-1,13,15,-1,17,19,-1,-1,-1,21,23,-1,-1,-1,25,27,29,-1,-1,-1,-1,-1,-1],"loss_changes":[3.2002845E-1,2.1041257E0,9.120138E-1,7.3348665E-1,0E0,1.301899E0,4.4107935E-1,0E0,0E0,8.4767276E-1,1.0532649E0,0E0,6.571733E-1,1.5881813E-1,0E0,0E0,0E0,7.3598814E-1,6.103214E-1,0E0,0E0,0E0,7.429607E-1,6.8071365E-1,7.307327E-1,0E0,0E0,0E0,0E0,0E0,0E0],"parents":[2147483647,0,0,1,1,2,2,3,3,5,5,6,6,9,9,10,10,12,12,13,13,17,17,18,18,22,22,23,23,24,24],"right_children":[2,4,6,8,-1,10,12,-1,-1,14,16,-1,18,20,-1,-1,-1,22,24,-1,-1,-1,26,28,30,-1,-1,-1,-1,-1,-1],"split_conditions":[-2.4012074E0,2.4898632E-1,7.30518E-2,4.7335103E-2,-1.918827E-1,1.4245018E-1,-1.2874879E0,8.259559E-3,2.4224025E-1,4.9873985E1,3.8414097E1,-1.1694412E-1,1.2897862E0,-3.9880297E-1,-1.1010324E-1,2.0910033E-3,-2.823324E-1,3.8414097E1,4.8468872E1,1.3533168E-1,6.875874E-3,-8.4069416E-2,4.8468872E1,2.5878801E0,4.9545795E1,1.7329375E-1,1.616789E-2,-2.2238162E-1,3.5192233E-2,1.7751274E-1,-2.9436704E-2],"split_indices":[1,2,3,3,0,2,1,0,0,0,0,0,1,1,0,0,0,0,0,0,0,0,0,1,0,0,0,0,0,0,0],"split_type":[0,0,0,0,0,0,0,0,0,0,0,0,0,0,0,0,0,0,0,0,0,0,0,0,0,0,0,0,0,0,0],"sum_hessian":[3.732583E1,5.596421E0,3.1729406E1,4.297673E0,1.2987479E0,9.771383E0,2.1958023E1,2.024744E0,2.2729292E0,5.4052024E0,4.366181E0,1.0095066E0,2.0948517E1,3.3875868E0,2.0176158E0,1.7010081E0,2.665173E0,1.1898842E1,9.049676E0,2.0146964E0,1.3728906E0,1.4983907E0,1.0400451E1,2.5061204E0,6.5435553E0,5.1645856E0,5.235865E0,1.3888452E0,1.1172752E0,1.0264412E0,5.517114E0],"tree_param":{"num_deleted":"0","num_feature":"5","num_nodes":"31","size_leaf_vector":"1"}},{"base_weights":[-1.4891628E-2,-3.94678E-2,2.2461334E-1,1.1874809E-2,-2.549503E-1,1.5844627E-1,-3.3063944E-2,-9.272286E-2,1.0177028E-1,-3.548009E-1,4.3321736E-2,7.09518E-2,-1.7061803E-1,1.7072643E-1,-1.8195292E-2,-1.406463E-1,-1.8485376E-1,-4.161666E-2,1.5217555E-1,-1.9261886E-1,2.3878853E-1,-7.9060145E-2,1.798616E-2,4.029967E-2,-1.4425632E-1,5.5014845E-2,-1.394411E-1,1.8779284E-1,-8.827443E-3],"categories":[],"categories_nodes":[],"categories_segments":[],"categories_sizes":[],"default_left":[0,0,0,0,0,0,0,0,0,0,0,0,0,0,0,0,0,0,0,0,0,0,0,0,0,0,0,0,0],"id":19,"left_children":[1,3,5,7,9,-1,-1,11,13,15,-1,17,-1,-1,19,21,-1,23,-1,25,27,-1,-1,-1,-1,-1,-1,-1,-1],"loss_changes":[2.247505E-1,3.8044935E-1,4.203024E-1,2.7747002E-1,3.147675E-1,0E0,0E0,1.1076093E0,8.9652276E-1,2.254659E-1,0E0,5.6541866E-1,0E0,0E0,6.532273E-1,1.23297505E-1,0E0,8.168599E-1,0E0,9.67762E-1,6.335913E-1,0E0,0E0,0E0,0E0,0E0,0E0,0E0,0E0],"parents":[2147483647,0,0,1,1,2,2,3,3,4,4,7,7,8,8,9,9,11,11,14,14,15,15,17,17,19,19,20,20],"right_children":[2,4,6,8,10,-1,-1,12,14,16,-1,18,-1,-1,20,22,-1,24,-1,26,28,-1,-1,-1,-1,-1,-1,-1,-1],"split_conditions":[7.649962E-2,5.5372166E1,5.3607316E0,-7.8272355E-1,6.4876686E1,1.5844627E-1,-3.3063944E-2,4.733428E1,-5.556822E-1,6.0633526E1,4.3321736E-2,4.5305027E1,-1.7061803E-1,1.7072643E-1,4.847451E1,5.921785E1,-1.8485376E-1,2.4898632E-1,1.5217555E-1,4.508165E1,4.9873985E1,-7.9060145E-2,1.798616E-2,4.029967E-2,-1.4425632E-1,5.5014845E-2,-1.394411E-1,1.8779284E-1,-8.827443E-3],"split_indices":[3,0,1,1,0,0,0,0,1,0,0,0,0,0,0,0,0,2,0,0,0,0,0,0,0,0,0,0,0],"split_type":[0,0,0,0,0,0,0,0,0,0,0,0,0,0,0,0,0,0,0,0,0,0,0,0,0,0,0,0,0],"sum_hessian":[3.567708E1,3.311435E1,2.5627308E0,2.7505547E1,5.608802E0,1.0413165E0,1.5214143E0,1.269863E1,1.4806915E1,4.5761895E0,1.0326122E0,1.0082642E1,2.6159892E0,2.259893E0,1.2547022E1,3.3607376E0,1.2154522E0,8.733859E0,1.3487824E0,7.623297E0,4.923725E0,1.8895029E0,1.4712347E0,6.7315283E0,2.002331E0,3.3381562E0,4.285141E0,1.4690949E0,3.4546301E0],"tree_param":{"num_deleted":"0","num_feature":"5","num_nodes":"29","size_leaf_vector":"1"}},{"base_weights":[-8.902063E-3,1.6038666E-2,-2.7821887E-1,-1.7670829E-2,1.5443774E-1,-1.8530762E-2,-1.0592689E-1,3.3644974E-2,-2.0588176E-1,-8.377817E-3,1.1213848E-1,-3.3420333E-1,4.0582914E-2,1.5790763E-1,-8.124146E-2,-1.6796927E-1,-1.1880996E-1,9.7448625E-2,-1.92083E-2,7.19279E-2,-4.706393E-2,4.3695487E-2,-8.0648944E-2],"categories":[],"categories_nodes":[],"categories_segments":[],"categories_sizes":[],"default_left":[0,0,0,0,0,0,0,0,0,0,0,0,0,0,0,0,0,0,0,0,0,0,0],"id":20,"left_children":[1,3,5,7,-1,-1,-1,9,11,13,-1,15,-1,17,19,-1,21,-1,-1,-1,-1,-1,-1],"loss_changes":[2.446503E-1,5.7523435E-1,2.8189987E-2,3.2089692E-1,0E0,0E0,0E0,3.8054022E-1,3.5625017E-1,3.0940858E-1,0E0,1.9847399E-1,0E0,3.0966723E-1,4.6689302E-1,0E0,2.0017704E-1,0E0,0E0,0E0,0E0,0E0,0E0],"parents":[2147483647,0,0,1,1,2,2,3,3,7,7,8,8,9,9,11,11,13,13,14,14,16,16],"right_children":[2,4,6,8,-1,-1,-1,10,12,14,-1,16,-1,18,20,-1,22,-1,-1,-1,-1,-1,-1],"split_conditions":[6.506841E1,6.2339993E1,5.4788885E0,1.2897862E0,1.5443774E-1,-1.8530762E-2,-1.0592689E-1,8.5091674E-1,2.979073E0,2.0840296E-1,1.1213848E-1,4.8468872E1,4.0582914E-2,4.5769054E1,-2.4012074E0,-1.6796927E-1,1.7028658E0,9.7448625E-2,-1.92083E-2,7.19279E-2,-4.706393E-2,4.3695487E-2,-8.0648944E-2],"split_indices":[0,0,1,1,0,0,0,1,1,2,0,0,0,0,1,0,1,0,0,0,0,0,0],"split_type":[0,0,0,0,0,0,0,0,0,0,0,0,0,0,0,0,0,0,0,0,0,0,0],"sum_hessian":[3.475846E1,3.2673134E1,2.0853271E0,3.150815E1,1.1649852E0,1.0049758E0,1.0803512E0,2.5403194E1,6.104955E0,2.347804E1,1.9251531E0,4.451119E0,1.6538363E0,6.797649E0,1.6680393E1,1.3925518E0,3.0585673E0,3.6150744E0,3.1825743E0,2.7671363E0,1.3913256E1,1.1175747E0,1.9409926E0],"tree_param":{"num_deleted":"0","num_feature":"5","num_nodes":"23","size_leaf_vector":"1"}},{"base_weights":[-3.9017121E-3,-1.7674734E-1,3.0590607E-2,6.868653E-2,-3.406449E-1,2.7489716E-1,-4.2548412E-3,-1.7197965E-1,-7.528989E-2,2.0984934E-1,-4.2710546E-2,-1.6778208E-1,6.175092E-2,2.126619E-2,-5.406583E-2,6.50671E-2,-4.3620825E-1,1.8636137E-1,-1.6470596E-2,-1.6682018E-1,1.3223541E-1,-4.5539416E-2,-1.8274441E-1,-4.209915E-1,9.13375E-2,8.357372E-3,-8.375906E-2,-4.7133178E-2,-1.7357151E-1,-6.112363E-2,4.9256977E-2],"categories":[],"categories_nodes":[],"categories_segments":[],"categories_sizes":[],"default_left":[0,0,0,0,0,0,0,0,0,0,0,0,0,0,0,0,0,0,0,0,0,0,0,0,0,0,0,0,0,0,0],"id":21,"left_children":[1,3,5,-1,7,9,11,-1,13,-1,-1,15,17,-1,-1,19,21,-1,23,25,-1,-1,-1,27,29,-1,-1,-1,-1,-1,-1],"loss_changes":[2.1691193E-1,4.8023424E-1,2.6019478E-1,0E0,2.4761307E-1,7.7520066E-1,3.0841663E-1,0E0,6.418447E-2,0E0,0E0,5.415182E-1,9.0313655E-1,0E0,0E0,5.323651E-1,1.014902E-1,0E0,8.616143E-1,9.489292E-2,0E0,0E0,0E0,8.167356E-2,3.715036E-1,0E0,0E0,0E0,0E0,0E0,0E0],"parents":[2147483647,0,0,1,1,2,2,4,4,5,5,6,6,8,8,11,11,12,12,15,15,16,16,18,18,19,19,23,23,24,24],"right_children":[2,4,6,-1,8,10,12,-1,14,-1,-1,16,18,-1,-1,20,22,-1,24,26,-1,-1,-1,28,30,-1,-1,-1,-1,-1,-1],"split_conditions":[3.7423313E1,-3.4736156E0,3.9613014E1,6.868653E-2,4.7335103E-2,-1.7661589E0,-7.8272355E-1,-1.7197965E-1,-1.5903077E0,2.0984934E-1,-4.2710546E-2,4.733428E1,-5.556822E-1,2.126619E-2,-5.406583E-2,4.5305027E1,2.4898632E-1,1.8636137E-1,7.30518E-2,-1.673185E0,1.3223541E-1,-4.5539416E-2,-1.8274441E-1,4.9873985E1,4.624302E1,8.357372E-3,-8.375906E-2,-4.7133178E-2,-1.7357151E-1,-6.112363E-2,4.9256977E-2],"split_indices":[0,1,0,0,3,1,1,0,1,0,0,0,1,0,0,0,2,0,3,1,0,0,0,0,0,0,0,0,0,0,0],"split_type":[0,0,0,0,0,0,0,0,0,0,0,0,0,0,0,0,0,0,0,0,0,0,0,0,0,0,0,0,0,0,0],"sum_hessian":[3.4476448E1,5.0493293E0,2.9427116E1,1.3386854E0,3.710644E0,2.8133397E0,2.6613777E1,1.3589569E0,2.351687E0,1.0591681E0,1.7541716E0,7.209797E0,1.940398E1,1.1182642E0,1.2334228E0,4.2664323E0,2.9433646E0,1.5287184E0,1.7875263E1,2.981989E0,1.2844433E0,1.8230298E0,1.120335E0,3.1501527E0,1.472511E1,1.3666123E0,1.6153767E0,1.9244775E0,1.2256753E0,2.5598707E0,1.2165239E1],"tree_param":{"num_deleted":"0","num_feature":"5","num_nodes":"31","size_leaf_vector":"1"}},{"base_weights":[-8.595849E-3,1.5019481E-2,-2.5976074E-1,-1.3231702E-2,1.24926046E-1,-2.4429487E-2,-9.2571504E-2,3.2099586E-2,-2.547014E-1,-7.1335524E-2,1.5709151E-1,-8.077389E-2,-1.3990901E-1,1.7838614E-2,-1.9727474E-1,-2.1302253E-1,2.7137154E-1,-5.5529516E-2,2.8204508E-2,8.343672E-2,-2.5407275E-2,-1.0733537E-2,-8.2203075E-2,-2.181229E-2,1.1220519E-1],"categories":[],"categories_nodes":[],"categories_segments":[],"categories_sizes":[],"default_left":[0,0,0,0,0,0,0,0,0,0,0,0,0,0,0,0,0,0,0,0,0,0,0,0,0],"id":22,"left_children":[1,3,5,7,-1,-1,-1,9,11,13,15,17,-1,19,-1,21,23,-1,-1,-1,-1,-1,-1,-1,-1],"loss_changes":[2.089539E-1,3.7457412E-1,1.2101531E-3,3.5160473E-1,0E0,0E0,0E0,3.6420146E-1,1.4900994E-1,8.2872176E-1,5.939492E-1,9.0214625E-2,0E0,4.115293E-1,0E0,2.8578728E-2,3.8479125E-1,0E0,0E0,0E0,0E0,0E0,0E0,0E0,0E0],"parents":[2147483647,0,0,1,1,2,2,3,3,7,7,8,8,9,9,10,10,11,11,13,13,15,15,16,16],"right_children":[2,4,6,8,-1,-1,-1,10,12,14,16,18,-1,20,-1,22,24,-1,-1,-1,-1,-1,-1,-1,-1],"split_conditions":[6.506841E1,6.2339993E1,7.2259735E1,5.5552788E1,1.24926046E-1,-2.4429487E-2,-9.2571504E-2,4.624302E1,1.3904568E0,4.5429783E1,-1.0669827E0,6.0225582E1,-1.3990901E-1,2.0840296E-1,-1.9727474E-1,-2.4553664E0,7.30518E-2,-5.5529516E-2,2.8204508E-2,8.343672E-2,-2.5407275E-2,-1.0733537E-2,-8.2203075E-2,-2.181229E-2,1.1220519E-1],"split_indices":[0,0,0,0,0,0,0,0,1,0,1,0,0,2,0,1,3,0,0,0,0,0,0,0,0],"split_type":[0,0,0,0,0,0,0,0,0,0,0,0,0,0,0,0,0,0,0,0,0,0,0,0,0],"sum_hessian":[3.3571E1,3.1545218E1,2.0257819E0,3.0374454E1,1.1707637E0,1.0087292E0,1.0170527E0,2.6303537E1,4.070917E0,1.4627806E1,1.1675732E1,2.9930646E0,1.0778526E0,1.35380945E1,1.0897108E0,2.5507343E0,9.124997E0,1.8374074E0,1.1556572E0,3.341833E0,1.0196261E1,1.0591769E0,1.4915572E0,2.1637037E0,6.9612937E0],"tree_param":{"num_deleted":"0","num_feature":"5","num_nodes":"25","size_leaf_vector":"1"}},{"base_weights":[-1.4760086E-2,-3.772583E-2,2.1128875E-1,-5.421192E-3,-3.3150744E-1,9.7025484E-2,-2.1609655E-3,4.044478E-2,-1.8840031E-1,-1.7533728E-1,2.798092E-2,-6.6518374E-2,2.8264678E-1,-3.0213982E-1,4.210327E-2,6.1060763E-3,-2.49055E-1,4.631772E-1,1.1919747E-1,-1.5747586E-1,-6.4945064E-2,-2.7519679E-2,1.3960956E-1,-1.1093398E-1,1.0026504E-2,-2.216459E-2,2.3209517E-1,1.3496473E-1,-6.740299E-2,2.4249224E-2,-4.9602836E-2],"categories":[],"categories_nodes":[],"categories_segments":[],"categories_sizes":[],"default_left":[0,0,0,0,0,0,0,0,0,0,0,0,0,0,0,0,0,0,0,0,0,0,0,0,0,0,0,0,0,0,0],"id":23,"left_children":[1,3,5,7,9,-1,-1,11,13,-1,-1,15,17,19,-1,21,23,25,27,-1,29,-1,-1,-1,-1,-1,-1,-1,-1,-1,-1],"loss_changes":[1.8479843E-1,2.9970524E-1,8.3003595E-2,2.5635883E-1,3.9089182E-1,0E0,0E0,6.54066E-1,2.711231E-1,0E0,0E0,2.3773946E-1,1.7206794E-1,2.2281513E-1,0E0,6.5932155E-1,1.8612817E-1,6.0964507E-1,7.138754E-1,0E0,6.452912E-2,0E0,0E0,0E0,0E0,0E0,0E0,0E0,0E0,0E0,0E0],"parents":[2147483647,0,0,1,1,2,2,3,3,4,4,7,7,8,8,11,11,12,12,13,13,15,15,16,16,17,17,18,18,20,20],"right_children":[2,4,6,8,10,-1,-1,12,14,-1,-1,16,18,20,-1,22,24,26,28,-1,30,-1,-1,-1,-1,-1,-1,-1,-1,-1,-1],"split_conditions":[7.649962E-2,6.0633526E1,6.2846375E0,1.2897862E0,6.4876686E1,9.7025484E-2,-2.1609655E-3,5.1530056E-2,2.979073E0,-1.7533728E-1,2.798092E-2,-6.773002E-1,4.5429783E1,4.8468872E1,4.210327E-2,-8.5639507E-1,4.733428E1,4.2574885E-1,5.4890394E-1,-1.5747586E-1,5.1292698E1,-2.7519679E-2,1.3960956E-1,-1.1093398E-1,1.0026504E-2,-2.216459E-2,2.3209517E-1,1.3496473E-1,-6.740299E-2,2.4249224E-2,-4.9602836E-2],"split_indices":[3,0,1,1,0,0,0,1,1,0,0,1,0,0,0,1,0,1,1,0,0,0,0,0,0,0,0,0,0,0,0],"split_type":[0,0,0,0,0,0,0,0,0,0,0,0,0,0,0,0,0,0,0,0,0,0,0,0,0,0,0,0,0,0,0],"sum_hessian":[3.3061733E1,3.0768837E1,2.2928946E0,2.8638195E1,2.1306427E0,1.197904E0,1.0949907E0,2.3521265E1,5.1169295E0,1.0998052E0,1.0308375E0,1.681892E1,6.702344E0,3.8617606E0,1.255169E0,1.2723334E1,4.095587E0,2.3134086E0,4.3889356E0,1.3658683E0,2.4958923E0,1.114856E1,1.5747747E0,2.6527786E0,1.4428082E0,1.1266153E0,1.1867933E0,2.0802224E0,2.308713E0,1.097392E0,1.3985002E0],"tree_param":{"num_deleted":"0","num_feature":"5","num_nodes":"31","size_leaf_vector":"1"}},{"base_weights":[-7.635004E-3,1.5514199E-2,-7.550877E-2,-1.0541401E-2,1.14939265E-1,3.970508E-2,-1.9784452E-1,-2.5827484E-2,2.396394E-1,-2.9992273E-1,2.5871092E-2,1.8076305E-1,-1.333538E-1,1.6978605E-1,-4.0883876E-2,-1.3190342E-1,-1.3369611E-1,-4.3642864E-2,9.0480335E-2,6.313592E-2,-7.1402475E-2,-1.04307525E-1,4.8252333E-2,1.1152139E-2,-8.19342E-2],"categories":[],"categories_nodes":[],"categories_segments":[],"categories_sizes":[],"default_left":[0,0,0,0,0,0,0,0,0,0,0,0,0,0,0,0,0,0,0,0,0,0,0,0,0],"id":24,"left_children":[1,3,-1,5,-1,7,9,11,13,15,-1,17,19,-1,21,-1,23,-1,-1,-1,-1,-1,-1,-1,-1],"loss_changes":[1.9447027E-1,3.0814907E-1,0E0,2.9604158E-1,0E0,3.334441E-1,2.1853474E-1,4.6203056E-1,5.96452E-1,5.99539E-2,0E0,3.2664657E-1,5.3731084E-1,0E0,3.2208243E-1,0E0,9.999667E-2,0E0,0E0,0E0,0E0,0E0,0E0,0E0,0E0],"parents":[2147483647,0,0,1,1,3,3,5,5,6,6,7,7,8,8,9,9,11,11,12,12,14,14,16,16],"right_children":[2,4,-1,6,-1,8,10,12,14,16,-1,18,20,-1,22,-1,24,-1,-1,-1,-1,-1,-1,-1,-1],"split_conditions":[6.506841E1,6.2339993E1,-7.550877E-2,1.2897862E0,1.14939265E-1,2.7745146E-1,2.979073E0,2.0840296E-1,4.5429783E1,4.8468872E1,2.5871092E-2,-2.6018033E0,-2.4012074E0,1.6978605E-1,5.02232E1,-1.3190342E-1,5.2533875E1,-4.3642864E-2,9.0480335E-2,6.313592E-2,-7.1402475E-2,-1.04307525E-1,4.8252333E-2,1.1152139E-2,-8.19342E-2],"split_indices":[0,0,0,1,0,1,1,2,0,0,0,1,1,0,0,0,0,0,0,0,0,0,0,0,0],"split_type":[0,0,0,0,0,0,0,0,0,0,0,0,0,0,0,0,0,0,0,0,0,0,0,0,0],"sum_hessian":[3.27295E1,3.0749353E1,1.9801465E0,2.9621214E1,1.1281403E0,2.3977072E1,5.6441417E0,1.8713997E1,5.263075E0,4.111136E0,1.5330058E0,6.172895E0,1.2541102E1,1.9626096E0,3.3004653E0,1.3397157E0,2.7714202E0,1.6133285E0,4.5595665E0,2.6907194E0,9.850383E0,1.0221946E0,2.2782707E0,1.5747628E0,1.1966573E0],"tree_param":{"num_deleted":"0","num_feature":"5","num_nodes":"25","size_leaf_vector":"1"}},{"base_weights":[-4.806583E-3,-1.758912E-1,3.0828364E-2,5.5842236E-2,-3.1978428E-1,2.2135262E-1,-3.5621565E-2,-1.613767E-1,-6.765562E-2,4.7803286E-2,1.4298534E-1,-3.6606938E-1,3.171868E-2,1.905753E-2,-4.8831943E-2,3.2757473E-1,-1.5170605E-1,-3.1968106E-2,-1.6195925E-1,1.4665778E-1,-2.4902515E-2,1.4807904E-1,2.2620408E-2,-3.1984472E-1,5.9822556E-2,-7.6755527E-3,-1.8004851E-1,1.00450836E-1,-1.3989507E-2],"categories":[],"categories_nodes":[],"categories_segments":[],"categories_sizes":[],"default_left":[0,0,0,0,0,0,0,0,0,0,0,0,0,0,0,0,0,0,0,0,0,0,0,0,0,0,0,0,0],"id":25,"left_children":[1,3,5,-1,7,9,11,-1,13,15,-1,17,19,-1,-1,21,-1,-1,-1,-1,23,-1,-1,25,27,-1,-1,-1,-1],"loss_changes":[2.0874126E-1,3.667765E-1,3.6809084E-1,0E0,2.1596664E-1,3.09288E-1,5.001804E-1,0E0,5.1170234E-2,1.0287235E0,0E0,1.1370164E-1,5.0808764E-1,0E0,0E0,1.4318845E-1,0E0,0E0,0E0,0E0,4.689163E-1,0E0,0E0,3.2895756E-1,4.4963637E-1,0E0,0E0,0E0,0E0],"parents":[2147483647,0,0,1,1,2,2,4,4,5,5,6,6,8,8,9,9,11,11,12,12,15,15,20,20,23,23,24,24],"right_children":[2,4,6,-1,8,10,12,-1,14,16,-1,18,20,-1,-1,22,-1,-1,-1,-1,24,-1,-1,26,28,-1,-1,-1,-1],"split_conditions":[3.7423313E1,-3.4736156E0,4.4390675E1,5.5842236E-2,4.7335103E-2,-5.482031E-1,4.624302E1,-1.613767E-1,-1.5903077E0,-1.0128543E0,1.4298534E-1,4.5429783E1,4.6610046E1,1.905753E-2,-4.8831943E-2,-1.8215667E0,-1.5170605E-1,-3.1968106E-2,-1.6195925E-1,1.4665778E-1,-7.8272355E-1,1.4807904E-1,2.2620408E-2,2.4898632E-1,2.1945703E-1,-7.6755527E-3,-1.8004851E-1,1.00450836E-1,-1.3989507E-2],"split_indices":[0,1,0,0,3,1,0,0,1,1,0,0,0,0,0,1,0,0,0,0,1,0,0,2,1,0,0,0,0],"split_type":[0,0,0,0,0,0,0,0,0,0,0,0,0,0,0,0,0,0,0,0,0,0,0,0,0,0,0,0,0],"sum_hessian":[3.2349586E1,4.8980346E0,2.7451553E1,1.3095725E0,3.588462E0,6.495793E0,2.0955761E1,1.3161904E0,2.2722719E0,4.5735817E0,1.9222112E0,2.796557E0,1.8159203E1,1.0946848E0,1.1775869E0,3.309102E0,1.2644798E0,1.7686946E0,1.0278623E0,1.1599885E0,1.6999214E1,1.4181029E0,1.8909993E0,3.1742003E0,1.3825014E1,2.0809834E0,1.0932169E0,3.259383E0,1.0565632E1],"tree_param":{"num_deleted":"0","num_feature":"5","num_nodes":"29","size_leaf_vector":"1"}},{"base_weights":[-7.3276754E-3,-1.8440355E-1,1.8442508E-2,4.3844E-2,-1.1195055E-1,1.752294E-1,-2.5879825E-2,2.8758457E-1,-6.4867035E-2,-1.8231693E-1,2.4333641E-2,6.1763423E-3,1.5998138E-1,7.8203864E-2,-3.3689123E-1,2.0998733E-1,-7.7070996E-2,7.895466E-2,-7.1925014E-2,-1.6694283E-1,-9.680501E-2,-6.443888E-2,4.2368406E-1,-9.94659E-2,-1.0339507E-2,9.435318E-2,-1.4219014E-1,-6.877988E-2,2.3111727E-2,3.9296232E-2,1.4772198E-1,-1.011808E-1,1.8775977E-2],"categories":[],"categories_nodes":[],"categories_segments":[],"categories_sizes":[],"default_left":[0,0,0,0,0,0,0,0,0,0,0,0,0,0,0,0,0,0,0,0,0,0,0,0,0,0,0,0,0,0,0,0,0],"id":26,"left_children":[1,3,5,-1,-1,7,9,11,-1,13,15,17,-1,-1,19,21,23,-1,-1,-1,25,27,29,-1,31,-1,-1,-1,-1,-1,-1,-1,-1],"loss_changes":[1.530729E-1,3.2021034E-1,2.0982285E-1,0E0,0E0,3.5419032E-1,1.9219342E-1,3.8303927E-1,0E0,4.9358553E-1,3.734372E-1,2.9166374E-1,0E0,0E0,2.0071685E-1,4.3616754E-1,2.1741292E-1,0E0,0E0,0E0,6.947399E-1,1.0908115E-1,1.7000794E-2,0E0,2.9135403E-1,0E0,0E0,0E0,0E0,0E0,0E0,0E0,0E0],"parents":[2147483647,0,0,1,1,2,2,5,5,6,6,7,7,9,9,10,10,11,11,14,14,15,15,16,16,20,20,21,21,22,22,24,24],"right_children":[2,4,6,-1,-1,8,10,12,-1,14,16,18,-1,-1,20,22,24,-1,-1,-1,26,28,30,-1,32,-1,-1,-1,-1,-1,-1,-1,-1],"split_conditions":[3.5707264E1,-3.4736156E0,4.04553E1,4.3844E-2,-1.1195055E-1,-2.4401529E-1,4.624302E1,7.30518E-2,-6.4867035E-2,-1.673185E0,4.9873985E1,-1.8593959E0,1.5998138E-1,7.8203864E-2,-7.902759E-2,5.1530056E-2,1.4245018E-1,7.895466E-2,-7.1925014E-2,-1.6694283E-1,8.638431E-1,-1.6424189E0,1.5610504E0,-9.94659E-2,5.112134E1,9.435318E-2,-1.4219014E-1,-6.877988E-2,2.3111727E-2,3.9296232E-2,1.4772198E-1,-1.011808E-1,1.8775977E-2],"split_indices":[0,1,0,0,0,1,0,3,0,1,0,1,0,0,1,1,2,0,0,0,1,1,1,0,0,0,0,0,0,0,0,0,0],"split_type":[0,0,0,0,0,0,0,0,0,0,0,0,0,0,0,0,0,0,0,0,0,0,0,0,0,0,0,0,0,0,0,0,0],"sum_hessian":[3.1799234E1,3.2578337E0,2.85414E1,1.2662504E0,1.9915833E0,5.6392956E0,2.2902105E1,4.5878325E0,1.0514634E0,4.925661E0,1.7976444E1,2.6162884E0,1.9715439E0,1.0965654E0,3.8290956E0,5.971999E0,1.2004445E1,1.2450157E0,1.3712727E0,1.3116404E0,2.517455E0,2.9202776E0,3.0517216E0,1.6694597E0,1.0334986E1,1.2836637E0,1.2337915E0,1.0622298E0,1.8580478E0,1.1328453E0,1.9188763E0,1.2238083E0,9.111177E0],"tree_param":{"num_deleted":"0","num_feature":"5","num_nodes":"33","size_leaf_vector":"1"}},{"base_weights":[-9.7530205E-3,2.1285528E-2,-1.4738539E-1,-8.870084E-3,1.1315804E-1,-1.154226E-1,2.7448157E-2,3.3212572E-2,-9.007481E-2,1.7467196E-1,-7.076756E-2,-3.0213393E-2,2.7066404E-1,7.979507E-3,7.6899864E-2,2.4644224E-2,-1.5148559E-1,-5.768358E-2,4.648787E-1,-1.4735639E-2,8.69221E-2,1.9129485E-1,7.3505775E-3],"categories":[],"categories_nodes":[],"categories_segments":[],"categories_sizes":[],"default_left":[0,0,0,0,0,0,0,0,0,0,0,0,0,0,0,0,0,0,0,0,0,0,0],"id":27,"left_children":[1,3,5,7,-1,-1,9,11,-1,13,-1,15,17,-1,-1,19,-1,-1,21,-1,-1,-1,-1],"loss_changes":[1.4081152E-1,2.9496303E-1,2.6190114E-1,3.291007E-1,0E0,0E0,2.1261014E-1,3.6423644E-1,0E0,3.441883E-2,0E0,5.217827E-1,5.46506E-1,0E0,0E0,3.756965E-1,0E0,0E0,2.7914226E-1,0E0,0E0,0E0,0E0],"parents":[2147483647,0,0,1,1,2,2,3,3,6,6,7,7,9,9,11,11,12,12,15,15,18,18],"right_children":[2,4,6,8,-1,-1,10,12,-1,14,-1,16,18,-1,-1,20,-1,-1,22,-1,-1,-1,-1],"split_conditions":[1.9021357E0,1.7962306E0,3.012741E0,5.7815643E1,1.1315804E-1,-1.154226E-1,7.117876E1,5.1632923E1,-9.007481E-2,7.649962E-2,-7.076756E-2,1.1694607E0,-7.8272355E-1,7.979507E-3,7.6899864E-2,2.7745146E-1,-1.5148559E-1,-5.768358E-2,5.5552788E1,-1.4735639E-2,8.69221E-2,1.9129485E-1,7.3505775E-3],"split_indices":[1,1,1,0,0,0,0,0,0,3,0,1,1,0,0,1,0,0,0,0,0,0,0],"split_type":[0,0,0,0,0,0,0,0,0,0,0,0,0,0,0,0,0,0,0,0,0,0,0],"sum_hessian":[3.1227827E1,2.6171118E1,5.0567083E0,2.5025793E1,1.1453251E0,1.6355891E0,3.421119E0,2.2641758E1,2.384036E0,2.4103088E0,1.0108101E0,1.8557579E1,4.084179E0,1.3279994E0,1.0823095E0,1.7485195E1,1.0723834E0,1.2099746E0,2.8742046E0,1.4316375E1,3.1688197E0,1.7425826E0,1.1316221E0],"tree_param":{"num_deleted":"0","num_feature":"5","num_nodes":"23","size_leaf_vector":"1"}},{"base_weights":[-6.98672E-3,-2.7059834E-2,1.8521628E-1,3.1871137E-3,-9.168968E-2,8.966127E-2,-6.9051986E-3,3.5672765E-2,-1.4492476E-1,-1.2283531E-3,1.17307335E-1,9.500826E-2,-1.3110197E-1,2.0072615E-1,-3.6128663E-2,-1.4561779E-2,5.7405706E-2,1.1244143E-1,-3.2769244E-2,-6.936965E-2,9.4734635E-3],"categories":[],"categories_nodes":[],"categories_segments":[],"categories_sizes":[],"default_left":[0,0,0,0,0,0,0,0,0,0,0,0,0,0,0,0,0,0,0,0,0],"id":28,"left_children":[1,3,5,7,-1,-1,-1,9,11,13,-1,15,-1,17,19,-1,-1,-1,-1,-1,-1],"loss_changes":[1.2810482E-1,2.5173506E-1,8.129799E-2,1.3909982E-1,0E0,0E0,0E0,3.103482E-1,4.062515E-1,1.6516587E-1,0E0,6.0165025E-2,0E0,2.2729817E-1,2.7084872E-1,0E0,0E0,0E0,0E0,0E0,0E0],"parents":[2147483647,0,0,1,1,2,2,3,3,7,7,8,8,9,9,11,11,13,13,14,14],"right_children":[2,4,6,8,-1,-1,-1,10,12,14,-1,16,-1,18,20,-1,-1,-1,-1,-1,-1],"split_conditions":[7.649962E-2,6.0633526E1,6.2846375E0,1.4071615E0,-9.168968E-2,8.966127E-2,-6.9051986E-3,1.0312856E0,4.9545795E1,1.1473704E-1,1.17307335E-1,4.7672844E1,-1.3110197E-1,4.9873985E1,3.7423313E1,-1.4561779E-2,5.7405706E-2,1.1244143E-1,-3.2769244E-2,-6.936965E-2,9.4734635E-3],"split_indices":[3,0,1,1,0,0,0,1,0,2,0,0,0,0,0,0,0,0,0,0,0],"split_type":[0,0,0,0,0,0,0,0,0,0,0,0,0,0,0,0,0,0,0,0,0],"sum_hessian":[3.0904953E1,2.8760502E1,2.14445E0,2.6835325E1,1.9251775E0,1.1056919E0,1.0387579E0,2.2630816E1,4.2045093E0,2.140462E1,1.2261966E0,2.6787486E0,1.5257603E0,2.4538321E0,1.8950787E1,1.2751026E0,1.4036461E0,1.4373627E0,1.0164695E0,4.260004E0,1.46907835E1],"tree_param":{"num_deleted":"0","num_feature":"5","num_nodes":"21","size_leaf_vector":"1"}},{"base_weights":[-3.6364717E-3,1.4084777E-1,-3.1914804E-2,4.4438618E-1,-1.6919386E-1,-2.3079264E-1,5.874049E-2,9.3527185E-3,2.1081996E-1,2.0770466E-2,-4.8564592E-1,-7.645612E-2,9.905853E-2,2.233316E-1,-7.5342536E-2,1.1243948E-2,-2.376176E-1,1.7626663E-1,1.8489564E-2,1.0327379E-1,-1.057449E-2,-3.48668E-1,1.20555386E-1,-2.5319504E-2,-1.429847E-1,1.8632694E-1,3.8491127E-3],"categories":[],"categories_nodes":[],"categories_segments":[],"categories_sizes":[],"default_left":[0,0,0,0,0,0,0,0,0,0,0,0,0,0,0,0,0,0,0,0,0,0,0,0,0,0,0],"id":29,"left_children":[1,3,5,7,-1,9,11,-1,-1,13,15,-1,17,19,-1,-1,-1,-1,21,-1,-1,23,25,-1,-1,-1,-1],"loss_changes":[1.330402E-1,1.391893E0,5.0264114E-1,4.358418E-1,0E0,5.676422E-1,2.7091545E-1,0E0,0E0,3.4996375E-1,7.287333E-1,0E0,6.950987E-1,1.2428574E-1,0E0,0E0,0E0,0E0,6.5773654E-1,0E0,0E0,8.930391E-2,7.253025E-1,0E0,0E0,0E0,0E0],"parents":[2147483647,0,0,1,1,2,2,3,3,5,5,6,6,9,9,10,10,12,12,13,13,18,18,21,21,22,22],"right_children":[2,4,6,8,-1,10,12,-1,-1,14,16,-1,18,20,-1,-1,-1,-1,22,-1,-1,24,26,-1,-1,-1,-1],"split_conditions":[-2.4012074E0,2.4898632E-1,7.30518E-2,4.7335103E-2,-1.6919386E-1,1.4245018E-1,3.8414097E1,9.3527185E-3,2.1081996E-1,-3.9880297E-1,3.8414097E1,-7.645612E-2,4.085604E1,4.806222E1,-7.5342536E-2,1.1243948E-2,-2.376176E-1,1.7626663E-1,4.624302E1,1.0327379E-1,-1.057449E-2,4.508165E1,4.7438736E1,-2.5319504E-2,-1.429847E-1,1.8632694E-1,3.8491127E-3],"split_indices":[1,2,3,3,0,2,0,0,0,1,0,0,0,0,0,0,0,0,0,0,0,0,0,0,0,0,0],"split_type":[0,0,0,0,0,0,0,0,0,0,0,0,0,0,0,0,0,0,0,0,0,0,0,0,0,0,0],"sum_hessian":[3.0461622E1,4.3344717E0,2.612715E1,3.2879887E0,1.0464829E0,7.6966224E0,1.8430529E1,1.696005E0,1.5919838E0,4.3355474E0,3.361075E0,1.4934412E0,1.6937086E1,2.5870137E0,1.7485337E0,1.5657009E0,1.795374E0,1.5070615E0,1.5430025E1,1.5370027E0,1.050011E0,2.8307967E0,1.2599229E1,1.4648505E0,1.3659462E0,1.3873806E0,1.1211848E1],"tree_param":{"num_deleted":"0","num_feature":"5","num_nodes":"27","size_leaf_vector":"1"}},{"base_weights":[-3.9155725E-3,1.6050974E-2,-6.108366E-2,-1.0132726E-2,1.0790314E-1,3.2698084E-2,-1.8555343E-1,-6.1144583E-2,1.172222E-1,6.498649E-2,-1.265388E-1,5.836933E-2,-1.6629094E-1,-8.023719E-2,2.019731E-1,-1.9645559E-2,4.7473677E-2,4.9741495E-2,-6.829069E-2,1.3246393E-1,1.8711345E-2],"categories":[],"categories_nodes":[],"categories_segments":[],"categories_sizes":[],"default_left":[0,0,0,0,0,0,0,0,0,0,0,0,0,0,0,0,0,0,0,0,0],"id":30,"left_children":[1,3,-1,5,-1,7,9,11,13,15,-1,17,-1,-1,19,-1,-1,-1,-1,-1,-1],"loss_changes":[1.2458338E-1,2.6085427E-1,0E0,2.1295394E-1,0E0,1.8946078E-1,3.5611612E-1,7.1298015E-1,4.593977E-1,5.3700585E-2,0E0,3.5115954E-1,0E0,0E0,3.3229622E-1,0E0,0E0,0E0,0E0,0E0,0E0],"parents":[2147483647,0,0,1,1,3,3,5,5,6,6,7,7,8,8,9,9,11,11,14,14],"right_children":[2,4,-1,6,-1,8,10,12,14,16,-1,18,-1,-1,20,-1,-1,-1,-1,-1,-1],"split_conditions":[6.506841E1,6.2339993E1,-6.108366E-2,1.4071615E0,1.0790314E-1,-7.8272355E-1,4.9545795E1,-1.0128543E0,3.8414097E1,4.7672844E1,-1.265388E-1,2.4898632E-1,-1.6629094E-1,-8.023719E-2,4.5429783E1,-1.9645559E-2,4.7473677E-2,4.9741495E-2,-6.829069E-2,1.3246393E-1,1.8711345E-2],"split_indices":[0,0,0,1,0,1,0,1,0,0,0,2,0,0,0,0,0,0,0,0,0],"split_type":[0,0,0,0,0,0,0,0,0,0,0,0,0,0,0,0,0,0,0,0,0],"sum_hessian":[2.9425772E1,2.7587114E1,1.8386576E0,2.6535656E1,1.0514573E0,2.1982098E1,4.5535583E0,1.0547911E1,1.1434187E1,2.5617201E0,1.9918385E0,9.199991E0,1.3479191E0,1.6751181E0,9.759069E0,1.1919576E0,1.3697625E0,6.993287E0,2.2067044E0,2.7967033E0,6.962366E0],"tree_param":{"num_deleted":"0","num_feature":"5","num_nodes":"21","size_leaf_vector":"1"}},{"base_weights":[-8.51637E-3,-2.920751E-2,1.8280743E-1,1.1374301E-2,-1.8702678E-1,8.309508E-2,-1.5293505E-3,-3.8203068E-2,1.6417807E-1,-2.546747E-1,1.7990481E-2,6.0182832E-2,-1.1830777E-1,3.0336377E-1,-7.494411E-2,-9.449601E-2,-1.1048684E-1,-5.6220833E-2,9.940261E-2,-1.4822032E-1,1.2934339E-2,-5.4993745E-2,4.9016944E-1,-5.1927205E-2,4.8672426E-3,3.460421E-2,-1.6379547E-1,-4.6014022E-2,7.9617836E-2,1.8327373E-1,4.6458084E-2],"categories":[],"categories_nodes":[],"categories_segments":[],"categories_sizes":[],"default_left":[0,0,0,0,0,0,0,0,0,0,0,0,0,0,0,0,0,0,0,0,0,0,0,0,0,0,0,0,0,0,0],"id":31,"left_children":[1,3,5,7,9,-1,-1,11,13,15,-1,17,19,21,-1,23,-1,25,-1,-1,27,-1,29,-1,-1,-1,-1,-1,-1,-1,-1],"loss_changes":[1.2394659E-1,1.8081126E-1,5.559334E-2,1.815366E-1,1.1158106E-1,0E0,0E0,1.5118103E-1,4.1323143E-1,5.1010698E-2,0E0,2.9848355E-1,5.1990414E-1,5.293633E-1,0E0,3.1540826E-2,0E0,6.5606916E-1,0E0,0E0,4.0565503E-1,0E0,5.7849586E-2,0E0,0E0,0E0,0E0,0E0,0E0,0E0,0E0],"parents":[2147483647,0,0,1,1,2,2,3,3,4,4,7,7,8,8,9,9,11,11,12,12,13,13,15,15,17,17,20,20,22,22],"right_children":[2,4,6,8,10,-1,-1,12,14,16,-1,18,20,22,-1,24,-1,26,-1,-1,28,-1,30,-1,-1,-1,-1,-1,-1,-1,-1],"split_conditions":[7.649962E-2,5.5372166E1,6.2846375E0,4.94699E1,1.8620867E0,8.309508E-2,-1.5293505E-3,-1.0128543E0,1.7028658E0,6.0442993E1,1.7990481E-2,-1.6424189E0,2.4898632E-1,-7.8272355E-1,-7.494411E-2,5.7333572E1,-1.1048684E-1,2.4898632E-1,9.940261E-2,-1.4822032E-1,4.624302E1,-5.4993745E-2,2.1945703E-1,-5.1927205E-2,4.8672426E-3,3.460421E-2,-1.6379547E-1,-4.6014022E-2,7.9617836E-2,1.8327373E-1,4.6458084E-2],"split_indices":[3,0,1,0,1,0,0,1,1,0,0,1,2,1,0,0,0,2,0,0,0,0,1,0,0,0,0,0,0,0,0],"split_type":[0,0,0,0,0,0,0,0,0,0,0,0,0,0,0,0,0,0,0,0,0,0,0,0,0,0,0,0,0,0,0],"sum_hessian":[2.89611E1,2.689935E1,2.0617504E0,2.2135366E1,4.763983E0,1.0576218E0,1.0041286E0,1.727912E1,4.8562455E0,3.715324E0,1.0486588E0,7.8663E0,9.41282E0,3.8343456E0,1.0218998E0,2.3018317E0,1.4134922E0,6.0582633E0,1.8080366E0,1.720965E0,7.6918554E0,1.0687305E0,2.7656152E0,1.0167648E0,1.285067E0,5.0527344E0,1.0055289E0,4.8736496E0,2.8182056E0,1.429075E0,1.3365401E0],"tree_param":{"num_deleted":"0","num_feature":"5","num_nodes":"31","size_leaf_vector":"1"}},{"base_weights":[-9.87779E-3,6.247604E-3,-6.751107E-2,-2.0419575E-2,1.0281218E-1,4.6677063E-3,-8.856998E-2,-7.520727E-2,6.0195066E-2,2.4323871E-2,-1.4373629E-1,1.2467903E-1,-1.8814223E-2,-1.719738E-2,1.1080377E-1,-9.936804E-2,2.1667978E-2],"categories":[],"categories_nodes":[],"categories_segments":[],"categories_sizes":[],"default_left":[0,0,0,0,0,0,0,0,0,0,0,0,0,0,0,0,0],"id":32,"left_children":[1,3,-1,5,-1,7,-1,9,11,13,-1,-1,15,-1,-1,-1,-1],"loss_changes":[1.03317186E-1,2.6090252E-1,0E0,1.88655E-1,0E0,1.1929372E-1,0E0,4.5613173E-1,4.520432E-1,2.9786348E-1,0E0,0E0,4.192525E-1,0E0,0E0,0E0,0E0],"parents":[2147483647,0,0,1,1,3,3,5,5,7,7,8,8,9,9,12,12],"right_children":[2,4,-1,6,-1,8,-1,10,12,14,-1,-1,16,-1,-1,-1,-1],"split_conditions":[6.832294E1,6.4876686E1,-6.751107E-2,6.0633526E1,1.0281218E-1,-7.8272355E-1,-8.856998E-2,-1.0128543E0,-5.556822E-1,-1.2267581E0,-1.4373629E-1,1.2467903E-1,7.30518E-2,-1.719738E-2,1.1080377E-1,-9.936804E-2,2.1667978E-2],"split_indices":[0,0,0,0,0,1,0,1,1,1,0,0,3,0,0,0,0],"split_type":[0,0,0,0,0,0,0,0,0,0,0,0,0,0,0,0,0],"sum_hessian":[2.8373255E1,2.729831E1,1.0749464E0,2.6163916E1,1.1343939E0,2.4876038E1,1.2878771E0,1.005611E1,1.4819927E1,8.8220005E0,1.23411E0,1.9205879E0,1.289934E1,7.8080907E0,1.0139099E0,2.3154607E0,1.0583879E1],"tree_param":{"num_deleted":"0","num_feature":"5","num_nodes":"17","size_leaf_vector":"1"}},{"base_weights":[-9.1527635E-3,-2.9325178E-2,5.2504603E-2,6.3466486E-3,-2.5449008E-1,-2.0786956E-2,9.331334E-2,-8.123119E-3,-1.2556548E-1,6.925127E-3,-6.540127E-2,-4.611651E-2,1.5774296E-1,1.6385535E-2,-5.3194698E-2,9.522977E-2,-7.066951E-2],"categories":[],"categories_nodes":[],"categories_segments":[],"categories_sizes":[],"default_left":[0,0,0,0,0,0,0,0,0,0,0,0,0,0,0,0,0],"id":33,"left_children":[1,3,-1,5,7,9,-1,-1,-1,11,-1,13,15,-1,-1,-1,-1],"loss_changes":[1.1306852E-1,2.1881457E-1,0E0,2.0752496E-1,1.2755312E-1,1.2867576E-1,0E0,0E0,0E0,1.782299E-1,0E0,2.2886306E-1,4.3821156E-1,0E0,0E0,0E0,0E0],"parents":[2147483647,0,0,1,1,3,3,4,4,5,5,9,9,11,11,12,12],"right_children":[2,4,-1,6,8,10,-1,-1,-1,12,-1,14,16,-1,-1,-1,-1],"split_conditions":[7.649962E-2,1.8850584E0,5.2504603E-2,1.7962306E0,4.9385838E1,1.2897862E0,9.331334E-2,-8.123119E-3,-1.2556548E-1,2.7745146E-1,-6.540127E-2,2.4898632E-1,5.7519466E1,1.6385535E-2,-5.3194698E-2,9.522977E-2,-7.066951E-2],"split_indices":[3,1,0,1,0,1,0,0,0,1,0,2,0,0,0,0,0],"split_type":[0,0,0,0,0,0,0,0,0,0,0,0,0,0,0,0,0],"sum_hessian":[2.805325E1,2.6041613E1,2.0116367E0,2.3319092E1,2.7225218E0,2.2267895E1,1.0511969E0,1.6292238E0,1.093298E0,2.037042E1,1.897474E0,1.5583893E1,4.786528E0,9.145589E0,6.438303E0,3.5415258E0,1.2450023E0],"tree_param":{"num_deleted":"0","num_feature":"5","num_nodes":"17","size_leaf_vector":"1"}},{"base_weights":[-8.750496E-3,1.1192687E-2,-6.078336E-2,-1.2453398E-2,9.4081104E-2,1.640831E-2,-1.898255E-1,-2.5154134E-2,1.2270643E-1,-1.0388742E-1,1.9420197E-2,9.723507E-2,-7.140483E-2,1.3144821E-1,-1.2298428E-2,1.0834876E-2,-1.2105026E-1,-7.0536986E-2,4.356274E-2],"categories":[],"categories_nodes":[],"categories_segments":[],"categories_sizes":[],"default_left":[0,0,0,0,0,0,0,0,0,0,0,0,0,0,0,0,0,0,0],"id":34,"left_children":[1,3,-1,5,-1,7,9,11,13,-1,-1,-1,15,-1,17,-1,-1,-1,-1],"loss_changes":[1.135975E-1,1.9738775E-1,0E0,1.3650669E-1,0E0,1.0616205E-1,1.7082818E-1,3.0749536E-1,2.9192874E-1,0E0,0E0,0E0,5.9887457E-1,0E0,2.3364621E-1,0E0,0E0,0E0,0E0],"parents":[2147483647,0,0,1,1,3,3,5,5,6,6,7,7,8,8,12,12,14,14],"right_children":[2,4,-1,6,-1,8,10,12,14,-1,-1,-1,16,-1,18,-1,-1,-1,-1],"split_conditions":[6.506841E1,6.212397E1,-6.078336E-2,1.8075461E0,9.4081104E-2,5.112134E1,2.979073E0,1.1473704E-1,5.2601345E1,-1.0388742E-1,1.9420197E-2,9.723507E-2,4.686037E1,1.3144821E-1,3.7211385E-2,1.0834876E-2,-1.2105026E-1,-7.0536986E-2,4.356274E-2],"split_indices":[0,0,0,1,0,0,1,2,0,0,0,0,0,0,1,0,0,0,0],"split_type":[0,0,0,0,0,0,0,0,0,0,0,0,0,0,0,0,0,0,0],"sum_hessian":[2.7795654E1,2.6057304E1,1.7383491E0,2.5056879E1,1.000425E0,2.2330748E1,2.7261317E0,1.6602537E1,5.728211E0,1.4651914E0,1.2609402E0,1.238902E0,1.5363635E1,1.0437806E0,4.68443E0,1.2279281E1,3.0843542E0,1.7358959E0,2.9485343E0],"tree_param":{"num_deleted":"0","num_feature":"5","num_nodes":"19","size_leaf_vector":"1"}},{"base_weights":[-4.622904E-3,-2.311506E-2,4.8574556E-2,2.704104E-3,-7.436989E-2,-2.2434868E-2,7.776121E-2,1.7347045E-2,-7.9739295E-2,-5.137007E-2,1.8485484E-1,1.3118922E-2,-7.1964405E-2,-1.9067584E-2,1.6204429E-1],"categories":[],"categories_nodes":[],"categories_segments":[],"categories_sizes":[],"default_left":[0,0,0,0,0,0,0,0,0,0,0,0,0,0,0],"id":35,"left_children":[1,3,-1,5,-1,7,-1,9,-1,11,13,-1,-1,-1,-1],"loss_changes":[9.184748E-2,1.5519287E-1,0E0,1.6618535E-1,0E0,2.3281322E-1,0E0,2.535001E-1,0E0,2.9399693E-1,5.9777343E-1,0E0,0E0,0E0,0E0],"parents":[2147483647,0,0,1,1,3,3,5,5,7,7,9,9,10,10],"right_children":[2,4,-1,6,-1,8,-1,10,-1,12,14,-1,-1,-1,-1],"split_conditions":[7.649962E-2,2.4402916E0,4.8574556E-2,1.8620867E0,-7.436989E-2,5.7815643E1,7.776121E-2,2.7745146E-1,-7.9739295E-2,-6.773002E-1,5.02232E1,1.3118922E-2,-7.1964405E-2,-1.9067584E-2,1.6204429E-1],"split_indices":[3,1,0,1,0,0,0,1,0,1,0,0,0,0,0],"split_type":[0,0,0,0,0,0,0,0,0,0,0,0,0,0,0],"sum_hessian":[2.7608723E1,2.5624605E1,1.9841175E0,2.3870739E1,1.7538662E0,2.2571129E1,1.2996101E0,2.0198112E1,2.373016E0,1.4814183E1,5.38393E0,1.0357219E1,4.456964E0,3.6517856E0,1.7321446E0],"tree_param":{"num_deleted":"0","num_feature":"5","num_nodes":"15","size_leaf_vector":"1"}},{"base_weights":[-8.59059E-4,1.7239878E-2,-6.0095146E-2,-9.919459E-3,1.0067586E-1,4.248961E-2,-1.2317699E-1,-6.8192E-2,1.7724968E-1,3.292825E-2,-1.4989202E-1,9.822558E-3,-1.1696143E-1,-5.446729E-2,2.805848E-1,-9.205582E-2,2.0671001E-1,-1.633798E-2,8.1037395E-2,9.833587E-3,1.15816094E-1,1.2122048E-1,1.401881E-2],"categories":[],"categories_nodes":[],"categories_segments":[],"categories_sizes":[],"default_left":[0,0,0,0,0,0,0,0,0,0,0,0,0,0,0,0,0,0,0,0,0,0,0],"id":36,"left_children":[1,3,-1,5,-1,7,9,11,13,15,-1,17,-1,-1,19,-1,21,-1,-1,-1,-1,-1,-1],"loss_changes":[1.0579495E-1,2.3601127E-1,0E0,1.581838E-1,0E0,2.8592834E-1,5.105821E-1,2.7492577E-1,3.682157E-1,4.6978146E-1,0E0,1.7650835E-1,0E0,0E0,1.7125177E-1,0E0,1.4373966E-1,0E0,0E0,0E0,0E0,0E0,0E0],"parents":[2147483647,0,0,1,1,3,3,5,5,6,6,7,7,8,8,9,9,11,11,14,14,16,16],"right_children":[2,4,-1,6,-1,8,10,12,14,16,-1,18,-1,-1,20,-1,22,-1,-1,-1,-1,-1,-1],"split_conditions":[5.3607316E0,6.4876686E1,-6.0095146E-2,5.4890394E-1,1.0067586E-1,-7.8272355E-1,5.7815643E1,-1.0128543E0,3.8414097E1,4.624302E1,-1.4989202E-1,-1.2874879E0,-1.1696143E-1,-5.446729E-2,7.30518E-2,-9.205582E-2,1.5139375E0,-1.633798E-2,8.1037395E-2,9.833587E-3,1.15816094E-1,1.2122048E-1,1.401881E-2],"split_indices":[1,0,0,1,0,1,0,1,0,0,0,1,0,0,3,0,1,0,0,0,0,0,0],"split_type":[0,0,0,0,0,0,0,0,0,0,0,0,0,0,0,0,0,0,0,0,0,0,0],"sum_hessian":[2.734961E1,2.5911915E1,1.4376951E0,2.4767727E1,1.1441885E0,1.735956E1,7.408165E0,9.802507E0,7.557054E0,5.881753E0,1.5264121E0,8.669436E0,1.1330703E0,1.520498E0,6.036556E0,1.7311817E0,4.1505713E0,7.5866656E0,1.082771E0,2.1935198E0,3.843036E0,1.1751409E0,2.9754305E0],"tree_param":{"num_deleted":"0","num_feature":"5","num_nodes":"23","size_leaf_vector":"1"}},{"base_weights":[-2.1036542E-3,1.6771136E-2,-5.6226395E-2,-1.4027063E-2,2.277969E-1,2.2493951E-2,-8.458656E-2,1.833658E-2,9.346392E-2,-4.4093646E-2,1.0678558E-1,4.067997E-2,-1.2174339E-1,-3.553702E-2,1.7695282E-1,7.169274E-2,-1.4241916E-2,-3.3386696E-2,8.35026E-2],"categories":[],"categories_nodes":[],"categories_segments":[],"categories_sizes":[],"default_left":[0,0,0,0,0,0,0,0,0,0,0,0,0,0,0,0,0,0,0],"id":37,"left_children":[1,3,-1,5,7,9,-1,-1,-1,11,13,15,-1,-1,17,-1,-1,-1,-1],"loss_changes":[1.0100136E-1,1.7418043E-1,0E0,2.4020366E-1,2.8538287E-2,1.2796012E-1,0E0,0E0,0E0,4.143948E-1,1.7874625E-1,2.1098636E-1,0E0,0E0,2.6515684E-1,0E0,0E0,0E0,0E0],"parents":[2147483647,0,0,1,1,3,3,4,4,5,5,9,9,10,10,11,11,14,14],"right_children":[2,4,-1,6,8,10,-1,-1,-1,12,14,16,-1,-1,18,-1,-1,-1,-1],"split_conditions":[6.506841E1,6.023992E1,-5.6226395E-2,5.5372166E1,1.8388181E0,4.624302E1,-8.458656E-2,1.833658E-2,9.346392E-2,4.508165E1,-1.1641407E0,2.0840296E-1,-1.2174339E-1,-3.553702E-2,7.30518E-2,7.169274E-2,-1.4241916E-2,-3.3386696E-2,8.35026E-2],"split_indices":[0,0,0,0,1,0,0,0,0,0,1,2,0,0,3,0,0,0,0],"split_type":[0,0,0,0,0,0,0,0,0,0,0,0,0,0,0,0,0,0,0],"sum_hessian":[2.6976788E1,2.5308582E1,1.6682042E0,2.2899971E1,2.4086118E0,2.0959103E1,1.9408693E0,1.3840157E0,1.0245962E0,1.19756365E1,8.983465E0,1.0420891E1,1.5547458E0,1.9703343E0,7.013131E0,2.6804445E0,7.740446E0,1.7995375E0,5.2135935E0],"tree_param":{"num_deleted":"0","num_feature":"5","num_nodes":"19","size_leaf_vector":"1"}},{"base_weights":[-4.1169757E-3,-1.2911113E-1,2.3127144E-2,6.3637726E-2,-2.6531193E-1,1.9033389E-1,-1.7080529E-2,-1.3771228E-1,-1.1801297E-2,-7.871559E-3,1.1975018E-1,-4.370892E-2,4.6103925E-2,9.70275E-2,-9.4514534E-2,-8.578824E-3,-7.8173846E-2,-1.4168221E-1,4.640133E-2,5.6564238E-2,-9.542072E-2,-4.8680253E-2,3.0881202E-2],"categories":[],"categories_nodes":[],"categories_segments":[],"categories_sizes":[],"default_left":[0,0,0,0,0,0,0,0,0,0,0,0,0,0,0,0,0,0,0,0,0,0,0],"id":38,"left_children":[1,3,5,-1,7,9,11,-1,-1,13,-1,15,-1,-1,-1,17,-1,19,21,-1,-1,-1,-1],"loss_changes":[9.731537E-2,2.9373294E-1,1.6185468E-1,0E0,1.612514E-1,1.9584431E-1,9.736612E-2,0E0,0E0,4.4476846E-1,0E0,1.3509017E-1,0E0,0E0,0E0,1.2765965E-1,0E0,3.5607198E-1,1.6372968E-1,0E0,0E0,0E0,0E0],"parents":[2147483647,0,0,1,1,2,2,4,4,5,5,6,6,9,9,11,11,15,15,17,17,18,18],"right_children":[2,4,6,-1,8,10,12,-1,-1,14,-1,16,-1,-1,-1,18,-1,20,22,-1,-1,-1,-1],"split_conditions":[3.7423313E1,-3.4736156E0,4.04553E1,6.3637726E-2,4.7335103E-2,-6.4328855E-1,7.649962E-2,-1.3771228E-1,-1.1801297E-2,-1.7661589E0,1.1975018E-1,6.0633526E1,4.6103925E-2,9.70275E-2,-9.4514534E-2,4.624302E1,-7.8173846E-2,2.4898632E-1,-1.0669827E0,5.6564238E-2,-9.542072E-2,-4.8680253E-2,3.0881202E-2],"split_indices":[0,1,0,0,3,1,3,0,0,1,0,0,0,0,0,0,0,2,1,0,0,0,0],"split_type":[0,0,0,0,0,0,0,0,0,0,0,0,0,0,0,0,0,0,0,0,0,0,0],"sum_hessian":[2.670031E1,4.1090817E0,2.2591228E1,1.0131905E0,3.0958912E0,3.6555533E0,1.8935675E1,1.1115593E0,1.9843318E0,2.369217E0,1.2863364E0,1.702485E1,1.9108254E0,1.114409E0,1.254808E0,1.5546143E1,1.4787076E0,4.083437E0,1.1462706E1,1.397712E0,2.685725E0,2.0449255E0,9.41778E0],"tree_param":{"num_deleted":"0","num_feature":"5","num_nodes":"23","size_leaf_vector":"1"}},{"base_weights":[-4.9511134E-3,1.3229127E-1,-3.0974919E-2,-1.1026988E-1,1.4087181E-1,-2.1624216E-1,5.451682E-2,4.5391414E-2,-9.2375815E-2,3.970232E-2,-4.675197E-1,1.364319E-1,-6.716505E-2,2.0810677E-1,-7.131289E-2,-7.0707826E-3,-2.1926497E-1,9.6981885E-4,2.8766587E-1,-8.463124E-2,5.835122E-2,8.671945E-2,5.7538147E-3,8.998864E-2,-1.562257E-1,1.3096593E-1,-2.8930658E-2,1.8321234E-1,-5.528253E-2,-1.1897216E-1,7.433775E-3,-1.9909823E-2,9.889544E-2],"categories":[],"categories_nodes":[],"categories_segments":[],"categories_sizes":[],"default_left":[0,0,0,0,0,0,0,0,0,0,0,0,0,0,0,0,0,0,0,0,0,0,0,0,0,0,0,0,0,0,0,0,0],"id":39,"left_children":[1,3,5,7,-1,9,11,-1,-1,13,15,17,19,21,-1,-1,-1,23,25,-1,27,-1,-1,-1,29,-1,-1,31,-1,-1,-1,-1,-1],"loss_changes":[1.015273E-1,4.230307E-1,3.8782337E-1,2.2492476E-1,0E0,5.1362044E-1,1.790478E-1,0E0,0E0,2.7068198E-1,4.4607103E-1,2.1516152E-1,2.1953945E-1,4.7678083E-2,0E0,0E0,0E0,3.5474926E-1,3.2606354E-1,0E0,2.0283268E-1,0E0,0E0,0E0,2.2521648E-1,0E0,0E0,1.7487244E-1,0E0,0E0,0E0,0E0,0E0],"parents":[2147483647,0,0,1,1,2,2,3,3,5,5,6,6,9,9,10,10,11,11,12,12,13,13,17,17,18,18,20,20,24,24,27,27],"right_children":[2,4,6,8,-1,10,12,-1,-1,14,16,18,20,22,-1,-1,-1,24,26,-1,28,-1,-1,-1,30,-1,-1,32,-1,-1,-1,-1,-1],"split_conditions":[-2.4012074E0,-2.6018033E0,7.30518E-2,-3.3088074E0,1.4087181E-1,1.4245018E-1,1.2897862E0,4.5391414E-2,-9.2375815E-2,4.9873985E1,3.8414097E1,2.7745146E-1,4.8468872E1,-3.9880297E-1,-7.131289E-2,-7.0707826E-3,-2.1926497E-1,4.020835E1,5.7519466E1,-8.463124E-2,5.3607316E0,8.671945E-2,5.7538147E-3,8.998864E-2,4.5305027E1,1.3096593E-1,-2.8930658E-2,1.8620867E0,-5.528253E-2,-1.1897216E-1,7.433775E-3,-1.9909823E-2,9.889544E-2],"split_indices":[1,1,3,1,0,2,1,0,0,0,0,1,0,1,0,0,0,0,0,0,1,0,0,0,0,0,0,1,0,0,0,0,0],"split_type":[0,0,0,0,0,0,0,0,0,0,0,0,0,0,0,0,0,0,0,0,0,0,0,0,0,0,0,0,0,0,0,0,0],"sum_hessian":[2.6279215E1,3.5378892E0,2.2741325E1,2.4494164E0,1.088473E0,6.6976357E0,1.604369E1,1.1551456E0,1.2942708E0,3.7351308E0,2.9625046E0,9.516233E0,6.5274563E0,2.4796646E0,1.2554663E0,1.5087336E0,1.453771E0,5.5507617E0,3.9654715E0,1.9465522E0,4.580904E0,1.364798E0,1.1148665E0,1.5997537E0,3.9510078E0,2.7593298E0,1.2061417E0,3.1861274E0,1.3947766E0,1.1856638E0,2.7653441E0,1.3803599E0,1.8057677E0],"tree_param":{"num_deleted":"0","num_feature":"5","num_nodes":"33","size_leaf_vector":"1"}},{"base_weights":[-7.273989E-3,7.2586186E-2,-5.986682E-2,-3.5744756E-2,1.4979233E-1,-1.8134312E-1,1.9886767E-2,8.412129E-2,-3.058982E-1,1.1707907E-1,-6.716743E-2,3.320254E-1,-1.9633967E-1,-1.669718E-1,2.6098907E-2,-1.1502441E-1,1.2061907E-2,-2.4161654E-2,2.0014174E-1,3.273392E-2,-1.096492E-1,-1.0150815E-1,8.058359E-2,8.391774E-2,-2.2892498E-3],"categories":[],"categories_nodes":[],"categories_segments":[],"categories_sizes":[],"default_left":[0,0,0,0,0,0,0,0,0,0,0,0,0,0,0,0,0,0,0,0,0,0,0,0,0],"id":40,"left_children":[1,3,5,7,-1,-1,9,11,13,-1,15,17,19,-1,-1,-1,21,-1,-1,-1,-1,-1,23,-1,-1],"loss_changes":[1.16201326E-1,5.275781E-1,7.3326296E-1,3.4072414E-1,0E0,0E0,5.244392E-1,5.881813E-1,3.6409652E-1,0E0,3.394919E-1,6.571337E-1,2.5470743E-1,0E0,0E0,0E0,3.071626E-1,0E0,0E0,0E0,0E0,0E0,1.8760644E-1,0E0,0E0],"parents":[2147483647,0,0,1,1,2,2,3,3,6,6,7,7,8,8,10,10,11,11,12,12,16,16,22,22],"right_children":[2,4,6,8,-1,-1,10,12,14,-1,16,18,20,-1,-1,-1,22,-1,-1,-1,-1,-1,24,-1,-1],"split_conditions":[-6.773002E-1,-8.5639507E-1,3.8414097E1,2.4898632E-1,1.4979233E-1,-1.8134312E-1,4.508165E1,-1.9023213E0,-1.2874879E0,1.1707907E-1,7.30518E-2,4.7335103E-2,2.0840296E-1,-1.669718E-1,2.6098907E-2,-1.1502441E-1,4.624302E1,-2.4161654E-2,2.0014174E-1,3.273392E-2,-1.096492E-1,-1.0150815E-1,4.9545795E1,8.391774E-2,-2.2892498E-3],"split_indices":[1,1,0,2,0,0,0,1,1,0,3,3,2,0,0,0,0,0,0,0,0,0,0,0,0],"split_type":[0,0,0,0,0,0,0,0,0,0,0,0,0,0,0,0,0,0,0,0,0,0,0,0,0],"sum_hessian":[2.563188E1,1.00266485E1,1.560523E1,8.7273E0,1.2993482E0,1.1529331E0,1.4452297E1,6.52209E0,2.20521E0,2.08758E0,1.23647175E1,3.3643918E0,3.1576982E0,1.091937E0,1.113273E0,1.7079722E0,1.0656745E1,1.8484279E0,1.515964E0,1.2519605E0,1.9057378E0,1.0989038E0,9.557841E0,2.267663E0,7.2901783E0],"tree_param":{"num_deleted":"0","num_feature":"5","num_nodes":"25","size_leaf_vector":"1"}},{"base_weights":[-8.433166E-3,-1.3788934E-1,1.9910289E-2,4.3632828E-2,-2.6237848E-1,2.0508623E-1,-2.4665376E-2,-1.0909616E-1,-1.4538452E-2,1.1114539E-1,-1.2898144E-2,-5.0180145E-2,4.0712435E-2,-6.8375254E-3,-2.23346E-1,-1.17448024E-1,8.631495E-2,-1.11066766E-1,1.3360816E-2,2.640139E-2,-6.732088E-2,8.7061286E-2,-1.20514585E-2],"categories":[],"categories_nodes":[],"categories_segments":[],"categories_sizes":[],"default_left":[0,0,0,0,0,0,0,0,0,0,0,0,0,0,0,0,0,0,0,0,0,0,0],"id":41,"left_children":[1,3,5,-1,7,9,11,-1,-1,-1,-1,13,-1,15,17,19,21,-1,-1,-1,-1,-1,-1],"loss_changes":[9.7787105E-2,2.0671298E-1,1.876747E-1,0E0,6.202835E-2,1.9645785E-1,8.342618E-2,0E0,0E0,0E0,0E0,1.2519483E-1,0E0,1.5990673E-1,1.4823315E-1,1.750772E-1,2.3001198E-1,0E0,0E0,0E0,0E0,0E0,0E0],"parents":[2147483647,0,0,1,1,2,2,4,4,5,5,6,6,11,11,13,13,14,14,15,15,16,16],"right_children":[2,4,6,-1,8,10,12,-1,-1,-1,-1,14,-1,16,18,20,22,-1,-1,-1,-1,-1,-1],"split_conditions":[3.7423313E1,-3.1502125E0,4.04553E1,4.3632828E-2,-1.6537793E0,-1.0128543E0,7.649962E-2,-1.0909616E-1,-1.4538452E-2,1.1114539E-1,-1.2898144E-2,1.8850584E0,4.0712435E-2,5.1530056E-2,3.012741E0,-1.620307E0,5.4890394E-1,-1.11066766E-1,1.3360816E-2,2.640139E-2,-6.732088E-2,8.7061286E-2,-1.20514585E-2],"split_indices":[0,1,0,0,1,1,3,0,0,0,0,1,0,1,1,1,1,0,0,0,0,0,0],"split_type":[0,0,0,0,0,0,0,0,0,0,0,0,0,0,0,0,0,0,0,0,0,0,0],"sum_hessian":[2.4902313E1,3.7786634E0,2.1123652E1,1.1020734E0,2.67659E0,3.3997161E0,1.7723934E1,1.3415021E0,1.3350879E0,1.7437358E0,1.6559802E0,1.5883965E1,1.8399698E0,1.3535562E1,2.3484035E0,6.0686955E0,7.4668655E0,1.270027E0,1.0783764E0,2.138319E0,3.9303765E0,2.3631866E0,5.103679E0],"tree_param":{"num_deleted":"0","num_feature":"5","num_nodes":"23","size_leaf_vector":"1"}},{"base_weights":[-6.100858E-3,-5.1330548E-2,1.3272019E-2,1.0624848E-1,-1.986888E-2,-9.124085E-2,1.3887757E-2,1.3558173E-1,-3.1475272E-2,-4.633412E-2,1.2502453E-1,-9.1798775E-2,1.3601771E-2,2.4166409E-2,-5.4634906E-2,8.159663E-2,-8.407279E-3],"categories":[],"categories_nodes":[],"categories_segments":[],"categories_sizes":[],"default_left":[0,0,0,0,0,0,0,0,0,0,0,0,0,0,0,0,0],"id":42,"left_children":[1,-1,3,-1,5,-1,7,9,11,13,-1,-1,15,-1,-1,-1,-1],"loss_changes":[8.4453456E-2,0E0,2.7745575E-1,0E0,2.226498E-1,0E0,1.2186666E-1,3.2481933E-1,2.062347E-1,9.265874E-2,0E0,0E0,1.6878359E-1,0E0,0E0,0E0,0E0],"parents":[2147483647,0,0,2,2,4,4,6,6,7,7,8,8,9,9,12,12],"right_children":[2,-1,4,-1,6,-1,8,10,12,14,-1,-1,16,-1,-1,-1,-1],"split_conditions":[3.3210033E1,-5.1330548E-2,3.644849E1,1.0624848E-1,3.782651E1,-9.124085E-2,4.508165E1,-2.2844547E-1,4.624302E1,-1.1432178E0,1.2502453E-1,-9.1798775E-2,4.686037E1,2.4166409E-2,-5.4634906E-2,8.159663E-2,-8.407279E-3],"split_indices":[0,0,0,0,0,0,0,1,0,1,0,0,0,0,0,0,0],"split_type":[0,0,0,0,0,0,0,0,0,0,0,0,0,0,0,0,0],"sum_hessian":[2.4709833E1,1.7734165E0,2.2936417E1,1.1740026E0,2.1762413E1,1.4597844E0,2.030263E1,4.9729733E0,1.5329656E1,3.5265138E0,1.4464595E0,1.3457439E0,1.39839115E1,2.0332103E0,1.4933035E0,1.1723894E0,1.28115225E1],"tree_param":{"num_deleted":"0","num_feature":"5","num_nodes":"17","size_leaf_vector":"1"}},{"base_weights":[-2.5511824E-3,4.101979E-2,-7.36769E-2,-4.5597362E-3,8.672203E-2,-1.3028826E-1,6.0314678E-2,1.5749612E-1,-9.568384E-2,-2.8611156E-1,-9.653341E-3,8.1772685E-2,-5.0550546E-2,-3.43154E-2,2.4944046E-1,6.188546E-2,-1.7036095E-1,2.646912E-2,-1.5131265E-1,1.7523079E-1,-6.32092E-2,3.5789272E-1,-1.8739117E-2,-2.566041E-1,3.9743803E-2,1.1162468E-1,-2.8540127E-2,1.8832823E-2,1.3482131E-1,-1.1312294E-2,-1.2937139E-1],"categories":[],"categories_nodes":[],"categories_segments":[],"categories_sizes":[],"default_left":[0,0,0,0,0,0,0,0,0,0,0,0,0,0,0,0,0,0,0,0,0,0,0,0,0,0,0,0,0,0,0],"id":43,"left_children":[1,3,5,7,-1,9,11,13,15,17,19,-1,-1,-1,21,-1,23,-1,-1,25,-1,27,-1,29,-1,-1,-1,-1,-1,-1,-1],"loss_changes":[8.232004E-2,1.8798333E-1,8.430464E-2,2.3556945E-1,0E0,1.3636339E-1,2.2450992E-1,1.7232323E-1,2.6469418E-1,3.0552098E-1,2.3044643E-1,0E0,0E0,0E0,1.7839351E-1,0E0,2.614552E-1,0E0,0E0,2.0880538E-1,0E0,6.823802E-2,0E0,2.558776E-1,0E0,0E0,0E0,0E0,0E0,0E0,0E0],"parents":[2147483647,0,0,1,1,2,2,3,3,5,5,6,6,7,7,8,8,9,9,10,10,14,14,16,16,19,19,21,21,23,23],"right_children":[2,4,6,8,-1,10,12,14,16,18,20,-1,-1,-1,22,-1,24,-1,-1,26,-1,28,-1,30,-1,-1,-1,-1,-1,-1,-1],"split_conditions":[5.4890394E-1,2.7745146E-1,3.012741E0,2.0840296E-1,8.672203E-2,4.8468872E1,5.3607316E0,-2.7132256E0,3.644849E1,1.1694607E0,5.7815643E1,8.1772685E-2,-5.0550546E-2,-3.43154E-2,4.9873985E1,6.188546E-2,5.1632923E1,2.646912E-2,-1.5131265E-1,1.7028658E0,-6.32092E-2,4.085604E1,-1.8739117E-2,-1.0128543E0,3.9743803E-2,1.1162468E-1,-2.8540127E-2,1.8832823E-2,1.3482131E-1,-1.1312294E-2,-1.2937139E-1],"split_indices":[1,1,1,2,0,0,1,1,0,1,0,0,0,0,0,0,0,0,0,1,0,0,0,1,0,0,0,0,0,0,0],"split_type":[0,0,0,0,0,0,0,0,0,0,0,0,0,0,0,0,0,0,0,0,0,0,0,0,0,0,0,0,0,0,0],"sum_hessian":[2.4588064E1,1.5510035E1,9.07803E0,1.3931718E1,1.5783165E0,6.401175E0,2.6768544E0,4.7521267E0,9.179591E0,2.1946483E0,4.2065268E0,1.2894545E0,1.3874E0,1.1392583E0,3.6128685E0,1.4706059E0,7.7089853E0,1.0277419E0,1.1669064E0,2.2582188E0,1.9483081E0,2.5713422E0,1.0415264E0,6.119066E0,1.5899187E0,1.0890563E0,1.1691625E0,1.0076745E0,1.5636678E0,3.2549906E0,2.864076E0],"tree_param":{"num_deleted":"0","num_feature":"5","num_nodes":"31","size_leaf_vector":"1"}},{"base_weights":[1.4312227E-3,-1.2667452E-1,2.9730499E-2,6.458845E-2,-8.837148E-2,2.1029292E-1,-1.51697155E-2,-1.3173603E-2,4.256613E-2,3.988248E-2,1.0927283E-1,-1.2882118E-1,2.0101134E-2,9.255109E-2,-7.0328355E-2,4.7180288E-2,-8.134085E-2,1.4705881E-1,-5.3620905E-2,4.715562E-3,9.714124E-2,-9.589406E-2,2.4479786E-2,3.776236E-2,-4.65644E-2,5.7578474E-2,-1.7120862E-2],"categories":[],"categories_nodes":[],"categories_segments":[],"categories_sizes":[],"default_left":[0,0,0,0,0,0,0,0,0,0,0,0,0,0,0,0,0,0,0,0,0,0,0,0,0,0,0],"id":44,"left_children":[1,3,5,7,-1,9,11,-1,-1,13,-1,15,17,-1,-1,-1,-1,19,21,23,-1,-1,25,-1,-1,-1,-1],"loss_changes":[9.521834E-2,1.7170143E-1,1.7726761E-1,3.1749595E-2,0E0,9.94184E-2,7.52587E-2,0E0,0E0,3.0696663E-1,0E0,2.229469E-1,1.4547019E-1,0E0,0E0,0E0,0E0,1.410557E-1,2.1626861E-1,1.0002905E-1,0E0,0E0,1.2954234E-1,0E0,0E0,0E0,0E0],"parents":[2147483647,0,0,1,1,2,2,3,3,5,5,6,6,9,9,11,11,12,12,17,17,18,18,19,19,22,22],"right_children":[2,4,6,8,-1,10,12,-1,-1,14,-1,16,18,-1,-1,-1,-1,20,22,24,-1,-1,26,-1,-1,-1,-1],"split_conditions":[3.7423313E1,-1.9023213E0,4.04553E1,3.148904E1,-8.837148E-2,-6.4328855E-1,4.624302E1,-1.3173603E-2,4.256613E-2,-1.7661589E0,1.0927283E-1,2.4898632E-1,4.9873985E1,9.255109E-2,-7.0328355E-2,4.7180288E-2,-8.134085E-2,1.5610504E0,5.2280262E1,-5.556822E-1,9.714124E-2,-9.589406E-2,5.5372166E1,3.776236E-2,-4.65644E-2,5.7578474E-2,-1.7120862E-2],"split_indices":[0,1,0,0,0,1,0,0,0,1,0,2,0,0,0,0,0,1,0,1,0,0,0,0,0,0,0],"split_type":[0,0,0,0,0,0,0,0,0,0,0,0,0,0,0,0,0,0,0,0,0,0,0,0,0,0,0],"sum_hessian":[2.4226118E1,3.754396E0,2.0471722E1,2.0427122E0,1.7116836E0,3.3433125E0,1.712841E1,1.0295289E0,1.0131834E0,2.1844065E0,1.1589059E0,3.4285204E0,1.3699889E1,1.040669E0,1.1437377E0,1.1040453E0,2.3244753E0,4.6673727E0,9.0325165E0,3.1539745E0,1.5133982E0,1.348049E0,7.684468E0,1.915661E0,1.2383134E0,2.0734491E0,5.6110187E0],"tree_param":{"num_deleted":"0","num_feature":"5","num_nodes":"27","size_leaf_vector":"1"}},{"base_weights":[4.0561086E-3,-1.3851152E-1,2.4640083E-2,3.5150878E-2,-9.412051E-2,1.0877227E-1,-3.5130847E-2,1.2062088E-1,2.8348094E-2,-8.250412E-2,3.530021E-2,-8.02592E-2,1.5170287E-1,2.4866606E-1,-5.2462157E-2,1.5274031E-1,-4.9189065E-2,9.131964E-2,2.5566896E-2,-1.395303E-1,1.3839093E-1,-8.0478385E-2,2.40046E-2,-1.0491444E-1,1.7404705E-2,1.118091E-1,-3.6018997E-2],"categories":[],"categories_nodes":[],"categories_segments":[],"categories_sizes":[],"default_left":[0,0,0,0,0,0,0,0,0,0,0,0,0,0,0,0,0,0,0,0,0,0,0,0,0,0,0],"id":45,"left_children":[1,3,5,-1,-1,7,9,-1,11,-1,13,-1,15,17,19,-1,21,-1,-1,23,25,-1,-1,-1,-1,-1,-1],"loss_changes":[7.6633774E-2,1.8455699E-1,1.1772977E-1,0E0,0E0,2.1629192E-1,2.462268E-1,0E0,3.5634124E-1,0E0,2.3228472E-1,0E0,5.092904E-1,6.7278743E-3,1.708851E-1,0E0,1.6947964E-1,0E0,0E0,3.010501E-1,2.482014E-1,0E0,0E0,0E0,0E0,0E0,0E0],"parents":[2147483647,0,0,1,1,2,2,5,5,6,6,8,8,10,10,12,12,13,13,14,14,16,16,19,19,20,20],"right_children":[2,4,6,-1,-1,8,10,-1,12,-1,14,-1,16,18,20,-1,22,-1,-1,24,26,-1,-1,-1,-1,-1,-1],"split_conditions":[3.5707264E1,-3.1502125E0,4.6462322E1,3.5150878E-2,-9.412051E-2,-1.9122308E0,